%YAML:1.0
---
opencv_ml_svm:
   format: 3
   svmType: C_SVC
   kernel:
      type: RBF
      gamma: 1.
   C: 50.
   term_criteria: { epsilon:1.1920928955078125e-07, iterations:1000 }
   var_count: 60
   class_count: 2
   class_labels: !!opencv-matrix
      rows: 2
      cols: 1
      dt: i
      data: [ -1, 1 ]
   sv_total: 364
   support_vectors:
      - [ 2.85714287e-02, 5.71428575e-02, 2.85714287e-02, 0.,
          5.71428575e-02, 8.57142881e-02, 0., 2.85714287e-02, 0., 0.,
          5.71428575e-02, 2.85714287e-02, 0., 0., 2.85714287e-02, 0.,
          2.85714287e-02, 0., 8.57142881e-02, 0., 2.85714287e-02,
          5.71428575e-02, 0., 0., 0., 2.85714287e-02, 2.85714287e-02, 0.,
          0., 0., 2.85714287e-02, 2.85714287e-02, 0., 0., 0., 0.,
          5.71428575e-02, 0., 0., 2.85714287e-02, 0., 0., 0.,
          2.85714287e-02, 8.57142881e-02, 0., 0., 0., 2.85714287e-02, 0.,
          2.85714287e-02, 0., 0., 0., 0., 0., 0., 0., 0., 2.85714287e-02 ]
      - [ 0., 7.14285746e-02, 0., 4.76190485e-02, 2.38095243e-02,
          2.38095243e-02, 2.38095243e-02, 2.38095243e-02, 4.76190485e-02,
          0., 4.76190485e-02, 0., 0., 0., 2.38095243e-02, 2.38095243e-02,
          0., 2.38095243e-02, 2.38095243e-02, 0., 0., 0., 0., 0.,
          2.38095243e-02, 0., 2.38095243e-02, 4.76190485e-02,
          2.38095243e-02, 2.38095243e-02, 2.38095243e-02, 2.38095243e-02,
          2.38095243e-02, 0., 0., 0., 0., 7.14285746e-02, 0.,
          2.38095243e-02, 0., 2.38095243e-02, 0., 0., 0., 0., 0., 0., 0.,
          0., 4.76190485e-02, 2.38095243e-02, 4.76190485e-02,
          7.14285746e-02, 0., 0., 2.38095243e-02, 2.38095243e-02, 0.,
          2.38095243e-02 ]
      - [ 5.63380271e-02, 0., 0., 0., 2.81690136e-02, 4.22535203e-02, 0.,
          0., 1.40845068e-02, 1.40845068e-02, 0., 0., 0., 0., 0.,
          1.40845068e-02, 0., 0., 4.22535203e-02, 1.40845068e-02, 0.,
          2.81690136e-02, 2.81690136e-02, 1.40845068e-02, 2.81690136e-02,
          1.40845068e-02, 2.81690136e-02, 2.81690136e-02, 4.22535203e-02,
          1.40845068e-02, 0., 1.40845068e-02, 1.40845068e-02,
          1.40845068e-02, 7.04225302e-02, 1.40845068e-02, 0.,
          2.81690136e-02, 1.40845068e-02, 0., 4.22535203e-02, 0.,
          1.40845068e-02, 1.40845068e-02, 1.40845068e-02, 0.,
          2.81690136e-02, 0., 2.81690136e-02, 0., 7.04225302e-02,
          1.40845068e-02, 2.81690136e-02, 2.81690136e-02, 0.,
          2.81690136e-02, 0., 0., 7.04225302e-02, 0. ]
      - [ 7.22891539e-02, 1.20481923e-02, 0., 2.40963846e-02,
          2.40963846e-02, 1.20481923e-02, 3.61445770e-02, 0.,
          3.61445770e-02, 1.20481923e-02, 0., 3.61445770e-02,
          1.20481923e-02, 4.81927693e-02, 4.81927693e-02, 1.20481923e-02,
          1.20481923e-02, 0., 3.61445770e-02, 1.20481923e-02,
          1.20481923e-02, 2.40963846e-02, 0., 1.20481923e-02,
          3.61445770e-02, 0., 0., 1.20481923e-02, 2.40963846e-02,
          2.40963846e-02, 0., 1.20481923e-02, 1.20481923e-02,
          1.20481923e-02, 2.40963846e-02, 2.40963846e-02, 1.20481923e-02,
          2.40963846e-02, 0., 3.61445770e-02, 0., 2.40963846e-02,
          1.20481923e-02, 1.20481923e-02, 2.40963846e-02, 0.,
          1.20481923e-02, 3.61445770e-02, 0., 0., 3.61445770e-02, 0.,
          1.20481923e-02, 0., 1.20481923e-02, 0., 2.40963846e-02,
          1.20481923e-02, 2.40963846e-02, 1.20481923e-02 ]
      - [ 1.21951215e-02, 2.43902430e-02, 9.75609720e-02, 0., 0.,
          4.87804860e-02, 2.43902430e-02, 3.65853645e-02, 2.43902430e-02,
          1.21951215e-02, 1.21951215e-02, 1.21951215e-02, 1.21951215e-02,
          0., 3.65853645e-02, 0., 3.65853645e-02, 3.65853645e-02,
          1.21951215e-02, 0., 1.21951215e-02, 2.43902430e-02,
          1.21951215e-02, 3.65853645e-02, 2.43902430e-02, 1.21951215e-02,
          2.43902430e-02, 1.21951215e-02, 0., 0., 1.21951215e-02,
          2.43902430e-02, 1.21951215e-02, 1.21951215e-02, 1.21951215e-02,
          0., 4.87804860e-02, 1.21951215e-02, 0., 0., 0., 0.,
          1.21951215e-02, 1.21951215e-02, 1.21951215e-02, 0., 0.,
          2.43902430e-02, 1.21951215e-02, 1.21951215e-02, 4.87804860e-02,
          2.43902430e-02, 4.87804860e-02, 0., 2.43902430e-02, 0.,
          1.21951215e-02, 0., 2.43902430e-02, 0. ]
      - [ 4.16666679e-02, 2.08333340e-02, 2.08333340e-02, 2.08333340e-02,
          2.08333340e-02, 8.33333358e-02, 6.25000000e-02, 0.,
          2.08333340e-02, 0., 0., 2.08333340e-02, 0., 2.08333340e-02, 0.,
          2.08333340e-02, 0., 2.08333340e-02, 0., 0., 0., 0., 0.,
          4.16666679e-02, 2.08333340e-02, 0., 2.08333340e-02, 0.,
          8.33333358e-02, 4.16666679e-02, 2.08333340e-02, 0., 0., 0.,
          2.08333340e-02, 4.16666679e-02, 2.08333340e-02, 0.,
          4.16666679e-02, 4.16666679e-02, 0., 0., 0., 0., 4.16666679e-02,
          0., 2.08333340e-02, 0., 0., 2.08333340e-02, 2.08333340e-02, 0.,
          0., 2.08333340e-02, 0., 0., 0., 0., 6.25000000e-02,
          4.16666679e-02 ]
      - [ 5.66037744e-02, 3.77358496e-02, 0., 0., 3.77358496e-02,
          1.88679248e-02, 3.77358496e-02, 0., 0., 0., 1.88679248e-02,
          1.88679248e-02, 0., 1.88679248e-02, 0., 0., 0., 0.,
          5.66037744e-02, 0., 3.77358496e-02, 3.77358496e-02, 0.,
          3.77358496e-02, 0., 1.88679248e-02, 0., 0., 5.66037744e-02,
          3.77358496e-02, 0., 0., 0., 0., 5.66037744e-02, 1.88679248e-02,
          1.88679248e-02, 0., 0., 1.88679248e-02, 0., 0., 1.88679248e-02,
          7.54716992e-02, 0., 0., 1.88679248e-02, 0., 3.77358496e-02,
          1.88679248e-02, 0., 1.88679248e-02, 5.66037744e-02, 0.,
          1.88679248e-02, 0., 3.77358496e-02, 0., 0., 5.66037744e-02 ]
      - [ 3.44827585e-02, 0., 0., 1.72413792e-02, 0., 5.17241359e-02, 0.,
          3.44827585e-02, 1.72413792e-02, 0., 0., 3.44827585e-02,
          1.72413792e-02, 8.62068981e-02, 3.44827585e-02, 0., 0.,
          1.72413792e-02, 1.72413792e-02, 0., 3.44827585e-02, 0., 0.,
          1.72413792e-02, 0., 0., 6.89655170e-02, 0., 1.72413792e-02,
          3.44827585e-02, 0., 0., 1.72413792e-02, 0., 0., 0., 0., 0., 0.,
          1.72413792e-02, 0., 6.89655170e-02, 0., 6.89655170e-02,
          1.72413792e-02, 0., 6.89655170e-02, 3.44827585e-02,
          1.72413792e-02, 0., 1.72413792e-02, 0., 5.17241359e-02, 0.,
          1.72413792e-02, 0., 1.72413792e-02, 1.72413792e-02,
          1.72413792e-02, 1.72413792e-02 ]
      - [ 0., 0., 0., 0., 2.50000004e-02, 2.50000004e-02, 7.50000030e-02,
          2.50000004e-02, 5.00000007e-02, 0., 0., 2.50000004e-02, 0.,
          1.00000001e-01, 2.50000004e-02, 0., 2.50000004e-02,
          2.50000004e-02, 5.00000007e-02, 0., 2.50000004e-02,
          5.00000007e-02, 5.00000007e-02, 0., 7.50000030e-02, 0., 0., 0.,
          0., 0., 0., 0., 2.50000004e-02, 0., 0., 0., 2.50000004e-02,
          2.50000004e-02, 0., 2.50000004e-02, 0., 5.00000007e-02, 0., 0.,
          7.50000030e-02, 2.50000004e-02, 0., 0., 0., 2.50000004e-02,
          2.50000004e-02, 0., 0., 2.50000004e-02, 0., 2.50000004e-02, 0.,
          0., 0., 0. ]
      - [ 0., 0., 5.71428575e-02, 0., 0., 0., 2.85714287e-02, 0.,
          5.71428575e-02, 2.85714287e-02, 0., 0., 0., 8.57142881e-02,
          2.85714287e-02, 0., 0., 0., 1.14285715e-01, 0., 0.,
          5.71428575e-02, 0., 2.85714287e-02, 2.85714287e-02, 0.,
          8.57142881e-02, 2.85714287e-02, 1.14285715e-01, 0., 0., 0., 0.,
          0., 0., 0., 0., 2.85714287e-02, 2.85714287e-02, 5.71428575e-02,
          0., 0., 0., 0., 0., 2.85714287e-02, 0., 0., 0., 0., 0., 0.,
          5.71428575e-02, 2.85714287e-02, 0., 0., 0., 0., 0.,
          2.85714287e-02 ]
      - [ 2.12765951e-02, 0., 2.12765951e-02, 0., 0., 4.25531901e-02,
          2.12765951e-02, 2.12765951e-02, 2.12765951e-02, 4.25531901e-02,
          0., 0., 2.12765951e-02, 6.38297871e-02, 0., 2.12765951e-02,
          4.25531901e-02, 0., 4.25531901e-02, 0., 0., 4.25531901e-02, 0.,
          0., 2.12765951e-02, 2.12765951e-02, 2.12765951e-02,
          2.12765951e-02, 1.48936167e-01, 0., 0., 0., 2.12765951e-02, 0.,
          0., 2.12765951e-02, 2.12765951e-02, 0., 2.12765951e-02,
          4.25531901e-02, 2.12765951e-02, 2.12765951e-02, 0.,
          4.25531901e-02, 0., 0., 0., 0., 0., 6.38297871e-02,
          2.12765951e-02, 0., 0., 0., 0., 0., 2.12765951e-02, 0.,
          2.12765951e-02, 0. ]
      - [ 1.61290318e-02, 6.45161271e-02, 3.22580636e-02, 3.22580636e-02,
          3.22580636e-02, 1.61290318e-02, 3.22580636e-02, 1.61290318e-02,
          1.61290318e-02, 3.22580636e-02, 1.61290318e-02, 0., 0.,
          4.83870953e-02, 9.67741907e-02, 3.22580636e-02, 3.22580636e-02,
          1.61290318e-02, 1.61290318e-02, 0., 0., 0., 1.61290318e-02,
          4.83870953e-02, 0., 1.61290318e-02, 0., 0., 0., 0., 0., 0., 0.,
          4.83870953e-02, 0., 3.22580636e-02, 1.61290318e-02, 0., 0., 0.,
          1.61290318e-02, 0., 1.61290318e-02, 0., 3.22580636e-02, 0.,
          1.61290318e-02, 0., 1.61290318e-02, 0., 3.22580636e-02,
          1.61290318e-02, 0., 1.61290318e-02, 0., 0., 8.06451589e-02,
          1.61290318e-02, 0., 1.61290318e-02 ]
      - [ 3.07692308e-02, 1.53846154e-02, 4.61538471e-02, 1.53846154e-02,
          0., 1.53846154e-02, 0., 3.07692308e-02, 0., 3.07692308e-02,
          3.07692308e-02, 1.53846154e-02, 0., 4.61538471e-02,
          3.07692308e-02, 1.53846154e-02, 1.53846154e-02, 1.53846154e-02,
          3.07692308e-02, 0., 0., 0., 3.07692308e-02, 0., 1.53846154e-02,
          1.53846154e-02, 4.61538471e-02, 3.07692308e-02, 0., 0., 0., 0.,
          1.53846154e-02, 0., 0., 3.07692308e-02, 1.53846154e-02,
          1.53846154e-02, 0., 1.53846154e-02, 0., 4.61538471e-02, 0.,
          4.61538471e-02, 4.61538471e-02, 0., 1.53846154e-02,
          9.23076943e-02, 1.53846154e-02, 0., 4.61538471e-02,
          1.53846154e-02, 3.07692308e-02, 0., 0., 0., 1.53846154e-02, 0.,
          0., 1.53846154e-02 ]
      - [ 7.14285746e-02, 0., 7.14285746e-02, 0., 7.14285746e-02,
          7.14285746e-02, 3.57142873e-02, 0., 7.14285746e-02,
          3.57142873e-02, 3.57142873e-02, 0., 0., 3.57142873e-02, 0.,
          3.57142873e-02, 0., 0., 3.57142873e-02, 0., 0., 0.,
          3.57142873e-02, 0., 0., 7.14285746e-02, 0., 3.57142873e-02,
          7.14285746e-02, 0., 0., 0., 0., 0., 0., 0., 0., 0., 0.,
          3.57142873e-02, 3.57142873e-02, 0., 0., 0., 0., 0., 0., 0., 0.,
          0., 3.57142873e-02, 0., 7.14285746e-02, 0., 0., 0.,
          3.57142873e-02, 0., 0., 0. ]
      - [ 4.54545468e-02, 0., 0., 4.54545468e-02, 4.54545468e-02,
          4.54545468e-02, 2.27272734e-02, 0., 2.27272734e-02,
          2.27272734e-02, 0., 0., 0., 4.54545468e-02, 2.27272734e-02,
          2.27272734e-02, 2.27272734e-02, 0., 4.54545468e-02, 0., 0., 0.,
          0., 0., 2.27272734e-02, 0., 4.54545468e-02, 2.27272734e-02,
          2.27272734e-02, 4.54545468e-02, 0., 2.27272734e-02, 0., 0.,
          2.27272734e-02, 0., 2.27272734e-02, 0., 0., 2.27272734e-02, 0.,
          4.54545468e-02, 0., 2.27272734e-02, 0., 2.27272734e-02,
          2.27272734e-02, 0., 2.27272734e-02, 0., 0., 0., 2.27272734e-02,
          2.27272734e-02, 0., 2.27272734e-02, 6.81818202e-02,
          2.27272734e-02, 0., 4.54545468e-02 ]
      - [ 0., 1.75438598e-02, 0., 1.75438598e-02, 1.75438598e-02,
          5.26315793e-02, 1.75438598e-02, 0., 1.75438598e-02,
          1.75438598e-02, 0., 1.75438598e-02, 0., 5.26315793e-02,
          8.77192989e-02, 0., 0., 1.75438598e-02, 5.26315793e-02, 0.,
          3.50877196e-02, 0., 1.75438598e-02, 0., 0., 0., 1.75438598e-02,
          1.75438598e-02, 3.50877196e-02, 1.75438598e-02, 0., 0.,
          3.50877196e-02, 0., 1.75438598e-02, 0., 3.50877196e-02, 0.,
          7.01754391e-02, 0., 1.75438598e-02, 1.75438598e-02,
          1.75438598e-02, 5.26315793e-02, 0., 0., 1.75438598e-02,
          3.50877196e-02, 0., 0., 1.75438598e-02, 1.75438598e-02,
          1.75438598e-02, 0., 0., 0., 0., 0., 8.77192989e-02,
          1.75438598e-02 ]
      - [ 0., 1.96078438e-02, 1.96078438e-02, 5.88235334e-02,
          1.96078438e-02, 1.96078438e-02, 0., 0., 0., 1.96078438e-02,
          3.92156877e-02, 0., 3.92156877e-02, 0., 1.96078438e-02, 0.,
          1.96078438e-02, 0., 1.96078438e-02, 0., 0., 1.96078438e-02,
          1.96078438e-02, 1.96078438e-02, 0., 1.96078438e-02, 0., 0.,
          1.96078438e-02, 3.92156877e-02, 3.92156877e-02, 0.,
          5.88235334e-02, 0., 1.96078438e-02, 0., 0., 1.96078438e-02,
          1.96078438e-02, 0., 1.96078438e-02, 1.96078438e-02,
          1.96078438e-02, 1.96078438e-02, 0., 0., 1.96078438e-02,
          3.92156877e-02, 0., 0., 3.92156877e-02, 1.96078438e-02,
          5.88235334e-02, 1.96078438e-02, 0., 0., 1.96078438e-02, 0.,
          3.92156877e-02, 7.84313753e-02 ]
      - [ 1.16279069e-02, 0., 1.16279069e-02, 0., 2.32558139e-02,
          4.65116277e-02, 0., 1.16279069e-02, 1.16279069e-02,
          2.32558139e-02, 0., 0., 2.32558139e-02, 2.32558139e-02,
          3.48837227e-02, 0., 2.32558139e-02, 1.16279069e-02,
          3.48837227e-02, 0., 3.48837227e-02, 2.32558139e-02, 0.,
          1.16279069e-02, 1.16279069e-02, 2.32558139e-02, 4.65116277e-02,
          0., 3.48837227e-02, 9.30232555e-02, 0., 0., 1.16279069e-02, 0.,
          0., 2.32558139e-02, 2.32558139e-02, 0., 1.16279069e-02,
          1.16279069e-02, 2.32558139e-02, 1.16279069e-02, 0.,
          2.32558139e-02, 0., 3.48837227e-02, 4.65116277e-02,
          3.48837227e-02, 0., 0., 4.65116277e-02, 2.32558139e-02,
          4.65116277e-02, 0., 0., 0., 2.32558139e-02, 0., 0.,
          3.48837227e-02 ]
      - [ 1.75438598e-02, 1.75438598e-02, 1.75438598e-02, 3.50877196e-02,
          1.75438598e-02, 0., 1.75438598e-02, 0., 1.75438598e-02,
          3.50877196e-02, 3.50877196e-02, 1.75438598e-02, 0.,
          3.50877196e-02, 0., 1.75438598e-02, 0., 1.75438598e-02,
          5.26315793e-02, 0., 0., 0., 0., 1.75438598e-02, 3.50877196e-02,
          0., 0., 1.75438598e-02, 3.50877196e-02, 1.75438598e-02,
          3.50877196e-02, 0., 1.75438598e-02, 0., 3.50877196e-02,
          3.50877196e-02, 1.75438598e-02, 1.75438598e-02, 0.,
          3.50877196e-02, 0., 3.50877196e-02, 1.75438598e-02,
          3.50877196e-02, 1.75438598e-02, 0., 0., 1.75438598e-02,
          1.75438598e-02, 1.75438598e-02, 5.26315793e-02, 0.,
          3.50877196e-02, 0., 0., 1.75438598e-02, 1.75438598e-02, 0.,
          3.50877196e-02, 1.75438598e-02 ]
      - [ 2.98507456e-02, 1.49253728e-02, 1.49253728e-02, 0.,
          2.98507456e-02, 0., 1.49253728e-02, 1.49253728e-02,
          1.49253728e-02, 1.49253728e-02, 0., 0., 0., 1.49253728e-02,
          2.98507456e-02, 1.49253728e-02, 0., 0., 0., 0., 1.49253728e-02,
          0., 0., 0., 0., 1.49253728e-02, 1.49253728e-02, 1.49253728e-02,
          2.98507456e-02, 0., 1.49253728e-02, 2.98507456e-02,
          5.97014911e-02, 1.49253728e-02, 0., 2.98507456e-02,
          5.97014911e-02, 4.47761193e-02, 1.49253728e-02, 2.98507456e-02,
          0., 1.49253728e-02, 0., 0., 0., 0., 1.49253728e-02,
          5.97014911e-02, 5.97014911e-02, 4.47761193e-02, 2.98507456e-02,
          4.47761193e-02, 2.98507456e-02, 2.98507456e-02, 1.49253728e-02,
          0., 2.98507456e-02, 0., 0., 2.98507456e-02 ]
      - [ 7.14285746e-02, 7.14285746e-02, 2.38095243e-02, 2.38095243e-02,
          2.38095243e-02, 2.38095243e-02, 0., 2.38095243e-02,
          2.38095243e-02, 0., 0., 4.76190485e-02, 0., 0., 0., 0., 0., 0.,
          0., 0., 7.14285746e-02, 0., 0., 7.14285746e-02, 4.76190485e-02,
          0., 2.38095243e-02, 0., 4.76190485e-02, 0., 2.38095243e-02,
          2.38095243e-02, 0., 0., 0., 0., 0., 0., 0., 0., 0., 0., 0., 0.,
          2.38095243e-02, 0., 2.38095243e-02, 0., 7.14285746e-02, 0.,
          2.38095243e-02, 0., 1.19047619e-01, 0., 4.76190485e-02, 0.,
          2.38095243e-02, 0., 2.38095243e-02, 0. ]
      - [ 5.06329127e-02, 2.53164563e-02, 2.53164563e-02, 0.,
          1.26582282e-02, 0., 0., 0., 1.26582282e-02, 0., 0.,
          2.53164563e-02, 0., 6.32911399e-02, 5.06329127e-02, 0.,
          2.53164563e-02, 0., 0., 0., 0., 0., 0., 1.26582282e-02, 0., 0.,
          2.53164563e-02, 6.32911399e-02, 1.01265825e-01, 3.79746854e-02,
          0., 0., 3.79746854e-02, 0., 0., 2.53164563e-02, 1.26582282e-02,
          0., 1.26582282e-02, 2.53164563e-02, 2.53164563e-02,
          2.53164563e-02, 0., 8.86075944e-02, 0., 0., 2.53164563e-02,
          5.06329127e-02, 0., 1.26582282e-02, 1.26582282e-02, 0., 0., 0.,
          2.53164563e-02, 0., 3.79746854e-02, 1.26582282e-02,
          2.53164563e-02, 1.26582282e-02 ]
      - [ 1.72413792e-02, 3.44827585e-02, 0., 3.44827585e-02,
          1.72413792e-02, 1.72413792e-02, 0., 1.72413792e-02, 0.,
          1.72413792e-02, 0., 1.72413792e-02, 1.72413792e-02,
          5.17241359e-02, 3.44827585e-02, 1.72413792e-02, 0.,
          1.72413792e-02, 6.89655170e-02, 0., 0., 0., 0., 0.,
          1.72413792e-02, 3.44827585e-02, 0., 1.72413792e-02,
          3.44827585e-02, 8.62068981e-02, 1.72413792e-02, 0., 0., 0.,
          1.72413792e-02, 0., 1.72413792e-02, 0., 3.44827585e-02,
          5.17241359e-02, 1.72413792e-02, 3.44827585e-02, 0.,
          1.72413792e-02, 1.72413792e-02, 0., 0., 1.72413792e-02, 0., 0.,
          1.72413792e-02, 0., 0., 1.72413792e-02, 1.72413792e-02,
          1.72413792e-02, 3.44827585e-02, 0., 6.89655170e-02,
          1.72413792e-02 ]
      - [ 1.33333337e-02, 1.33333337e-02, 2.66666673e-02, 3.99999991e-02,
          2.66666673e-02, 1.33333337e-02, 3.99999991e-02, 3.99999991e-02,
          2.66666673e-02, 2.66666673e-02, 0., 1.33333337e-02,
          2.66666673e-02, 0., 2.66666673e-02, 0., 2.66666673e-02,
          3.99999991e-02, 2.66666673e-02, 0., 1.33333337e-02, 0., 0.,
          1.33333337e-02, 2.66666673e-02, 3.99999991e-02, 2.66666673e-02,
          1.33333337e-02, 2.66666673e-02, 5.33333346e-02, 2.66666673e-02,
          0., 0., 1.33333337e-02, 0., 0., 3.99999991e-02, 1.33333337e-02,
          0., 0., 0., 0., 0., 2.66666673e-02, 1.33333337e-02, 0.,
          5.33333346e-02, 0., 2.66666673e-02, 0., 2.66666673e-02,
          3.99999991e-02, 2.66666673e-02, 0., 1.33333337e-02, 0.,
          1.33333337e-02, 0., 0., 2.66666673e-02 ]
      - [ 3.38983051e-02, 0., 3.38983051e-02, 0., 1.69491526e-02,
          3.38983051e-02, 0., 0., 3.38983051e-02, 0., 0., 0., 0.,
          6.77966103e-02, 8.47457647e-02, 1.69491526e-02, 1.69491526e-02,
          0., 0., 0., 1.69491526e-02, 1.69491526e-02, 0., 1.69491526e-02,
          0., 0., 1.69491526e-02, 1.69491526e-02, 0., 1.69491526e-02,
          1.69491526e-02, 3.38983051e-02, 3.38983051e-02, 1.69491526e-02,
          0., 0., 3.38983051e-02, 1.69491526e-02, 1.69491526e-02, 0.,
          1.69491526e-02, 5.08474559e-02, 1.69491526e-02, 3.38983051e-02,
          0., 0., 1.69491526e-02, 6.77966103e-02, 1.69491526e-02,
          1.69491526e-02, 5.08474559e-02, 0., 1.69491526e-02, 0., 0., 0.,
          1.69491526e-02, 0., 3.38983051e-02, 3.38983051e-02 ]
      - [ 4.16666679e-02, 0., 0., 8.33333358e-02, 0., 4.16666679e-02,
          2.08333340e-02, 0., 8.33333358e-02, 2.08333340e-02,
          2.08333340e-02, 0., 2.08333340e-02, 4.16666679e-02, 0., 0.,
          2.08333340e-02, 0., 4.16666679e-02, 4.16666679e-02,
          2.08333340e-02, 0., 2.08333340e-02, 2.08333340e-02,
          2.08333340e-02, 0., 4.16666679e-02, 0., 4.16666679e-02, 0., 0.,
          0., 2.08333340e-02, 0., 2.08333340e-02, 0., 2.08333340e-02,
          2.08333340e-02, 4.16666679e-02, 0., 0., 2.08333340e-02, 0., 0.,
          0., 2.08333340e-02, 4.16666679e-02, 2.08333340e-02,
          2.08333340e-02, 0., 2.08333340e-02, 0., 2.08333340e-02,
          2.08333340e-02, 0., 0., 0., 0., 2.08333340e-02, 2.08333340e-02 ]
      - [ 3.92156877e-02, 0., 0., 1.56862751e-01, 1.96078438e-02,
          1.96078438e-02, 0., 0., 1.96078438e-02, 0., 1.96078438e-02,
          1.96078438e-02, 0., 3.92156877e-02, 7.84313753e-02, 0., 0.,
          1.96078438e-02, 1.96078438e-02, 1.96078438e-02, 0., 0.,
          1.96078438e-02, 0., 0., 0., 3.92156877e-02, 1.96078438e-02, 0.,
          0., 0., 3.92156877e-02, 0., 0., 3.92156877e-02, 0.,
          5.88235334e-02, 0., 0., 0., 0., 3.92156877e-02, 0., 0.,
          1.96078438e-02, 0., 0., 7.84313753e-02, 5.88235334e-02, 0., 0.,
          0., 0., 0., 1.96078438e-02, 3.92156877e-02, 1.96078438e-02, 0.,
          1.96078438e-02, 1.96078438e-02 ]
      - [ 0., 1.85185187e-02, 1.85185187e-02, 0., 1.85185187e-02,
          1.85185187e-02, 1.85185187e-02, 0., 0., 3.70370373e-02,
          1.85185187e-02, 1.85185187e-02, 0., 5.55555560e-02, 0.,
          3.70370373e-02, 1.85185187e-02, 0., 5.55555560e-02,
          1.85185187e-02, 0., 1.85185187e-02, 3.70370373e-02, 0.,
          3.70370373e-02, 0., 7.40740746e-02, 3.70370373e-02,
          1.85185187e-02, 5.55555560e-02, 0., 0., 1.85185187e-02, 0., 0.,
          0., 3.70370373e-02, 0., 1.85185187e-02, 3.70370373e-02, 0., 0.,
          0., 0., 0., 0., 0., 0., 0., 1.85185187e-02, 3.70370373e-02,
          3.70370373e-02, 5.55555560e-02, 0., 1.85185187e-02, 0.,
          5.55555560e-02, 0., 0., 3.70370373e-02 ]
      - [ 6.45161271e-02, 1.61290318e-02, 0., 3.22580636e-02, 0.,
          1.61290318e-02, 0., 1.61290318e-02, 4.83870953e-02,
          1.61290318e-02, 6.45161271e-02, 3.22580636e-02, 1.61290318e-02,
          0., 1.61290318e-02, 0., 3.22580636e-02, 0., 0., 0.,
          3.22580636e-02, 1.61290318e-02, 1.61290318e-02, 1.61290318e-02,
          3.22580636e-02, 0., 6.45161271e-02, 0., 0., 9.67741907e-02,
          1.61290318e-02, 0., 1.61290318e-02, 3.22580636e-02,
          1.61290318e-02, 0., 6.45161271e-02, 3.22580636e-02, 0., 0., 0.,
          3.22580636e-02, 0., 1.61290318e-02, 1.61290318e-02,
          1.61290318e-02, 3.22580636e-02, 0., 0., 0., 1.61290318e-02,
          1.61290318e-02, 0., 0., 0., 0., 0., 1.61290318e-02,
          1.61290318e-02, 0. ]
      - [ 2.32558139e-02, 0., 6.97674453e-02, 2.32558139e-02, 0., 0.,
          2.32558139e-02, 6.97674453e-02, 2.32558139e-02, 0.,
          4.65116277e-02, 4.65116277e-02, 0., 2.32558139e-02, 0.,
          2.32558139e-02, 0., 0., 2.32558139e-02, 0., 0., 4.65116277e-02,
          0., 2.32558139e-02, 2.32558139e-02, 6.97674453e-02,
          4.65116277e-02, 6.97674453e-02, 4.65116277e-02, 2.32558139e-02,
          0., 0., 4.65116277e-02, 0., 0., 0., 0., 2.32558139e-02,
          2.32558139e-02, 0., 0., 0., 0., 2.32558139e-02, 0., 0., 0., 0.,
          2.32558139e-02, 0., 0., 2.32558139e-02, 4.65116277e-02,
          2.32558139e-02, 0., 0., 0., 0., 2.32558139e-02, 0. ]
      - [ 7.69230798e-02, 0., 1.92307699e-02, 3.84615399e-02, 0.,
          3.84615399e-02, 0., 0., 1.92307699e-02, 0., 1.92307699e-02, 0.,
          0., 3.84615399e-02, 5.76923117e-02, 1.92307699e-02, 0.,
          1.92307699e-02, 3.84615399e-02, 0., 0., 0., 1.92307699e-02,
          1.92307699e-02, 7.69230798e-02, 3.84615399e-02, 3.84615399e-02,
          0., 1.92307699e-02, 1.92307699e-02, 3.84615399e-02, 0.,
          1.92307699e-02, 0., 3.84615399e-02, 0., 1.92307699e-02, 0.,
          3.84615399e-02, 3.84615399e-02, 0., 0., 0., 0., 5.76923117e-02,
          0., 3.84615399e-02, 1.92307699e-02, 1.92307699e-02, 0., 0., 0.,
          0., 0., 0., 1.92307699e-02, 1.92307699e-02, 0., 1.92307699e-02,
          0. ]
      - [ 0., 0., 2.22222228e-02, 0., 0., 4.44444455e-02, 2.22222228e-02,
          4.44444455e-02, 2.22222228e-02, 0., 0., 2.22222228e-02,
          2.22222228e-02, 4.44444455e-02, 1.33333340e-01, 0., 0.,
          2.22222228e-02, 0., 0., 2.22222228e-02, 2.22222228e-02, 0., 0.,
          0., 0., 4.44444455e-02, 2.22222228e-02, 4.44444455e-02,
          2.22222228e-02, 2.22222228e-02, 2.22222228e-02, 0., 0.,
          2.22222228e-02, 0., 4.44444455e-02, 2.22222228e-02, 0., 0., 0.,
          4.44444455e-02, 0., 2.22222228e-02, 0., 0., 0., 2.22222228e-02,
          0., 4.44444455e-02, 0., 2.22222228e-02, 2.22222228e-02,
          2.22222228e-02, 4.44444455e-02, 0., 0., 0., 2.22222228e-02,
          2.22222228e-02 ]
      - [ 5.88235296e-02, 7.35294148e-02, 1.47058824e-02, 1.47058824e-02,
          2.94117648e-02, 1.47058824e-02, 0., 0., 2.94117648e-02,
          2.94117648e-02, 0., 4.41176482e-02, 1.47058824e-02, 0.,
          1.47058824e-02, 0., 1.47058824e-02, 1.47058824e-02, 0., 0., 0.,
          2.94117648e-02, 0., 1.47058824e-02, 2.94117648e-02, 0.,
          4.41176482e-02, 4.41176482e-02, 1.47058824e-02, 4.41176482e-02,
          1.47058824e-02, 1.47058824e-02, 0., 0., 2.94117648e-02,
          2.94117648e-02, 4.41176482e-02, 1.47058824e-02, 0., 0., 0.,
          1.47058824e-02, 0., 1.47058824e-02, 0., 0., 2.94117648e-02,
          2.94117648e-02, 4.41176482e-02, 0., 2.94117648e-02,
          1.47058824e-02, 0., 1.47058824e-02, 1.47058824e-02, 0., 0.,
          1.47058824e-02, 1.47058824e-02, 2.94117648e-02 ]
      - [ 4.41176482e-02, 1.47058824e-02, 2.94117648e-02, 1.47058824e-02,
          2.94117648e-02, 2.94117648e-02, 1.47058824e-02, 1.47058824e-02,
          0., 0., 4.41176482e-02, 1.47058824e-02, 0., 0., 0., 0.,
          1.47058824e-02, 0., 1.47058824e-02, 1.47058824e-02,
          1.47058824e-02, 2.94117648e-02, 2.94117648e-02, 2.94117648e-02,
          0., 1.47058824e-02, 0., 0., 7.35294148e-02, 4.41176482e-02,
          1.47058824e-02, 2.94117648e-02, 2.94117648e-02, 0.,
          1.47058824e-02, 1.47058824e-02, 5.88235296e-02, 1.47058824e-02,
          0., 1.47058824e-02, 1.47058824e-02, 1.47058824e-02, 0.,
          1.47058824e-02, 1.47058824e-02, 0., 4.41176482e-02, 0.,
          1.47058824e-02, 0., 2.94117648e-02, 2.94117648e-02,
          5.88235296e-02, 0., 0., 0., 2.94117648e-02, 1.47058824e-02, 0.,
          0. ]
      - [ 2.56410260e-02, 0., 0., 7.69230798e-02, 0., 0., 2.56410260e-02,
          5.12820520e-02, 2.56410260e-02, 2.56410260e-02, 0., 0., 0.,
          2.56410260e-02, 0., 2.56410260e-02, 0., 2.56410260e-02,
          7.69230798e-02, 0., 7.69230798e-02, 0., 5.12820520e-02, 0., 0.,
          0., 0., 0., 7.69230798e-02, 0., 0., 0., 0., 0., 2.56410260e-02,
          2.56410260e-02, 0., 2.56410260e-02, 0., 2.56410260e-02,
          2.56410260e-02, 7.69230798e-02, 0., 0., 2.56410260e-02, 0.,
          2.56410260e-02, 0., 2.56410260e-02, 5.12820520e-02,
          2.56410260e-02, 0., 0., 0., 0., 5.12820520e-02, 0., 0., 0., 0. ]
      - [ 3.38983051e-02, 0., 0., 5.08474559e-02, 1.69491526e-02,
          1.69491526e-02, 0., 1.69491526e-02, 3.38983051e-02,
          5.08474559e-02, 0., 1.69491526e-02, 0., 3.38983051e-02,
          5.08474559e-02, 1.69491526e-02, 0., 0., 3.38983051e-02, 0.,
          6.77966103e-02, 0., 1.69491526e-02, 1.69491526e-02, 0., 0.,
          1.69491526e-02, 1.69491526e-02, 1.69491526e-02, 0., 0., 0.,
          1.69491526e-02, 0., 0., 0., 1.69491526e-02, 0., 3.38983051e-02,
          0., 0., 1.69491526e-02, 0., 6.77966103e-02, 1.69491526e-02,
          1.69491526e-02, 1.69491526e-02, 3.38983051e-02, 0.,
          3.38983051e-02, 1.69491526e-02, 5.08474559e-02, 0.,
          1.69491526e-02, 5.08474559e-02, 3.38983051e-02, 1.69491526e-02,
          0., 0., 1.69491526e-02 ]
      - [ 2.04081628e-02, 4.08163257e-02, 0., 0., 4.08163257e-02,
          2.04081628e-02, 2.04081628e-02, 2.04081628e-02, 0., 0., 0., 0.,
          0., 4.08163257e-02, 2.04081628e-02, 0., 4.08163257e-02,
          2.04081628e-02, 1.02040812e-01, 0., 2.04081628e-02, 0., 0.,
          6.12244904e-02, 2.04081628e-02, 2.04081628e-02, 2.04081628e-02,
          0., 4.08163257e-02, 2.04081628e-02, 4.08163257e-02, 0.,
          2.04081628e-02, 0., 0., 0., 2.04081628e-02, 0., 0.,
          4.08163257e-02, 2.04081628e-02, 2.04081628e-02, 2.04081628e-02,
          0., 4.08163257e-02, 0., 2.04081628e-02, 0., 0., 2.04081628e-02,
          0., 4.08163257e-02, 2.04081628e-02, 0., 4.08163257e-02,
          2.04081628e-02, 0., 0., 0., 2.04081628e-02 ]
      - [ 0., 0., 0., 4.25531901e-02, 4.25531901e-02, 4.25531901e-02, 0.,
          0., 0., 6.38297871e-02, 0., 0., 0., 2.12765951e-02,
          6.38297871e-02, 2.12765951e-02, 2.12765951e-02, 4.25531901e-02,
          0., 0., 0., 0., 4.25531901e-02, 0., 4.25531901e-02, 0.,
          2.12765951e-02, 4.25531901e-02, 2.12765951e-02, 2.12765951e-02,
          2.12765951e-02, 2.12765951e-02, 2.12765951e-02, 0., 0.,
          2.12765951e-02, 2.12765951e-02, 4.25531901e-02, 2.12765951e-02,
          2.12765951e-02, 0., 2.12765951e-02, 0., 6.38297871e-02, 0., 0.,
          4.25531901e-02, 0., 0., 0., 0., 2.12765951e-02, 2.12765951e-02,
          0., 4.25531901e-02, 0., 0., 0., 2.12765951e-02, 2.12765951e-02 ]
      - [ 3.77358496e-02, 0., 0., 0., 0., 5.66037744e-02, 0.,
          3.77358496e-02, 0., 9.43396240e-02, 1.88679248e-02, 0.,
          1.88679248e-02, 0., 1.88679248e-02, 1.88679248e-02, 0.,
          1.88679248e-02, 0., 0., 1.88679248e-02, 1.88679248e-02, 0., 0.,
          0., 0., 3.77358496e-02, 1.88679248e-02, 1.88679248e-02, 0.,
          1.88679248e-02, 0., 1.88679248e-02, 0., 1.88679248e-02, 0.,
          5.66037744e-02, 1.88679248e-02, 0., 0., 0., 5.66037744e-02, 0.,
          5.66037744e-02, 0., 0., 1.88679248e-02, 9.43396240e-02,
          5.66037744e-02, 0., 1.88679248e-02, 1.88679248e-02,
          3.77358496e-02, 0., 0., 0., 0., 3.77358496e-02, 1.88679248e-02,
          1.88679248e-02 ]
      - [ 0., 0., 1.47058824e-02, 4.41176482e-02, 0., 0., 1.47058824e-02,
          0., 0., 2.94117648e-02, 0., 1.47058824e-02, 0., 0.,
          4.41176482e-02, 1.47058824e-02, 4.41176482e-02, 2.94117648e-02,
          1.47058824e-02, 0., 1.47058824e-02, 4.41176482e-02, 0.,
          4.41176482e-02, 0., 1.47058824e-02, 4.41176482e-02,
          2.94117648e-02, 2.94117648e-02, 7.35294148e-02, 0.,
          1.47058824e-02, 2.94117648e-02, 0., 0., 0., 7.35294148e-02,
          2.94117648e-02, 0., 0., 0., 2.94117648e-02, 0., 2.94117648e-02,
          1.47058824e-02, 0., 4.41176482e-02, 0., 2.94117648e-02, 0.,
          1.47058824e-02, 0., 1.47058824e-02, 0., 0., 0., 2.94117648e-02,
          1.47058824e-02, 0., 7.35294148e-02 ]
      - [ 8.16326514e-02, 0., 0., 2.04081628e-02, 2.04081628e-02,
          2.04081628e-02, 6.12244904e-02, 0., 6.12244904e-02, 0., 0.,
          2.04081628e-02, 4.08163257e-02, 0., 2.04081628e-02,
          2.04081628e-02, 0., 0., 6.12244904e-02, 0., 0., 4.08163257e-02,
          2.04081628e-02, 2.04081628e-02, 0., 2.04081628e-02,
          2.04081628e-02, 4.08163257e-02, 0., 6.12244904e-02,
          2.04081628e-02, 0., 2.04081628e-02, 0., 0., 0., 2.04081628e-02,
          0., 0., 0., 2.04081628e-02, 0., 0., 4.08163257e-02,
          2.04081628e-02, 0., 0., 2.04081628e-02, 4.08163257e-02,
          2.04081628e-02, 2.04081628e-02, 4.08163257e-02, 2.04081628e-02,
          2.04081628e-02, 0., 0., 0., 0., 0., 2.04081628e-02 ]
      - [ 2.08333340e-02, 0., 0., 0., 0., 8.33333358e-02, 0., 0., 0.,
          4.16666679e-02, 2.08333340e-02, 2.08333340e-02, 2.08333340e-02,
          6.25000000e-02, 4.16666679e-02, 0., 2.08333340e-02, 0.,
          2.08333340e-02, 0., 2.08333340e-02, 4.16666679e-02,
          4.16666679e-02, 0., 0., 2.08333340e-02, 6.25000000e-02,
          4.16666679e-02, 2.08333340e-02, 6.25000000e-02, 0., 0.,
          4.16666679e-02, 0., 0., 0., 4.16666679e-02, 0., 2.08333340e-02,
          2.08333340e-02, 2.08333340e-02, 0., 0., 6.25000000e-02, 0., 0.,
          0., 0., 0., 0., 2.08333340e-02, 0., 4.16666679e-02, 0., 0., 0.,
          0., 0., 2.08333340e-02, 4.16666679e-02 ]
      - [ 0., 0., 3.57142873e-02, 3.57142873e-02, 0., 3.57142873e-02,
          3.57142873e-02, 0., 3.57142873e-02, 0., 0., 0., 0., 0., 0., 0.,
          0., 0., 0., 0., 3.57142873e-02, 0., 0., 0., 0., 3.57142873e-02,
          0., 0., 0., 0., 0., 7.14285746e-02, 3.57142873e-02, 0.,
          7.14285746e-02, 0., 0., 7.14285746e-02, 0., 0., 7.14285746e-02,
          0., 3.57142873e-02, 3.57142873e-02, 7.14285746e-02,
          3.57142873e-02, 0., 0., 3.57142873e-02, 0., 7.14285746e-02,
          3.57142873e-02, 0., 0., 3.57142873e-02, 3.57142873e-02,
          3.57142873e-02, 0., 0., 0. ]
      - [ 0., 1.53846154e-02, 1.53846154e-02, 1.53846154e-02,
          3.07692308e-02, 4.61538471e-02, 3.07692308e-02, 0.,
          1.53846154e-02, 0., 4.61538471e-02, 1.53846154e-02,
          7.69230798e-02, 0., 1.53846154e-02, 0., 3.07692308e-02,
          1.53846154e-02, 1.53846154e-02, 1.53846154e-02, 1.53846154e-02,
          1.53846154e-02, 0., 0., 3.07692308e-02, 3.07692308e-02,
          1.53846154e-02, 0., 0., 4.61538471e-02, 1.53846154e-02,
          3.07692308e-02, 3.07692308e-02, 0., 0., 0., 7.69230798e-02, 0.,
          3.07692308e-02, 0., 0., 0., 0., 1.53846154e-02, 3.07692308e-02,
          0., 1.53846154e-02, 0., 1.53846154e-02, 1.53846154e-02,
          4.61538471e-02, 0., 1.53846154e-02, 0., 0., 0., 3.07692308e-02,
          0., 3.07692308e-02, 4.61538471e-02 ]
      - [ 1.69491526e-02, 1.69491526e-02, 0., 1.69491526e-02,
          5.08474559e-02, 5.08474559e-02, 1.69491526e-02, 1.69491526e-02,
          3.38983051e-02, 3.38983051e-02, 1.69491526e-02, 1.69491526e-02,
          1.69491526e-02, 6.77966103e-02, 5.08474559e-02, 1.69491526e-02,
          0., 0., 3.38983051e-02, 0., 1.69491526e-02, 0., 1.69491526e-02,
          0., 1.69491526e-02, 0., 1.69491526e-02, 0., 3.38983051e-02,
          5.08474559e-02, 3.38983051e-02, 0., 1.69491526e-02,
          1.69491526e-02, 0., 0., 0., 3.38983051e-02, 0., 1.69491526e-02,
          0., 0., 1.69491526e-02, 0., 1.69491526e-02, 1.69491526e-02, 0.,
          1.69491526e-02, 0., 0., 0., 5.08474559e-02, 3.38983051e-02,
          3.38983051e-02, 0., 0., 1.69491526e-02, 0., 1.69491526e-02,
          3.38983051e-02 ]
      - [ 0., 0., 1.63934417e-02, 1.63934417e-02, 0., 1.63934417e-02,
          1.63934417e-02, 1.63934417e-02, 4.91803251e-02, 4.91803251e-02,
          4.91803251e-02, 1.63934417e-02, 0., 1.31147534e-01,
          1.63934417e-02, 0., 3.27868834e-02, 3.27868834e-02,
          9.83606502e-02, 0., 1.63934417e-02, 1.63934417e-02, 0., 0., 0.,
          1.63934417e-02, 1.63934417e-02, 0., 1.63934417e-02, 0.,
          1.63934417e-02, 1.63934417e-02, 3.27868834e-02, 0.,
          3.27868834e-02, 0., 3.27868834e-02, 1.63934417e-02,
          4.91803251e-02, 0., 1.63934417e-02, 0., 0., 1.63934417e-02,
          1.63934417e-02, 0., 0., 1.63934417e-02, 0., 1.63934417e-02, 0.,
          1.63934417e-02, 1.63934417e-02, 0., 0., 1.63934417e-02,
          1.63934417e-02, 0., 0., 1.63934417e-02 ]
      - [ 1.99999996e-02, 1.99999996e-02, 0., 0., 1.99999996e-02, 0., 0.,
          3.99999991e-02, 1.99999996e-02, 1.99999996e-02, 0.,
          1.99999996e-02, 0., 0., 0., 0., 0., 3.99999991e-02, 0., 0.,
          5.99999987e-02, 1.99999996e-02, 5.99999987e-02, 1.99999996e-02,
          0., 1.99999996e-02, 1.99999996e-02, 0., 1.99999996e-02,
          5.99999987e-02, 0., 0., 0., 0., 0., 0., 3.99999991e-02,
          3.99999991e-02, 0., 0., 1.99999996e-02, 1.99999996e-02,
          1.99999996e-02, 9.99999940e-02, 1.99999996e-02, 1.99999996e-02,
          3.99999991e-02, 0., 1.99999996e-02, 1.99999996e-02,
          3.99999991e-02, 1.99999996e-02, 0., 1.99999996e-02, 0., 0.,
          3.99999991e-02, 1.99999996e-02, 0., 1.99999996e-02 ]
      - [ 0., 0., 0., 0., 1.92307699e-02, 0., 0., 1.92307699e-02, 0.,
          1.92307699e-02, 1.92307699e-02, 0., 0., 0., 3.84615399e-02,
          1.92307699e-02, 0., 0., 9.61538479e-02, 0., 1.92307699e-02,
          1.92307699e-02, 3.84615399e-02, 0., 1.92307699e-02, 0.,
          1.92307699e-02, 0., 3.84615399e-02, 3.84615399e-02,
          3.84615399e-02, 0., 3.84615399e-02, 1.92307699e-02,
          1.92307699e-02, 1.92307699e-02, 5.76923117e-02, 1.92307699e-02,
          1.92307699e-02, 0., 0., 5.76923117e-02, 0., 0., 1.92307699e-02,
          0., 1.92307699e-02, 1.92307699e-02, 1.92307699e-02,
          1.92307699e-02, 5.76923117e-02, 3.84615399e-02, 3.84615399e-02,
          3.84615399e-02, 0., 1.92307699e-02, 0., 0., 0., 0. ]
      - [ 4.44444455e-02, 4.44444455e-02, 2.22222228e-02, 0., 0., 0., 0.,
          0., 2.22222228e-02, 8.88888910e-02, 0., 6.66666701e-02,
          2.22222228e-02, 2.22222228e-02, 0., 0., 2.22222228e-02, 0.,
          6.66666701e-02, 0., 0., 0., 0., 2.22222228e-02, 2.22222228e-02,
          2.22222228e-02, 4.44444455e-02, 2.22222228e-02, 1.55555561e-01,
          0., 2.22222228e-02, 0., 2.22222228e-02, 0., 0., 0., 0.,
          2.22222228e-02, 0., 0., 0., 4.44444455e-02, 2.22222228e-02,
          2.22222228e-02, 0., 0., 2.22222228e-02, 0., 0., 0.,
          2.22222228e-02, 0., 2.22222228e-02, 0., 0., 0., 2.22222228e-02,
          0., 2.22222228e-02, 2.22222228e-02 ]
      - [ 3.38983051e-02, 1.69491526e-02, 0., 3.38983051e-02, 0.,
          1.69491526e-02, 3.38983051e-02, 1.69491526e-02, 3.38983051e-02,
          0., 1.69491526e-02, 0., 1.69491526e-02, 0., 0., 0.,
          1.69491526e-02, 0., 3.38983051e-02, 1.69491526e-02, 0.,
          1.69491526e-02, 5.08474559e-02, 3.38983051e-02, 5.08474559e-02,
          0., 5.08474559e-02, 0., 0., 3.38983051e-02, 3.38983051e-02, 0.,
          1.69491526e-02, 1.69491526e-02, 3.38983051e-02, 1.69491526e-02,
          0., 3.38983051e-02, 1.69491526e-02, 0., 0., 1.69491526e-02, 0.,
          1.69491526e-02, 0., 0., 1.69491526e-02, 1.69491526e-02, 0.,
          1.69491526e-02, 6.77966103e-02, 3.38983051e-02, 3.38983051e-02,
          0., 3.38983051e-02, 0., 0., 0., 0., 5.08474559e-02 ]
      - [ 1.96078438e-02, 0., 1.96078438e-02, 1.96078438e-02,
          1.96078438e-02, 3.92156877e-02, 3.92156877e-02, 0., 0., 0., 0.,
          1.96078438e-02, 1.96078438e-02, 0., 0., 0., 0., 1.96078438e-02,
          0., 0., 0., 1.96078438e-02, 0., 1.96078438e-02, 1.96078438e-02,
          5.88235334e-02, 0., 1.96078438e-02, 1.96078438e-02,
          5.88235334e-02, 0., 1.96078438e-02, 0., 0., 1.96078438e-02,
          1.96078438e-02, 3.92156877e-02, 0., 0., 0., 1.96078438e-02, 0.,
          1.96078438e-02, 5.88235334e-02, 5.88235334e-02, 0.,
          5.88235334e-02, 1.96078438e-02, 3.92156877e-02, 0.,
          3.92156877e-02, 0., 3.92156877e-02, 1.96078438e-02,
          7.84313753e-02, 0., 0., 0., 1.96078438e-02, 0. ]
      - [ 3.63636352e-02, 0., 0., 3.63636352e-02, 1.81818176e-02,
          3.63636352e-02, 0., 0., 1.81818176e-02, 1.81818176e-02, 0.,
          7.27272704e-02, 0., 3.63636352e-02, 1.81818176e-02,
          3.63636352e-02, 0., 0., 3.63636352e-02, 0., 3.63636352e-02, 0.,
          1.81818176e-02, 0., 1.81818176e-02, 0., 1.81818176e-02,
          1.81818176e-02, 9.09090862e-02, 0., 0., 0., 1.81818176e-02, 0.,
          1.81818176e-02, 3.63636352e-02, 0., 0., 5.45454547e-02,
          1.81818176e-02, 0., 3.63636352e-02, 0., 0., 1.81818176e-02, 0.,
          1.81818176e-02, 1.09090909e-01, 0., 0., 0., 0., 1.81818176e-02,
          0., 3.63636352e-02, 1.81818176e-02, 1.81818176e-02, 0.,
          1.81818176e-02, 0. ]
      - [ 4.34782617e-02, 2.17391308e-02, 0., 0., 2.17391308e-02,
          2.17391308e-02, 4.34782617e-02, 0., 0., 0., 0., 2.17391308e-02,
          0., 2.17391308e-02, 2.17391308e-02, 0., 2.17391308e-02, 0.,
          6.52173907e-02, 0., 2.17391308e-02, 0., 0., 2.17391308e-02, 0.,
          0., 0., 0., 4.34782617e-02, 0., 0., 4.34782617e-02,
          2.17391308e-02, 0., 0., 2.17391308e-02, 2.17391308e-02,
          2.17391308e-02, 2.17391308e-02, 2.17391308e-02, 0., 0.,
          2.17391308e-02, 4.34782617e-02, 0., 2.17391308e-02, 0., 0., 0.,
          4.34782617e-02, 6.52173907e-02, 2.17391308e-02, 2.17391308e-02,
          4.34782617e-02, 2.17391308e-02, 0., 0., 2.17391308e-02, 0.,
          1.08695656e-01 ]
      - [ 3.17460336e-02, 1.58730168e-02, 0., 0., 1.58730168e-02,
          1.58730168e-02, 3.17460336e-02, 0., 1.58730168e-02,
          1.58730168e-02, 3.17460336e-02, 1.58730168e-02, 3.17460336e-02,
          1.58730168e-02, 0., 0., 0., 0., 3.17460336e-02, 0.,
          1.58730168e-02, 1.58730168e-02, 1.58730168e-02, 1.58730168e-02,
          1.58730168e-02, 3.17460336e-02, 3.17460336e-02, 1.58730168e-02,
          0., 6.34920672e-02, 1.58730168e-02, 1.58730168e-02,
          1.58730168e-02, 0., 0., 0., 0., 3.17460336e-02, 0., 0.,
          1.58730168e-02, 1.58730168e-02, 0., 1.11111119e-01, 0., 0., 0.,
          3.17460336e-02, 1.58730168e-02, 3.17460336e-02, 1.58730168e-02,
          0., 3.17460336e-02, 0., 1.58730168e-02, 0., 0., 3.17460336e-02,
          3.17460336e-02, 7.93650821e-02 ]
      - [ 5.55555560e-02, 3.70370373e-02, 3.70370373e-02, 3.70370373e-02,
          1.85185187e-02, 1.85185187e-02, 0., 3.70370373e-02,
          3.70370373e-02, 0., 0., 0., 0., 1.85185187e-02, 3.70370373e-02,
          0., 0., 0., 9.25925970e-02, 1.85185187e-02, 0., 0., 0.,
          1.85185187e-02, 0., 1.85185187e-02, 3.70370373e-02, 0.,
          5.55555560e-02, 1.85185187e-02, 1.85185187e-02, 0.,
          1.85185187e-02, 0., 0., 0., 3.70370373e-02, 0., 1.11111112e-01,
          0., 3.70370373e-02, 1.85185187e-02, 1.85185187e-02, 0.,
          1.85185187e-02, 0., 1.85185187e-02, 1.85185187e-02, 0.,
          5.55555560e-02, 0., 0., 0., 0., 0., 0., 1.85185187e-02,
          1.85185187e-02, 0., 0. ]
      - [ 4.28571440e-02, 1.42857144e-02, 2.85714287e-02, 1.42857144e-02,
          4.28571440e-02, 4.28571440e-02, 1.42857144e-02, 1.42857144e-02,
          0., 1.42857144e-02, 1.42857144e-02, 4.28571440e-02, 0., 0.,
          1.42857144e-02, 0., 1.42857144e-02, 1.42857144e-02,
          2.85714287e-02, 0., 2.85714287e-02, 2.85714287e-02, 0.,
          1.42857144e-02, 2.85714287e-02, 0., 1.42857144e-02,
          4.28571440e-02, 0., 5.71428575e-02, 4.28571440e-02,
          1.42857144e-02, 0., 0., 0., 1.42857144e-02, 4.28571440e-02, 0.,
          0., 0., 2.85714287e-02, 0., 1.42857144e-02, 4.28571440e-02,
          5.71428575e-02, 0., 0., 1.42857144e-02, 0., 0., 4.28571440e-02,
          0., 1.42857144e-02, 1.42857144e-02, 0., 1.42857144e-02, 0., 0.,
          2.85714287e-02, 4.28571440e-02 ]
      - [ 0., 5.55555560e-02, 0., 2.77777780e-02, 2.77777780e-02, 0.,
          2.77777780e-02, 0., 2.77777780e-02, 5.55555560e-02, 0., 0., 0.,
          0., 0., 0., 0., 5.55555560e-02, 0., 0., 2.77777780e-02, 0., 0.,
          0., 0., 0., 2.77777780e-02, 5.55555560e-02, 1.11111112e-01,
          2.77777780e-02, 2.77777780e-02, 2.77777780e-02, 0., 0.,
          2.77777780e-02, 0., 0., 0., 1.11111112e-01, 0., 0.,
          8.33333358e-02, 0., 5.55555560e-02, 0., 0., 0., 5.55555560e-02,
          0., 0., 2.77777780e-02, 2.77777780e-02, 2.77777780e-02, 0., 0.,
          0., 0., 0., 0., 0. ]
      - [ 3.77358496e-02, 0., 5.66037744e-02, 1.88679248e-02,
          3.77358496e-02, 0., 3.77358496e-02, 1.88679248e-02, 0., 0., 0.,
          7.54716992e-02, 0., 3.77358496e-02, 0., 1.88679248e-02,
          3.77358496e-02, 0., 1.88679248e-02, 0., 0., 1.88679248e-02,
          1.88679248e-02, 1.88679248e-02, 1.88679248e-02, 1.88679248e-02,
          3.77358496e-02, 1.88679248e-02, 1.88679248e-02, 5.66037744e-02,
          3.77358496e-02, 0., 0., 0., 0., 0., 7.54716992e-02,
          1.88679248e-02, 0., 0., 0., 0., 0., 1.88679248e-02,
          1.88679248e-02, 0., 1.88679248e-02, 1.88679248e-02, 0., 0.,
          3.77358496e-02, 1.88679248e-02, 3.77358496e-02, 1.88679248e-02,
          0., 0., 1.88679248e-02, 0., 1.88679248e-02, 1.88679248e-02 ]
      - [ 1.96078438e-02, 0., 3.92156877e-02, 0., 0., 1.96078438e-02,
          1.96078438e-02, 3.92156877e-02, 0., 1.96078438e-02,
          1.96078438e-02, 0., 0., 3.92156877e-02, 0., 0., 1.96078438e-02,
          1.96078438e-02, 3.92156877e-02, 0., 0., 1.96078438e-02, 0., 0.,
          5.88235334e-02, 7.84313753e-02, 0., 0., 0., 0., 3.92156877e-02,
          1.96078438e-02, 1.96078438e-02, 0., 0., 3.92156877e-02,
          3.92156877e-02, 1.96078438e-02, 0., 1.96078438e-02, 0., 0., 0.,
          0., 3.92156877e-02, 1.96078438e-02, 3.92156877e-02,
          1.96078438e-02, 0., 0., 7.84313753e-02, 0., 1.96078438e-02,
          1.96078438e-02, 0., 0., 1.96078438e-02, 1.96078438e-02,
          1.96078438e-02, 5.88235334e-02 ]
      - [ 0., 4.41176482e-02, 1.47058824e-02, 1.47058824e-02,
          1.47058824e-02, 4.41176482e-02, 2.94117648e-02, 0.,
          5.88235296e-02, 0., 1.47058824e-02, 0., 2.94117648e-02, 0.,
          1.47058824e-02, 0., 1.47058824e-02, 2.94117648e-02,
          1.47058824e-02, 0., 5.88235296e-02, 0., 0., 1.47058824e-02,
          4.41176482e-02, 0., 0., 0., 0., 5.88235296e-02, 1.47058824e-02,
          2.94117648e-02, 0., 0., 1.47058824e-02, 0., 2.94117648e-02,
          2.94117648e-02, 8.82352963e-02, 0., 1.47058824e-02,
          2.94117648e-02, 0., 1.47058824e-02, 4.41176482e-02, 0., 0., 0.,
          0., 0., 7.35294148e-02, 1.47058824e-02, 4.41176482e-02,
          1.47058824e-02, 0., 0., 1.47058824e-02, 0., 1.47058824e-02, 0. ]
      - [ 0., 1.36986300e-02, 0., 0., 5.47945201e-02, 1.36986300e-02,
          1.36986300e-02, 0., 0., 2.73972601e-02, 2.73972601e-02, 0.,
          1.36986300e-02, 4.10958901e-02, 2.73972601e-02, 1.36986300e-02,
          8.21917802e-02, 1.36986300e-02, 0., 0., 0., 0., 1.36986300e-02,
          2.73972601e-02, 1.36986300e-02, 1.36986300e-02, 1.36986300e-02,
          1.36986300e-02, 0., 8.21917802e-02, 1.36986300e-02,
          1.36986300e-02, 2.73972601e-02, 1.36986300e-02, 0.,
          1.36986300e-02, 4.10958901e-02, 0., 2.73972601e-02, 0., 0.,
          1.36986300e-02, 0., 4.10958901e-02, 0., 0., 0., 1.36986300e-01,
          0., 0., 0., 2.73972601e-02, 4.10958901e-02, 1.36986300e-02,
          1.36986300e-02, 0., 4.10958901e-02, 0., 0., 0. ]
      - [ 1.81818176e-02, 0., 0., 1.81818176e-02, 5.45454547e-02,
          5.45454547e-02, 5.45454547e-02, 1.81818176e-02, 1.81818176e-02,
          0., 1.81818176e-02, 0., 1.81818176e-02, 0., 0., 0., 0., 0.,
          1.81818176e-02, 0., 0., 3.63636352e-02, 1.81818176e-02, 0., 0.,
          0., 1.81818176e-02, 1.81818176e-02, 3.63636352e-02, 0.,
          3.63636352e-02, 1.81818176e-02, 0., 0., 1.81818176e-02,
          1.81818176e-02, 3.63636352e-02, 3.63636352e-02, 0.,
          3.63636352e-02, 5.45454547e-02, 0., 3.63636352e-02,
          1.81818176e-02, 1.81818176e-02, 0., 3.63636352e-02, 0., 0.,
          1.81818176e-02, 5.45454547e-02, 1.81818176e-02, 1.81818176e-02,
          3.63636352e-02, 0., 0., 0., 1.81818176e-02, 0., 5.45454547e-02 ]
      - [ 6.12244904e-02, 0., 0., 2.04081628e-02, 0., 0., 2.04081628e-02,
          0., 2.04081628e-02, 6.12244904e-02, 0., 0., 0., 0., 0., 0., 0.,
          0., 4.08163257e-02, 0., 2.04081628e-02, 4.08163257e-02,
          2.04081628e-02, 2.04081628e-02, 4.08163257e-02, 0.,
          4.08163257e-02, 4.08163257e-02, 2.04081628e-02, 6.12244904e-02,
          4.08163257e-02, 6.12244904e-02, 0., 0., 0., 2.04081628e-02,
          2.04081628e-02, 0., 0., 2.04081628e-02, 2.04081628e-02,
          4.08163257e-02, 0., 2.04081628e-02, 0., 0., 4.08163257e-02, 0.,
          0., 0., 8.16326514e-02, 0., 4.08163257e-02, 0., 0., 0., 0., 0.,
          4.08163257e-02, 2.04081628e-02 ]
      - [ 0., 0., 0., 0., 0., 0., 2.70270277e-02, 5.40540554e-02,
          2.70270277e-02, 2.70270277e-02, 0., 0., 0., 0., 1.08108111e-01,
          0., 2.70270277e-02, 0., 0., 0., 0., 0., 0., 0., 0.,
          2.70270277e-02, 5.40540554e-02, 1.08108111e-01, 0., 0.,
          2.70270277e-02, 0., 0., 0., 0., 2.70270277e-02, 0.,
          2.70270277e-02, 0., 5.40540554e-02, 8.10810849e-02,
          5.40540554e-02, 0., 0., 0., 0., 0., 1.89189196e-01, 0., 0.,
          2.70270277e-02, 0., 2.70270277e-02, 0., 0., 0., 2.70270277e-02,
          0., 0., 0. ]
      - [ 4.47761193e-02, 0., 4.47761193e-02, 1.49253728e-02,
          1.49253728e-02, 2.98507456e-02, 1.49253728e-02, 4.47761193e-02,
          0., 4.47761193e-02, 4.47761193e-02, 1.49253728e-02, 0., 0., 0.,
          0., 4.47761193e-02, 2.98507456e-02, 1.49253728e-02, 0.,
          1.49253728e-02, 1.49253728e-02, 0., 0., 0., 0., 4.47761193e-02,
          2.98507456e-02, 0., 8.95522386e-02, 0., 0., 2.98507456e-02,
          1.49253728e-02, 0., 0., 1.49253728e-02, 2.98507456e-02,
          1.49253728e-02, 1.49253728e-02, 0., 0., 0., 4.47761193e-02,
          1.49253728e-02, 1.49253728e-02, 1.49253728e-02, 1.49253728e-02,
          2.98507456e-02, 1.49253728e-02, 0., 0., 7.46268630e-02,
          1.49253728e-02, 0., 0., 2.98507456e-02, 0., 1.49253728e-02, 0. ]
      - [ 0., 2.98507456e-02, 2.98507456e-02, 0., 2.98507456e-02,
          4.47761193e-02, 0., 0., 0., 0., 0., 4.47761193e-02, 0., 0.,
          7.46268630e-02, 0., 0., 1.49253728e-02, 0., 1.49253728e-02, 0.,
          2.98507456e-02, 0., 0., 0., 0., 4.47761193e-02, 4.47761193e-02,
          1.49253728e-02, 5.97014911e-02, 1.49253728e-02, 0.,
          1.49253728e-02, 0., 0., 2.98507456e-02, 7.46268630e-02, 0., 0.,
          1.49253728e-02, 0., 4.47761193e-02, 0., 1.49253726e-01,
          1.49253728e-02, 0., 0., 5.97014911e-02, 1.49253728e-02, 0., 0.,
          1.49253728e-02, 2.98507456e-02, 1.49253728e-02, 0., 0., 0., 0.,
          1.49253728e-02, 1.49253728e-02 ]
      - [ 7.99999982e-02, 1.99999996e-02, 1.99999996e-02, 3.99999991e-02,
          5.99999987e-02, 1.99999996e-02, 3.99999991e-02, 3.99999991e-02,
          5.99999987e-02, 1.99999996e-02, 1.99999996e-02, 0., 0.,
          1.99999996e-02, 0., 5.99999987e-02, 0., 0., 1.99999996e-02, 0.,
          5.99999987e-02, 0., 1.99999996e-02, 0., 0., 0., 0., 0., 0., 0.,
          0., 0., 1.99999996e-02, 0., 0., 5.99999987e-02, 3.99999991e-02,
          1.99999996e-02, 0., 1.99999996e-02, 1.99999996e-02, 0.,
          1.99999996e-02, 0., 1.99999996e-02, 0., 0., 0., 0.,
          1.99999996e-02, 0., 0., 0., 3.99999991e-02, 0., 1.99999996e-02,
          1.99999996e-02, 3.99999991e-02, 1.99999996e-02, 1.99999996e-02 ]
      - [ 2.12765951e-02, 0., 4.25531901e-02, 2.12765951e-02, 0., 0.,
          6.38297871e-02, 4.25531901e-02, 0., 0., 0., 4.25531901e-02, 0.,
          0., 4.25531901e-02, 0., 0., 0., 0., 0., 0., 2.12765951e-02, 0.,
          0., 0., 2.12765951e-02, 0., 2.12765951e-02, 6.38297871e-02,
          2.12765951e-02, 2.12765951e-02, 0., 0., 0., 0., 0.,
          2.12765951e-02, 0., 0., 4.25531901e-02, 4.25531901e-02, 0.,
          2.12765951e-02, 4.25531901e-02, 4.25531901e-02, 2.12765951e-02,
          2.12765951e-02, 0., 0., 8.51063803e-02, 4.25531901e-02,
          2.12765951e-02, 4.25531901e-02, 0., 6.38297871e-02,
          2.12765951e-02, 0., 0., 0., 2.12765951e-02 ]
      - [ 0., 0., 5.99999987e-02, 1.99999996e-02, 1.99999996e-02,
          5.99999987e-02, 0., 0., 0., 3.99999991e-02, 1.99999996e-02, 0.,
          0., 0., 1.99999996e-02, 1.99999996e-02, 1.99999996e-02,
          1.99999996e-02, 1.99999996e-02, 0., 1.99999996e-02,
          5.99999987e-02, 0., 0., 0., 0., 5.99999987e-02, 1.99999996e-02,
          1.99999996e-02, 5.99999987e-02, 0., 1.99999996e-02, 0.,
          1.99999996e-02, 0., 0., 1.99999996e-02, 5.99999987e-02, 0.,
          1.99999996e-02, 0., 0., 0., 1.99999996e-02, 1.99999996e-02,
          1.99999996e-02, 1.99999996e-02, 1.99999996e-02, 1.99999996e-02,
          3.99999991e-02, 0., 0., 5.99999987e-02, 1.99999996e-02, 0., 0.,
          3.99999991e-02, 0., 1.99999996e-02, 0. ]
      - [ 4.34782617e-02, 0., 1.44927539e-02, 0., 0., 8.69565234e-02,
          2.89855078e-02, 2.89855078e-02, 4.34782617e-02, 2.89855078e-02,
          0., 2.89855078e-02, 1.44927539e-02, 1.44927539e-02,
          7.24637657e-02, 0., 0., 0., 1.44927539e-02, 1.44927539e-02, 0.,
          4.34782617e-02, 0., 2.89855078e-02, 1.44927539e-02,
          1.44927539e-02, 2.89855078e-02, 2.89855078e-02, 0.,
          4.34782617e-02, 0., 1.44927539e-02, 1.44927539e-02, 0., 0., 0.,
          2.89855078e-02, 2.89855078e-02, 0., 0., 0., 1.44927539e-02, 0.,
          4.34782617e-02, 0., 0., 4.34782617e-02, 1.44927539e-02,
          4.34782617e-02, 0., 1.44927539e-02, 1.44927539e-02,
          5.79710156e-02, 1.44927539e-02, 1.44927539e-02, 0., 0., 0., 0.,
          0. ]
      - [ 1.26582282e-02, 2.53164563e-02, 1.26582282e-02, 2.53164563e-02,
          2.53164563e-02, 0., 2.53164563e-02, 1.26582282e-02,
          3.79746854e-02, 0., 3.79746854e-02, 0., 2.53164563e-02, 0.,
          2.53164563e-02, 0., 5.06329127e-02, 1.26582282e-02, 0., 0.,
          1.26582282e-02, 1.26582282e-02, 2.53164563e-02, 0.,
          1.26582282e-02, 2.53164563e-02, 1.26582282e-02, 1.26582282e-02,
          1.26582282e-02, 2.53164563e-02, 3.79746854e-02, 2.53164563e-02,
          1.26582282e-02, 2.53164563e-02, 1.26582282e-02, 2.53164563e-02,
          1.26582282e-02, 2.53164563e-02, 1.26582282e-02, 5.06329127e-02,
          2.53164563e-02, 1.26582282e-02, 1.26582282e-02, 3.79746854e-02,
          0., 1.26582282e-02, 0., 0., 1.26582282e-02, 1.26582282e-02,
          5.06329127e-02, 2.53164563e-02, 1.26582282e-02, 0., 0., 0.,
          2.53164563e-02, 0., 2.53164563e-02, 1.26582282e-02 ]
      - [ 0., 0., 0., 9.09090880e-03, 7.27272704e-02, 9.09090880e-03,
          5.45454547e-02, 6.36363626e-02, 2.72727273e-02, 6.36363626e-02,
          9.09090880e-03, 0., 9.09090880e-03, 1.81818176e-02,
          2.72727273e-02, 0., 9.09090880e-03, 4.54545431e-02,
          9.09090880e-03, 3.63636352e-02, 9.09090880e-03, 9.09090880e-03,
          0., 9.09090880e-03, 0., 3.63636352e-02, 2.72727273e-02,
          2.72727273e-02, 0., 1.18181817e-01, 0., 9.09090880e-03,
          9.09090880e-03, 0., 9.09090880e-03, 0., 3.63636352e-02, 0., 0.,
          0., 0., 9.09090880e-03, 0., 1.81818176e-02, 0., 0.,
          9.09090880e-03, 2.72727273e-02, 1.81818176e-02, 0.,
          9.09090880e-03, 9.09090880e-03, 1.18181817e-01, 1.81818176e-02,
          0., 0., 0., 0., 0., 0. ]
      - [ 2.08333340e-02, 0., 6.25000000e-02, 4.16666679e-02,
          2.08333340e-02, 4.16666679e-02, 4.16666679e-02, 0., 0.,
          4.16666679e-02, 4.16666679e-02, 0., 0., 4.16666679e-02,
          6.25000000e-02, 0., 0., 4.16666679e-02, 6.25000000e-02, 0., 0.,
          0., 0., 0., 2.08333340e-02, 2.08333340e-02, 0., 0.,
          4.16666679e-02, 2.08333340e-02, 2.08333340e-02, 2.08333340e-02,
          0., 0., 4.16666679e-02, 0., 0., 0., 0., 2.08333340e-02, 0.,
          4.16666679e-02, 0., 0., 4.16666679e-02, 2.08333340e-02, 0., 0.,
          0., 2.08333340e-02, 2.08333340e-02, 0., 2.08333340e-02,
          8.33333358e-02, 0., 0., 2.08333340e-02, 0., 0., 0. ]
      - [ 2.32558139e-02, 4.65116277e-02, 0., 0., 2.32558139e-02,
          4.65116277e-02, 2.32558139e-02, 2.32558139e-02, 0.,
          4.65116277e-02, 4.65116277e-02, 2.32558139e-02, 0.,
          4.65116277e-02, 0., 2.32558139e-02, 2.32558139e-02, 0., 0., 0.,
          0., 2.32558139e-02, 0., 0., 0., 0., 4.65116277e-02,
          2.32558139e-02, 0., 0., 0., 0., 2.32558139e-02, 0., 0.,
          2.32558139e-02, 2.32558139e-02, 0., 0., 4.65116277e-02,
          2.32558139e-02, 0., 0., 6.97674453e-02, 0., 0., 0.,
          4.65116277e-02, 0., 6.97674453e-02, 2.32558139e-02, 0.,
          2.32558139e-02, 2.32558139e-02, 2.32558139e-02, 0.,
          2.32558139e-02, 2.32558139e-02, 4.65116277e-02, 0. ]
      - [ 2.63157897e-02, 5.26315793e-02, 0., 0., 0., 2.63157897e-02, 0.,
          0., 0., 0., 5.26315793e-02, 2.63157897e-02, 0., 0.,
          5.26315793e-02, 2.63157897e-02, 2.63157897e-02, 2.63157897e-02,
          0., 5.26315793e-02, 5.26315793e-02, 2.63157897e-02, 0., 0., 0.,
          2.63157897e-02, 0., 2.63157897e-02, 5.26315793e-02,
          2.63157897e-02, 0., 0., 5.26315793e-02, 0., 5.26315793e-02, 0.,
          2.63157897e-02, 0., 0., 0., 0., 2.63157897e-02, 0., 0.,
          2.63157897e-02, 0., 0., 0., 0., 0., 2.63157897e-02, 0.,
          5.26315793e-02, 2.63157897e-02, 0., 0., 0., 0., 5.26315793e-02,
          7.89473653e-02 ]
      - [ 7.84313753e-02, 0., 1.96078438e-02, 0., 3.92156877e-02, 0.,
          1.96078438e-02, 1.96078438e-02, 1.96078438e-02, 1.96078438e-02,
          0., 1.96078438e-02, 0., 0., 0., 1.96078438e-02, 0.,
          1.96078438e-02, 0., 0., 0., 1.96078438e-02, 0., 1.96078438e-02,
          1.96078438e-02, 3.92156877e-02, 3.92156877e-02, 3.92156877e-02,
          3.92156877e-02, 0., 0., 0., 0., 0., 1.96078438e-02, 0.,
          1.96078438e-02, 1.96078438e-02, 0., 5.88235334e-02, 0., 0.,
          1.96078438e-02, 3.92156877e-02, 3.92156877e-02, 0.,
          1.96078438e-02, 0., 1.96078438e-02, 0., 3.92156877e-02, 0.,
          5.88235334e-02, 0., 0., 0., 3.92156877e-02, 5.88235334e-02,
          3.92156877e-02, 1.96078438e-02 ]
      - [ 6.97674453e-02, 9.30232555e-02, 4.65116277e-02, 0.,
          2.32558139e-02, 2.32558139e-02, 2.32558139e-02, 4.65116277e-02,
          2.32558139e-02, 4.65116277e-02, 0., 0., 0., 6.97674453e-02,
          2.32558139e-02, 2.32558139e-02, 0., 0., 4.65116277e-02, 0., 0.,
          0., 2.32558139e-02, 0., 6.97674453e-02, 0., 0., 0.,
          2.32558139e-02, 6.97674453e-02, 0., 2.32558139e-02, 0., 0., 0.,
          0., 0., 0., 0., 2.32558139e-02, 0., 0., 0., 2.32558139e-02, 0.,
          0., 2.32558139e-02, 0., 2.32558139e-02, 0., 0., 0.,
          4.65116277e-02, 0., 2.32558139e-02, 0., 0., 0., 2.32558139e-02,
          4.65116277e-02 ]
      - [ 0., 0., 0., 2.32558139e-02, 2.32558139e-02, 2.32558139e-02,
          2.32558139e-02, 0., 2.32558139e-02, 0., 4.65116277e-02, 0., 0.,
          2.32558139e-02, 0., 6.97674453e-02, 0., 4.65116277e-02,
          6.97674453e-02, 0., 4.65116277e-02, 0., 4.65116277e-02, 0.,
          4.65116277e-02, 0., 0., 0., 4.65116277e-02, 0., 4.65116277e-02,
          2.32558139e-02, 0., 2.32558139e-02, 0., 0., 2.32558139e-02, 0.,
          0., 6.97674453e-02, 2.32558139e-02, 0., 0., 2.32558139e-02,
          2.32558139e-02, 0., 2.32558139e-02, 0., 0., 2.32558139e-02, 0.,
          0., 2.32558139e-02, 2.32558139e-02, 0., 2.32558139e-02,
          2.32558139e-02, 0., 2.32558139e-02, 2.32558139e-02 ]
      - [ 0., 2.08333340e-02, 4.16666679e-02, 8.33333358e-02,
          2.08333340e-02, 6.25000000e-02, 2.08333340e-02, 0.,
          2.08333340e-02, 0., 2.08333340e-02, 0., 0., 0., 4.16666679e-02,
          0., 2.08333340e-02, 0., 2.08333340e-02, 0., 0., 0.,
          2.08333340e-02, 6.25000000e-02, 0., 2.08333340e-02,
          2.08333340e-02, 0., 4.16666679e-02, 6.25000000e-02, 0., 0., 0.,
          0., 0., 0., 0., 2.08333340e-02, 2.08333340e-02, 0.,
          2.08333340e-02, 2.08333340e-02, 0., 4.16666679e-02,
          2.08333340e-02, 4.16666679e-02, 2.08333340e-02, 6.25000000e-02,
          2.08333340e-02, 2.08333340e-02, 0., 2.08333340e-02, 0.,
          2.08333340e-02, 0., 0., 0., 0., 2.08333340e-02, 2.08333340e-02 ]
      - [ 8.33333358e-02, 4.16666679e-02, 2.08333340e-02, 0.,
          4.16666679e-02, 4.16666679e-02, 2.08333340e-02, 0.,
          2.08333340e-02, 2.08333340e-02, 0., 2.08333340e-02, 0., 0.,
          2.08333340e-02, 2.08333340e-02, 0., 0., 0., 0., 0., 0., 0.,
          4.16666679e-02, 0., 2.08333340e-02, 2.08333340e-02,
          2.08333340e-02, 0., 2.08333340e-02, 0., 0., 2.08333340e-02, 0.,
          0., 6.25000000e-02, 0., 2.08333340e-02, 0., 4.16666679e-02,
          2.08333340e-02, 2.08333340e-02, 0., 4.16666679e-02, 0., 0., 0.,
          6.25000000e-02, 0., 4.16666679e-02, 4.16666679e-02, 0.,
          6.25000000e-02, 0., 2.08333340e-02, 0., 2.08333340e-02, 0.,
          4.16666679e-02, 0. ]
      - [ 3.50877196e-02, 3.50877196e-02, 5.26315793e-02, 0.,
          1.75438598e-02, 0., 5.26315793e-02, 0., 3.50877196e-02,
          1.75438598e-02, 0., 0., 3.50877196e-02, 3.50877196e-02,
          1.75438598e-02, 1.75438598e-02, 1.75438598e-02, 0.,
          3.50877196e-02, 0., 0., 0., 3.50877196e-02, 1.75438598e-02,
          5.26315793e-02, 0., 0., 0., 3.50877196e-02, 0., 1.75438598e-02,
          3.50877196e-02, 3.50877196e-02, 0., 0., 3.50877196e-02,
          3.50877196e-02, 3.50877196e-02, 0., 1.75438598e-02, 0., 0., 0.,
          0., 1.75438598e-02, 0., 0., 0., 1.75438598e-02, 1.75438598e-02,
          3.50877196e-02, 0., 5.26315793e-02, 3.50877196e-02, 0., 0.,
          5.26315793e-02, 0., 1.75438598e-02, 0. ]
      - [ 0., 0., 4.16666679e-02, 2.77777780e-02, 0., 2.77777780e-02, 0.,
          2.77777780e-02, 0., 1.38888890e-02, 0., 2.77777780e-02,
          2.77777780e-02, 4.16666679e-02, 1.38888890e-02, 2.77777780e-02,
          1.38888890e-02, 0., 4.16666679e-02, 0., 1.38888890e-02,
          2.77777780e-02, 0., 0., 2.77777780e-02, 1.38888890e-02, 0.,
          5.55555560e-02, 1.38888890e-02, 2.77777780e-02, 5.55555560e-02,
          1.38888890e-02, 0., 1.38888890e-02, 0., 0., 4.16666679e-02,
          5.55555560e-02, 0., 0., 0., 1.38888890e-02, 1.38888890e-02,
          5.55555560e-02, 0., 0., 1.38888890e-02, 0., 1.38888890e-02, 0.,
          0., 1.38888890e-02, 4.16666679e-02, 4.16666679e-02, 0., 0.,
          4.16666679e-02, 1.38888890e-02, 1.38888890e-02, 2.77777780e-02 ]
      - [ 5.17241359e-02, 1.72413792e-02, 0., 6.89655170e-02,
          3.44827585e-02, 3.44827585e-02, 1.72413792e-02, 0., 0., 0., 0.,
          1.72413792e-02, 0., 3.44827585e-02, 5.17241359e-02,
          1.72413792e-02, 0., 0., 1.72413792e-02, 0., 0., 0., 0., 0.,
          3.44827585e-02, 0., 1.72413792e-02, 0., 5.17241359e-02, 0., 0.,
          0., 6.89655170e-02, 1.72413792e-02, 1.72413792e-02, 0.,
          3.44827585e-02, 0., 0., 1.72413792e-02, 5.17241359e-02,
          6.89655170e-02, 3.44827585e-02, 3.44827585e-02, 3.44827585e-02,
          0., 1.72413792e-02, 1.72413792e-02, 0., 0., 1.72413792e-02, 0.,
          0., 1.72413792e-02, 1.72413792e-02, 1.72413792e-02,
          1.72413792e-02, 0., 0., 3.44827585e-02 ]
      - [ 1.72413792e-02, 3.44827585e-02, 0., 0., 1.72413792e-02,
          1.72413792e-02, 0., 1.72413792e-02, 1.72413792e-02,
          3.44827585e-02, 1.72413792e-02, 0., 1.72413792e-02,
          3.44827585e-02, 3.44827585e-02, 0., 1.72413792e-02, 0.,
          3.44827585e-02, 0., 1.72413792e-02, 0., 1.72413792e-02, 0.,
          3.44827585e-02, 5.17241359e-02, 3.44827585e-02, 1.72413792e-02,
          0., 6.89655170e-02, 1.72413792e-02, 0., 1.72413792e-02, 0.,
          1.72413792e-02, 1.72413792e-02, 0., 3.44827585e-02, 0.,
          3.44827585e-02, 0., 5.17241359e-02, 1.72413792e-02,
          3.44827585e-02, 0., 0., 3.44827585e-02, 0., 0., 3.44827585e-02,
          3.44827585e-02, 0., 3.44827585e-02, 0., 0., 0., 0.,
          1.72413792e-02, 3.44827585e-02, 1.72413792e-02 ]
      - [ 0., 0., 2.08333340e-02, 0., 4.16666679e-02, 2.08333340e-02, 0.,
          2.08333340e-02, 2.08333340e-02, 4.16666679e-02, 2.08333340e-02,
          2.08333340e-02, 0., 6.25000000e-02, 4.16666679e-02, 0.,
          2.08333340e-02, 2.08333340e-02, 4.16666679e-02, 0., 0.,
          4.16666679e-02, 2.08333340e-02, 4.16666679e-02, 2.08333340e-02,
          2.08333340e-02, 0., 0., 2.08333340e-02, 0., 2.08333340e-02, 0.,
          0., 0., 0., 0., 0., 0., 0., 0., 0., 6.25000000e-02,
          2.08333340e-02, 6.25000000e-02, 2.08333340e-02, 2.08333340e-02,
          0., 2.08333340e-02, 0., 2.08333340e-02, 4.16666679e-02,
          2.08333340e-02, 2.08333340e-02, 2.08333340e-02, 2.08333340e-02,
          0., 2.08333340e-02, 0., 0., 4.16666679e-02 ]
      - [ 5.00000045e-02, 1.66666675e-02, 1.66666675e-02, 0., 0.,
          3.33333351e-02, 0., 0., 1.66666675e-02, 0., 3.33333351e-02,
          1.66666675e-02, 1.66666675e-02, 5.00000045e-02, 1.66666675e-02,
          1.66666675e-02, 0., 1.66666675e-02, 8.33333358e-02, 0.,
          1.66666675e-02, 0., 1.66666675e-02, 3.33333351e-02, 0., 0.,
          1.66666675e-02, 0., 0., 3.33333351e-02, 0., 1.66666675e-02,
          1.66666675e-02, 0., 1.66666675e-02, 0., 0., 1.66666675e-02,
          1.66666675e-02, 3.33333351e-02, 0., 3.33333351e-02, 0.,
          3.33333351e-02, 3.33333351e-02, 1.66666675e-02, 1.66666675e-02,
          0., 0., 0., 6.66666701e-02, 0., 0., 1.66666675e-02,
          6.66666701e-02, 0., 5.00000045e-02, 0., 0., 5.00000045e-02 ]
      - [ 1.11111112e-01, 0., 0., 7.40740746e-02, 3.70370373e-02,
          3.70370373e-02, 3.70370373e-02, 0., 0., 0., 0., 0.,
          3.70370373e-02, 3.70370373e-02, 0., 0., 0., 0., 3.70370373e-02,
          0., 0., 0., 0., 0., 0., 3.70370373e-02, 3.70370373e-02, 0.,
          7.40740746e-02, 0., 3.70370373e-02, 0., 0., 0., 3.70370373e-02,
          0., 0., 3.70370373e-02, 3.70370373e-02, 3.70370373e-02, 0., 0.,
          0., 3.70370373e-02, 3.70370373e-02, 0., 0., 0., 0., 0.,
          3.70370373e-02, 0., 7.40740746e-02, 0., 0., 0., 3.70370373e-02,
          0., 3.70370373e-02, 0. ]
      - [ 4.65116277e-02, 2.32558139e-02, 0., 2.32558139e-02,
          2.32558139e-02, 0., 2.32558139e-02, 0., 2.32558139e-02, 0., 0.,
          4.65116277e-02, 0., 4.65116277e-02, 2.32558139e-02, 0., 0.,
          2.32558139e-02, 4.65116277e-02, 0., 6.97674453e-02, 0., 0., 0.,
          4.65116277e-02, 0., 2.32558139e-02, 2.32558139e-02,
          6.97674453e-02, 0., 0., 0., 2.32558139e-02, 0., 0.,
          4.65116277e-02, 0., 0., 4.65116277e-02, 6.97674453e-02, 0., 0.,
          2.32558139e-02, 0., 0., 0., 0., 0., 0., 4.65116277e-02,
          2.32558139e-02, 0., 2.32558139e-02, 2.32558139e-02, 0.,
          4.65116277e-02, 2.32558139e-02, 0., 0., 2.32558139e-02 ]
      - [ 5.71428575e-02, 5.71428575e-02, 0., 2.85714287e-02,
          5.71428575e-02, 0., 0., 2.85714287e-02, 2.85714287e-02,
          5.71428575e-02, 0., 0., 0., 0., 0., 2.85714287e-02, 0.,
          2.85714287e-02, 1.14285715e-01, 0., 5.71428575e-02, 0.,
          2.85714287e-02, 0., 0., 2.85714287e-02, 8.57142881e-02,
          2.85714287e-02, 2.85714287e-02, 0., 0., 0., 0., 0.,
          2.85714287e-02, 0., 2.85714287e-02, 2.85714287e-02, 0.,
          2.85714287e-02, 0., 0., 0., 2.85714287e-02, 0., 0., 0., 0., 0.,
          0., 2.85714287e-02, 2.85714287e-02, 0., 0., 0., 0., 0., 0.,
          2.85714287e-02, 2.85714287e-02 ]
      - [ 2.12765951e-02, 2.12765951e-02, 2.12765951e-02, 2.12765951e-02,
          0., 6.38297871e-02, 0., 0., 2.12765951e-02, 0., 2.12765951e-02,
          0., 0., 2.12765951e-02, 2.12765951e-02, 0., 0., 4.25531901e-02,
          1.27659574e-01, 0., 2.12765951e-02, 0., 2.12765951e-02, 0.,
          2.12765951e-02, 4.25531901e-02, 0., 0., 2.12765951e-02, 0.,
          2.12765951e-02, 0., 0., 2.12765951e-02, 0., 2.12765951e-02, 0.,
          2.12765951e-02, 0., 2.12765951e-02, 2.12765951e-02,
          4.25531901e-02, 0., 0., 2.12765951e-02, 0., 0., 0., 0.,
          4.25531901e-02, 8.51063803e-02, 2.12765951e-02, 2.12765951e-02,
          2.12765951e-02, 2.12765951e-02, 2.12765951e-02, 2.12765951e-02,
          0., 0., 2.12765951e-02 ]
      - [ 2.08333340e-02, 8.33333358e-02, 4.16666679e-02, 2.08333340e-02,
          0., 4.16666679e-02, 0., 0., 6.25000000e-02, 0., 2.08333340e-02,
          0., 0., 2.08333340e-02, 2.08333340e-02, 2.08333340e-02,
          2.08333340e-02, 0., 2.08333340e-02, 0., 0., 0., 0., 0.,
          4.16666679e-02, 2.08333340e-02, 0., 0., 0., 0., 2.08333340e-02,
          0., 0., 0., 0., 0., 4.16666679e-02, 0., 0., 6.25000000e-02, 0.,
          8.33333358e-02, 0., 0., 2.08333340e-02, 0., 2.08333340e-02,
          6.25000000e-02, 0., 0., 6.25000000e-02, 2.08333340e-02,
          2.08333340e-02, 2.08333340e-02, 2.08333340e-02, 4.16666679e-02,
          2.08333340e-02, 0., 0., 2.08333340e-02 ]
      - [ 2.70270277e-02, 2.70270277e-02, 2.70270277e-02, 0., 0.,
          1.35135144e-01, 2.70270277e-02, 0., 0., 0., 5.40540554e-02, 0.,
          0., 8.10810849e-02, 5.40540554e-02, 0., 0., 0., 5.40540554e-02,
          2.70270277e-02, 5.40540554e-02, 2.70270277e-02, 5.40540554e-02,
          0., 0., 2.70270277e-02, 2.70270277e-02, 0., 0., 2.70270277e-02,
          0., 2.70270277e-02, 0., 5.40540554e-02, 2.70270277e-02, 0.,
          2.70270277e-02, 0., 0., 2.70270277e-02, 0., 0., 0.,
          5.40540554e-02, 0., 0., 0., 0., 0., 0., 2.70270277e-02, 0., 0.,
          0., 0., 0., 0., 0., 0., 2.70270277e-02 ]
      - [ 0., 0., 0., 0., 3.03030312e-02, 4.54545468e-02, 4.54545468e-02,
          0., 1.51515156e-02, 1.51515156e-02, 6.06060624e-02,
          4.54545468e-02, 0., 0., 1.51515156e-02, 0., 0., 0., 0., 0., 0.,
          0., 0., 1.51515156e-02, 0., 4.54545468e-02, 6.06060624e-02, 0.,
          3.03030312e-02, 6.06060624e-02, 0., 0., 1.51515156e-02, 0.,
          1.51515156e-02, 3.03030312e-02, 0., 3.03030312e-02, 0., 0., 0.,
          1.51515156e-02, 1.51515156e-02, 3.03030312e-02, 0., 0.,
          1.51515156e-02, 6.06060624e-02, 3.03030312e-02, 1.51515156e-02,
          3.03030312e-02, 0., 1.51515156e-02, 7.57575780e-02,
          1.51515156e-02, 0., 1.51515156e-02, 1.51515156e-02,
          3.03030312e-02, 4.54545468e-02 ]
      - [ 1.72413792e-02, 1.72413792e-02, 0., 0., 0., 1.72413792e-02,
          1.72413792e-02, 1.72413792e-02, 1.72413792e-02, 1.72413792e-02,
          0., 3.44827585e-02, 3.44827585e-02, 0., 1.72413792e-02,
          3.44827585e-02, 1.72413792e-02, 5.17241359e-02, 3.44827585e-02,
          1.72413792e-02, 1.72413792e-02, 1.72413792e-02, 1.72413792e-02,
          0., 1.72413792e-02, 1.72413792e-02, 8.62068981e-02,
          1.72413792e-02, 0., 6.89655170e-02, 0., 1.72413792e-02, 0., 0.,
          0., 3.44827585e-02, 1.72413792e-02, 0., 0., 0., 0.,
          3.44827585e-02, 0., 3.44827585e-02, 1.72413792e-02, 0., 0.,
          1.72413792e-02, 3.44827585e-02, 1.72413792e-02, 0.,
          5.17241359e-02, 1.72413792e-02, 0., 3.44827585e-02,
          1.72413792e-02, 0., 0., 1.72413792e-02, 1.72413792e-02 ]
      - [ 6.77966103e-02, 3.38983051e-02, 1.69491526e-02, 0.,
          5.08474559e-02, 0., 1.69491526e-02, 0., 0., 0., 3.38983051e-02,
          1.69491526e-02, 0., 0., 0., 1.69491526e-02, 3.38983051e-02, 0.,
          1.69491526e-02, 0., 3.38983051e-02, 3.38983051e-02,
          1.69491526e-02, 5.08474559e-02, 1.69491526e-02, 0.,
          1.69491526e-02, 1.69491526e-02, 1.69491526e-02, 3.38983051e-02,
          0., 0., 0., 0., 0., 0., 3.38983051e-02, 1.69491526e-02, 0.,
          1.69491526e-02, 3.38983051e-02, 3.38983051e-02, 0.,
          5.08474559e-02, 3.38983051e-02, 1.69491526e-02, 1.69491526e-02,
          0., 3.38983051e-02, 1.69491526e-02, 1.69491526e-02,
          3.38983051e-02, 1.69491526e-02, 0., 1.69491526e-02, 0.,
          1.69491526e-02, 0., 1.69491526e-02, 3.38983051e-02 ]
      - [ 4.25531901e-02, 0., 0., 6.38297871e-02, 4.25531901e-02,
          2.12765951e-02, 2.12765951e-02, 6.38297871e-02, 0.,
          2.12765951e-02, 0., 0., 0., 2.12765951e-02, 0., 2.12765951e-02,
          0., 0., 4.25531901e-02, 0., 4.25531901e-02, 0., 0.,
          4.25531901e-02, 2.12765951e-02, 0., 0., 0., 8.51063803e-02, 0.,
          0., 2.12765951e-02, 4.25531901e-02, 0., 0., 0., 0., 0.,
          4.25531901e-02, 0., 0., 4.25531901e-02, 0., 8.51063803e-02,
          2.12765951e-02, 0., 6.38297871e-02, 2.12765951e-02,
          4.25531901e-02, 0., 0., 0., 0., 2.12765951e-02, 2.12765951e-02,
          0., 2.12765951e-02, 0., 0., 0. ]
      - [ 0., 2.98507456e-02, 1.49253728e-02, 4.47761193e-02,
          4.47761193e-02, 5.97014911e-02, 1.49253728e-02, 1.49253728e-02,
          5.97014911e-02, 0., 1.49253728e-02, 0., 1.49253728e-02,
          2.98507456e-02, 0., 0., 0., 2.98507456e-02, 1.49253728e-02, 0.,
          4.47761193e-02, 2.98507456e-02, 1.49253728e-02, 2.98507456e-02,
          2.98507456e-02, 0., 0., 0., 0., 0., 0., 5.97014911e-02, 0., 0.,
          1.49253728e-02, 1.49253728e-02, 4.47761193e-02, 2.98507456e-02,
          1.49253728e-02, 1.49253728e-02, 2.98507456e-02, 4.47761193e-02,
          0., 2.98507456e-02, 0., 1.49253728e-02, 2.98507456e-02,
          2.98507456e-02, 0., 2.98507456e-02, 1.49253728e-02, 0.,
          1.49253728e-02, 0., 0., 0., 0., 0., 0., 2.98507456e-02 ]
      - [ 0., 5.35714328e-02, 1.78571437e-02, 1.78571437e-02,
          1.78571437e-02, 7.14285746e-02, 5.35714328e-02, 0.,
          1.78571437e-02, 0., 1.78571437e-02, 0., 0., 1.07142866e-01,
          1.78571437e-02, 0., 1.78571437e-02, 0., 1.78571437e-02, 0., 0.,
          1.78571437e-02, 0., 1.78571437e-02, 1.78571437e-02,
          3.57142873e-02, 0., 0., 3.57142873e-02, 0., 0., 0., 0., 0.,
          1.78571437e-02, 1.78571437e-02, 0., 0., 1.78571437e-02,
          1.78571437e-02, 1.78571437e-02, 3.57142873e-02, 1.78571437e-02,
          0., 0., 1.78571437e-02, 3.57142873e-02, 0., 0., 0.,
          5.35714328e-02, 0., 5.35714328e-02, 3.57142873e-02, 0., 0., 0.,
          1.78571437e-02, 5.35714328e-02, 3.57142873e-02 ]
      - [ 0., 8.33333358e-02, 0., 0., 2.77777780e-02, 5.55555560e-02, 0.,
          5.55555560e-02, 0., 1.11111112e-01, 0., 2.77777780e-02, 0., 0.,
          2.77777780e-02, 0., 2.77777780e-02, 1.11111112e-01, 0., 0.,
          2.77777780e-02, 2.77777780e-02, 0., 0., 5.55555560e-02, 0.,
          2.77777780e-02, 1.11111112e-01, 0., 0., 0., 2.77777780e-02,
          5.55555560e-02, 0., 0., 0., 0., 0., 2.77777780e-02, 0., 0., 0.,
          0., 2.77777780e-02, 0., 0., 2.77777780e-02, 2.77777780e-02, 0.,
          0., 0., 0., 0., 2.77777780e-02, 0., 0., 0., 0., 0., 0. ]
      - [ 1.00000009e-01, 0., 0., 1.66666675e-02, 5.00000045e-02, 0.,
          1.66666675e-02, 1.66666675e-02, 1.66666675e-02, 0.,
          5.00000045e-02, 0., 0., 1.66666675e-02, 0., 0., 0.,
          3.33333351e-02, 0., 0., 3.33333351e-02, 0., 0., 0.,
          5.00000045e-02, 0., 1.66666675e-02, 3.33333351e-02,
          1.66666675e-02, 0., 3.33333351e-02, 0., 0., 0., 3.33333351e-02,
          0., 5.00000045e-02, 0., 1.66666675e-02, 5.00000045e-02,
          1.66666675e-02, 1.66666675e-02, 0., 0., 1.66666675e-02, 0.,
          3.33333351e-02, 1.66666675e-02, 5.00000045e-02, 0., 0., 0.,
          3.33333351e-02, 1.66666675e-02, 0., 3.33333351e-02,
          1.66666675e-02, 0., 1.00000009e-01, 0. ]
      - [ 4.08163257e-02, 2.04081628e-02, 2.04081628e-02, 4.08163257e-02,
          0., 4.08163257e-02, 4.08163257e-02, 0., 4.08163257e-02, 0.,
          2.04081628e-02, 0., 2.04081628e-02, 0., 4.08163257e-02, 0.,
          2.04081628e-02, 0., 8.16326514e-02, 0., 2.04081628e-02, 0., 0.,
          2.04081628e-02, 4.08163257e-02, 2.04081628e-02, 0., 0., 0., 0.,
          0., 4.08163257e-02, 2.04081628e-02, 0., 2.04081628e-02,
          2.04081628e-02, 4.08163257e-02, 0., 0., 2.04081628e-02, 0.,
          2.04081628e-02, 0., 0., 0., 0., 4.08163257e-02, 0.,
          2.04081628e-02, 2.04081628e-02, 0., 0., 2.04081628e-02,
          2.04081628e-02, 2.04081628e-02, 0., 4.08163257e-02,
          2.04081628e-02, 4.08163257e-02, 4.08163257e-02 ]
      - [ 0., 0., 0., 1.69491526e-02, 0., 1.69491526e-02, 0.,
          1.69491526e-02, 5.08474559e-02, 5.08474559e-02, 0.,
          6.77966103e-02, 0., 5.08474559e-02, 1.18644066e-01, 0.,
          1.69491526e-02, 0., 1.69491526e-02, 0., 1.69491526e-02,
          1.69491526e-02, 0., 0., 1.69491526e-02, 1.69491526e-02,
          3.38983051e-02, 3.38983051e-02, 0., 3.38983051e-02,
          1.69491526e-02, 1.69491526e-02, 1.69491526e-02, 0., 0., 0.,
          3.38983051e-02, 0., 0., 5.08474559e-02, 0., 8.47457647e-02, 0.,
          3.38983051e-02, 1.69491526e-02, 0., 1.69491526e-02, 0.,
          3.38983051e-02, 1.69491526e-02, 0., 0., 0., 1.69491526e-02, 0.,
          0., 1.69491526e-02, 0., 0., 3.38983051e-02 ]
      - [ 0., 7.14285746e-02, 3.57142873e-02, 1.78571437e-02,
          1.78571437e-02, 3.57142873e-02, 1.78571437e-02, 1.78571437e-02,
          3.57142873e-02, 3.57142873e-02, 0., 1.78571437e-02, 0., 0.,
          5.35714328e-02, 0., 1.78571437e-02, 0., 0., 0., 0., 0., 0.,
          3.57142873e-02, 1.78571437e-02, 1.78571437e-02, 5.35714328e-02,
          1.78571437e-02, 0., 1.78571437e-02, 0., 0., 1.78571437e-02, 0.,
          0., 3.57142873e-02, 3.57142873e-02, 3.57142873e-02, 0., 0., 0.,
          5.35714328e-02, 1.78571437e-02, 1.78571437e-02, 0., 0.,
          3.57142873e-02, 3.57142873e-02, 5.35714328e-02, 0.,
          1.78571437e-02, 1.78571437e-02, 3.57142873e-02, 0., 0.,
          1.78571437e-02, 0., 0., 0., 3.57142873e-02 ]
      - [ 1.61290318e-02, 3.22580636e-02, 1.61290318e-02, 4.83870953e-02,
          1.61290318e-02, 1.61290318e-02, 4.83870953e-02, 3.22580636e-02,
          0., 1.61290318e-02, 0., 3.22580636e-02, 0., 1.61290318e-02, 0.,
          1.61290318e-02, 0., 0., 1.61290318e-02, 1.61290318e-02,
          1.61290318e-02, 0., 1.61290318e-02, 0., 0., 1.61290318e-02, 0.,
          0., 3.22580636e-02, 0., 0., 0., 4.83870953e-02, 1.61290318e-02,
          1.61290318e-02, 0., 8.06451589e-02, 0., 1.61290318e-02, 0., 0.,
          3.22580636e-02, 4.83870953e-02, 6.45161271e-02, 3.22580636e-02,
          0., 4.83870953e-02, 1.61290318e-02, 1.61290318e-02,
          1.61290318e-02, 1.61290318e-02, 1.61290318e-02, 4.83870953e-02,
          1.61290318e-02, 1.61290318e-02, 0., 0., 0., 0., 1.61290318e-02 ]
      - [ 3.70370373e-02, 3.70370373e-02, 0., 4.93827164e-02,
          1.23456791e-02, 3.70370373e-02, 4.93827164e-02, 0., 0.,
          1.23456791e-02, 1.23456791e-02, 1.23456791e-02, 0.,
          1.23456791e-02, 1.23456791e-02, 1.23456791e-02, 2.46913582e-02,
          0., 0., 0., 0., 1.23456791e-02, 2.46913582e-02, 0., 0.,
          4.93827164e-02, 0., 0., 1.23456791e-02, 1.23456791e-02,
          2.46913582e-02, 0., 3.70370373e-02, 0., 1.23456791e-02, 0.,
          2.46913582e-02, 1.23456791e-02, 1.23456791e-02, 1.23456791e-02,
          2.46913582e-02, 7.40740746e-02, 1.23456791e-02, 0.,
          2.46913582e-02, 0., 3.70370373e-02, 2.46913582e-02, 0.,
          1.23456791e-02, 1.11111112e-01, 0., 2.46913582e-02,
          3.70370373e-02, 0., 0., 1.23456791e-02, 0., 0., 3.70370373e-02 ]
      - [ 1.78571437e-02, 1.78571437e-02, 1.78571437e-02, 0., 0.,
          3.57142873e-02, 3.57142873e-02, 5.35714328e-02, 5.35714328e-02,
          0., 0., 3.57142873e-02, 0., 1.25000000e-01, 1.78571437e-02, 0.,
          1.78571437e-02, 1.78571437e-02, 3.57142873e-02, 0.,
          1.78571437e-02, 0., 0., 1.78571437e-02, 0., 0., 1.78571437e-02,
          0., 3.57142873e-02, 1.78571437e-02, 0., 0., 5.35714328e-02, 0.,
          0., 3.57142873e-02, 0., 1.78571437e-02, 5.35714328e-02, 0.,
          1.78571437e-02, 3.57142873e-02, 0., 0., 1.78571437e-02, 0., 0.,
          3.57142873e-02, 0., 0., 0., 0., 1.78571437e-02, 1.78571437e-02,
          0., 1.78571437e-02, 1.78571437e-02, 0., 5.35714328e-02,
          1.78571437e-02 ]
      - [ 0., 5.12820520e-02, 1.28205130e-02, 0., 2.56410260e-02,
          1.28205130e-02, 2.56410260e-02, 1.28205130e-02, 0.,
          1.28205130e-02, 1.28205130e-02, 0., 1.28205130e-02,
          5.12820520e-02, 7.69230798e-02, 0., 2.56410260e-02, 0.,
          1.28205130e-02, 1.28205130e-02, 2.56410260e-02, 1.28205130e-02,
          1.28205130e-02, 1.28205130e-02, 0., 3.84615399e-02, 0., 0.,
          1.28205130e-02, 1.28205130e-02, 0., 2.56410260e-02,
          1.28205130e-02, 1.28205130e-02, 0., 3.84615399e-02,
          3.84615399e-02, 0., 2.56410260e-02, 0., 5.12820520e-02,
          1.28205130e-02, 0., 1.28205130e-02, 0., 0., 3.84615399e-02,
          1.28205130e-02, 0., 1.28205130e-02, 3.84615399e-02,
          1.28205130e-02, 1.28205130e-02, 1.02564104e-01, 0.,
          2.56410260e-02, 0., 0., 1.28205130e-02, 1.28205130e-02 ]
      - [ 0., 9.23076943e-02, 1.53846154e-02, 0., 3.07692308e-02,
          9.23076943e-02, 1.53846154e-02, 0., 0., 3.07692308e-02, 0.,
          1.53846154e-02, 0., 0., 1.53846154e-02, 0., 4.61538471e-02,
          1.53846154e-02, 0., 3.07692308e-02, 0., 1.53846154e-02,
          1.53846154e-02, 0., 0., 3.07692308e-02, 1.53846154e-02,
          1.53846154e-02, 3.07692308e-02, 1.53846154e-02, 1.53846154e-02,
          1.53846154e-02, 0., 1.53846154e-02, 0., 0., 4.61538471e-02,
          3.07692308e-02, 1.53846154e-02, 0., 3.07692308e-02,
          1.53846154e-02, 0., 3.07692308e-02, 0., 0., 0., 7.69230798e-02,
          0., 0., 3.07692308e-02, 3.07692308e-02, 1.53846154e-02,
          1.53846154e-02, 0., 1.53846154e-02, 0., 1.53846154e-02,
          1.53846154e-02, 3.07692308e-02 ]
      - [ 6.97674453e-02, 2.32558139e-02, 0., 0., 4.65116277e-02,
          4.65116277e-02, 0., 0., 2.32558139e-02, 4.65116277e-02, 0.,
          2.32558139e-02, 0., 2.32558139e-02, 0., 0., 0., 0.,
          2.32558139e-02, 0., 2.32558139e-02, 2.32558139e-02, 0., 0.,
          2.32558139e-02, 0., 0., 2.32558139e-02, 4.65116277e-02, 0., 0.,
          2.32558139e-02, 0., 0., 0., 0., 0., 0., 0., 6.97674453e-02,
          2.32558139e-02, 2.32558139e-02, 0., 2.32558139e-02,
          2.32558139e-02, 0., 2.32558139e-02, 2.32558139e-02, 0.,
          1.16279066e-01, 4.65116277e-02, 2.32558139e-02, 0.,
          2.32558139e-02, 2.32558139e-02, 0., 0., 0., 2.32558139e-02,
          4.65116277e-02 ]
      - [ 0., 3.77358496e-02, 5.66037744e-02, 1.88679248e-02, 0., 0.,
          3.77358496e-02, 1.88679248e-02, 0., 1.88679248e-02,
          1.88679248e-02, 0., 0., 7.54716992e-02, 1.88679248e-02,
          1.88679248e-02, 3.77358496e-02, 3.77358496e-02, 1.88679248e-02,
          0., 1.88679248e-02, 3.77358496e-02, 1.88679248e-02,
          1.88679248e-02, 3.77358496e-02, 0., 1.32075474e-01,
          1.88679248e-02, 0., 0., 0., 0., 1.88679248e-02, 0., 0., 0.,
          7.54716992e-02, 1.88679248e-02, 0., 0., 1.88679248e-02, 0., 0.,
          1.88679248e-02, 1.88679248e-02, 0., 1.88679248e-02,
          1.88679248e-02, 0., 0., 1.88679248e-02, 1.88679248e-02,
          3.77358496e-02, 0., 0., 0., 1.88679248e-02, 0., 0., 0. ]
      - [ 4.34782617e-02, 4.34782617e-02, 0., 2.17391308e-02, 0.,
          6.52173907e-02, 4.34782617e-02, 0., 0., 2.17391308e-02, 0.,
          6.52173907e-02, 2.17391308e-02, 2.17391308e-02, 0.,
          2.17391308e-02, 0., 0., 0., 0., 0., 2.17391308e-02, 0.,
          4.34782617e-02, 4.34782617e-02, 0., 4.34782617e-02,
          4.34782617e-02, 0., 0., 0., 0., 2.17391308e-02, 0., 0.,
          2.17391308e-02, 0., 0., 0., 0., 6.52173907e-02, 4.34782617e-02,
          0., 4.34782617e-02, 0., 2.17391308e-02, 0., 2.17391308e-02, 0.,
          4.34782617e-02, 6.52173907e-02, 2.17391308e-02, 0., 0.,
          2.17391308e-02, 0., 0., 0., 4.34782617e-02, 0. ]
      - [ 0., 2.85714287e-02, 0., 0., 0., 4.28571440e-02, 2.85714287e-02,
          0., 0., 1.42857144e-02, 2.85714287e-02, 2.85714287e-02, 0.,
          1.42857144e-02, 5.71428575e-02, 0., 1.42857144e-02,
          1.42857144e-02, 0., 0., 1.42857144e-02, 4.28571440e-02, 0., 0.,
          2.85714287e-02, 0., 4.28571440e-02, 2.85714287e-02, 0.,
          5.71428575e-02, 0., 0., 7.14285746e-02, 0., 0., 0.,
          1.00000001e-01, 0., 2.85714287e-02, 0., 1.42857144e-02,
          4.28571440e-02, 0., 4.28571440e-02, 0., 0., 0., 7.14285746e-02,
          0., 0., 1.42857144e-02, 2.85714287e-02, 1.42857144e-02,
          1.42857144e-02, 1.42857144e-02, 0., 0., 0., 4.28571440e-02,
          1.42857144e-02 ]
      - [ 1.02564104e-01, 0., 0., 0., 0., 5.12820520e-02, 0.,
          2.56410260e-02, 0., 1.02564104e-01, 0., 7.69230798e-02, 0., 0.,
          2.56410260e-02, 2.56410260e-02, 0., 0., 5.12820520e-02, 0., 0.,
          2.56410260e-02, 0., 0., 0., 0., 0., 0., 2.56410260e-02,
          2.56410260e-02, 0., 0., 0., 0., 0., 0., 0., 0., 0., 0., 0.,
          1.28205135e-01, 0., 1.02564104e-01, 2.56410260e-02, 0., 0., 0.,
          2.56410260e-02, 5.12820520e-02, 2.56410260e-02, 0.,
          7.69230798e-02, 0., 0., 0., 0., 0., 2.56410260e-02, 0. ]
      - [ 1.92307699e-02, 0., 0., 0., 1.92307699e-02, 1.92307699e-02,
          1.92307699e-02, 1.92307699e-02, 1.92307699e-02, 0.,
          3.84615399e-02, 0., 1.92307699e-02, 5.76923117e-02,
          1.92307699e-02, 0., 0., 1.92307699e-02, 0., 0., 3.84615399e-02,
          0., 1.92307699e-02, 0., 0., 0., 0., 1.92307699e-02,
          1.92307699e-02, 5.76923117e-02, 3.84615399e-02, 1.92307699e-02,
          0., 0., 0., 1.92307699e-02, 3.84615399e-02, 3.84615399e-02,
          1.92307699e-02, 9.61538479e-02, 0., 1.92307699e-02,
          1.92307699e-02, 0., 3.84615399e-02, 0., 1.92307699e-02,
          3.84615399e-02, 3.84615399e-02, 0., 0., 0., 1.92307699e-02,
          3.84615399e-02, 1.92307699e-02, 0., 0., 0., 3.84615399e-02,
          1.92307699e-02 ]
      - [ 0., 5.19480519e-02, 3.89610380e-02, 0., 1.29870130e-02,
          3.89610380e-02, 5.19480519e-02, 0., 0., 1.29870130e-02,
          2.59740259e-02, 0., 3.89610380e-02, 1.29870130e-02,
          1.29870130e-02, 0., 2.59740259e-02, 0., 1.29870130e-02,
          1.29870130e-02, 0., 0., 0., 3.89610380e-02, 2.59740259e-02, 0.,
          5.19480519e-02, 2.59740259e-02, 0., 1.42857149e-01,
          3.89610380e-02, 1.29870130e-02, 0., 0., 0., 1.29870130e-02,
          2.59740259e-02, 0., 0., 0., 0., 2.59740259e-02, 0.,
          3.89610380e-02, 2.59740259e-02, 0., 0., 0., 1.29870130e-02, 0.,
          2.59740259e-02, 2.59740259e-02, 2.59740259e-02, 3.89610380e-02,
          0., 0., 0., 1.29870130e-02, 1.29870130e-02, 2.59740259e-02 ]
      - [ 5.00000045e-02, 0., 5.00000045e-02, 1.66666675e-02,
          3.33333351e-02, 1.66666675e-02, 1.66666675e-02, 3.33333351e-02,
          1.66666675e-02, 1.66666675e-02, 0., 3.33333351e-02,
          1.66666675e-02, 0., 0., 1.66666675e-02, 1.66666675e-02, 0.,
          1.66666675e-02, 1.66666675e-02, 5.00000045e-02, 0.,
          1.66666675e-02, 1.66666675e-02, 3.33333351e-02, 1.66666675e-02,
          1.66666675e-02, 5.00000045e-02, 1.66666675e-02, 1.66666675e-02,
          1.66666675e-02, 1.66666675e-02, 3.33333351e-02, 0., 0., 0.,
          6.66666701e-02, 1.66666675e-02, 1.66666675e-02, 0., 0.,
          1.66666675e-02, 0., 1.66666675e-02, 1.66666675e-02, 0., 0.,
          8.33333358e-02, 0., 1.66666675e-02, 0., 1.66666675e-02,
          3.33333351e-02, 1.66666675e-02, 0., 0., 0., 0., 1.66666675e-02,
          0. ]
      - [ 0., 4.16666679e-02, 0., 0., 0., 1.04166672e-01, 4.16666679e-02,
          2.08333340e-02, 0., 2.08333340e-02, 2.08333340e-02,
          2.08333340e-02, 0., 4.16666679e-02, 1.04166672e-01,
          4.16666679e-02, 0., 2.08333340e-02, 2.08333340e-02, 0.,
          4.16666679e-02, 2.08333340e-02, 0., 0., 0., 2.08333340e-02,
          6.25000000e-02, 0., 0., 0., 0., 0., 4.16666679e-02, 0., 0., 0.,
          0., 0., 0., 0., 0., 4.16666679e-02, 0., 8.33333358e-02,
          2.08333340e-02, 0., 0., 1.04166672e-01, 0., 0., 0., 0., 0.,
          4.16666679e-02, 0., 0., 0., 0., 2.08333340e-02, 0. ]
      - [ 6.81818202e-02, 4.54545468e-02, 0., 2.27272734e-02,
          6.81818202e-02, 2.27272734e-02, 2.27272734e-02, 0.,
          2.27272734e-02, 2.27272734e-02, 2.27272734e-02, 0., 0.,
          6.81818202e-02, 0., 0., 0., 0., 4.54545468e-02, 0.,
          4.54545468e-02, 2.27272734e-02, 0., 0., 2.27272734e-02, 0., 0.,
          0., 0., 0., 2.27272734e-02, 0., 0., 0., 4.54545468e-02,
          4.54545468e-02, 0., 0., 0., 2.27272734e-02, 0., 2.27272734e-02,
          2.27272734e-02, 2.27272734e-02, 2.27272734e-02, 0.,
          2.27272734e-02, 0., 0., 0., 4.54545468e-02, 4.54545468e-02,
          4.54545468e-02, 0., 0., 0., 0., 2.27272734e-02, 4.54545468e-02,
          2.27272734e-02 ]
      - [ 3.77358496e-02, 1.88679248e-02, 1.88679248e-02, 1.88679248e-02,
          3.77358496e-02, 0., 0., 0., 3.77358496e-02, 3.77358496e-02,
          3.77358496e-02, 1.88679248e-02, 0., 5.66037744e-02,
          3.77358496e-02, 0., 0., 3.77358496e-02, 1.88679248e-02, 0.,
          1.88679248e-02, 3.77358496e-02, 1.88679248e-02, 0.,
          3.77358496e-02, 0., 5.66037744e-02, 3.77358496e-02,
          3.77358496e-02, 0., 0., 1.88679248e-02, 1.88679248e-02, 0.,
          1.88679248e-02, 1.88679248e-02, 1.88679248e-02, 1.88679248e-02,
          0., 0., 0., 3.77358496e-02, 0., 0., 0., 0., 5.66037744e-02, 0.,
          1.88679248e-02, 1.88679248e-02, 0., 0., 1.88679248e-02,
          3.77358496e-02, 0., 1.88679248e-02, 0., 0., 1.88679248e-02, 0. ]
      - [ 0., 2.32558139e-02, 0., 0., 0., 0., 0., 4.65116277e-02,
          4.65116277e-02, 4.65116277e-02, 0., 0., 0., 0., 0., 0.,
          2.32558139e-02, 0., 0., 0., 0., 0., 0., 2.32558139e-02,
          2.32558139e-02, 4.65116277e-02, 0., 2.32558139e-02,
          4.65116277e-02, 9.30232555e-02, 4.65116277e-02, 2.32558139e-02,
          4.65116277e-02, 0., 0., 0., 0., 4.65116277e-02, 0., 0., 0., 0.,
          0., 4.65116277e-02, 0., 0., 0., 2.32558139e-02, 2.32558139e-02,
          2.32558139e-02, 4.65116277e-02, 9.30232555e-02, 4.65116277e-02,
          0., 0., 0., 2.32558139e-02, 0., 2.32558139e-02, 4.65116277e-02 ]
      - [ 0., 0., 0., 5.71428575e-02, 2.85714287e-02, 0., 0.,
          2.85714287e-02, 2.85714287e-02, 0., 2.85714287e-02,
          2.85714287e-02, 0., 2.85714287e-02, 2.85714287e-02,
          5.71428575e-02, 0., 0., 0., 0., 2.85714287e-02, 2.85714287e-02,
          0., 2.85714287e-02, 2.85714287e-02, 8.57142881e-02,
          2.85714287e-02, 0., 0., 0., 0., 2.85714287e-02, 2.85714287e-02,
          2.85714287e-02, 0., 0., 0., 5.71428575e-02, 0., 0., 0.,
          5.71428575e-02, 0., 2.85714287e-02, 2.85714287e-02, 0., 0., 0.,
          0., 0., 2.85714287e-02, 2.85714287e-02, 8.57142881e-02,
          2.85714287e-02, 0., 0., 0., 0., 2.85714287e-02, 0. ]
      - [ 2.63157897e-02, 2.63157897e-02, 0., 0., 2.63157897e-02, 0., 0.,
          0., 0., 2.63157897e-02, 2.63157897e-02, 2.63157897e-02, 0., 0.,
          0., 0., 0., 0., 5.26315793e-02, 0., 5.26315793e-02, 0.,
          2.63157897e-02, 0., 0., 2.63157897e-02, 0., 0., 7.89473653e-02,
          0., 0., 5.26315793e-02, 0., 0., 0., 0., 0., 0., 0.,
          2.63157897e-02, 0., 0., 2.63157897e-02, 7.89473653e-02, 0., 0.,
          5.26315793e-02, 0., 5.26315793e-02, 5.26315793e-02,
          2.63157897e-02, 0., 1.31578952e-01, 0., 0., 0., 0.,
          2.63157897e-02, 2.63157897e-02, 5.26315793e-02 ]
      - [ 4.76190485e-02, 2.38095243e-02, 0., 2.38095243e-02, 0.,
          2.38095243e-02, 7.14285746e-02, 0., 2.38095243e-02, 0., 0.,
          2.38095243e-02, 0., 0., 2.38095243e-02, 0., 0., 0.,
          2.38095243e-02, 2.38095243e-02, 0., 4.76190485e-02, 0., 0., 0.,
          0., 0., 0., 4.76190485e-02, 2.38095243e-02, 0., 0.,
          4.76190485e-02, 0., 0., 0., 2.38095243e-02, 2.38095243e-02, 0.,
          0., 0., 4.76190485e-02, 0., 2.38095243e-02, 2.38095243e-02,
          2.38095243e-02, 2.38095243e-02, 0., 2.38095243e-02,
          4.76190485e-02, 0., 2.38095243e-02, 7.14285746e-02,
          7.14285746e-02, 2.38095243e-02, 0., 2.38095243e-02,
          2.38095243e-02, 0., 2.38095243e-02 ]
      - [ 5.26315793e-02, 5.26315793e-02, 0., 0., 2.63157897e-02,
          2.63157897e-02, 0., 0., 2.63157897e-02, 7.89473653e-02,
          5.26315793e-02, 2.63157897e-02, 0., 5.26315793e-02,
          2.63157897e-02, 2.63157897e-02, 0., 2.63157897e-02,
          5.26315793e-02, 0., 0., 0., 0., 0., 0., 0., 2.63157897e-02,
          2.63157897e-02, 2.63157897e-02, 0., 0., 0., 5.26315793e-02, 0.,
          0., 2.63157897e-02, 0., 2.63157897e-02, 0., 0., 0.,
          5.26315793e-02, 0., 0., 0., 0., 0., 5.26315793e-02, 0., 0.,
          2.63157897e-02, 0., 1.05263159e-01, 0., 0., 0., 0., 0., 0.,
          5.26315793e-02 ]
      - [ 3.50877196e-02, 1.75438598e-02, 1.75438598e-02, 1.75438598e-02,
          1.75438598e-02, 7.01754391e-02, 0., 1.75438598e-02, 0., 0., 0.,
          3.50877196e-02, 1.75438598e-02, 8.77192989e-02, 3.50877196e-02,
          0., 3.50877196e-02, 0., 0., 1.75438598e-02, 0., 1.75438598e-02,
          1.75438598e-02, 1.75438598e-02, 0., 3.50877196e-02,
          3.50877196e-02, 0., 1.75438598e-02, 3.50877196e-02, 0., 0.,
          3.50877196e-02, 0., 0., 8.77192989e-02, 1.75438598e-02, 0.,
          1.75438598e-02, 0., 0., 0., 0., 0., 1.75438598e-02, 0.,
          1.75438598e-02, 3.50877196e-02, 0., 0., 7.01754391e-02, 0., 0.,
          0., 0., 1.75438598e-02, 0., 0., 3.50877196e-02, 5.26315793e-02 ]
      - [ 3.70370373e-02, 3.70370373e-02, 3.70370373e-02, 0., 0., 0.,
          1.85185187e-02, 5.55555560e-02, 7.40740746e-02, 0.,
          3.70370373e-02, 1.85185187e-02, 1.85185187e-02, 0.,
          3.70370373e-02, 0., 1.85185187e-02, 0., 1.85185187e-02, 0.,
          1.85185187e-02, 1.85185187e-02, 1.85185187e-02, 1.85185187e-02,
          0., 1.85185187e-02, 3.70370373e-02, 5.55555560e-02,
          5.55555560e-02, 1.85185187e-02, 3.70370373e-02, 0., 0., 0., 0.,
          0., 3.70370373e-02, 0., 0., 1.85185187e-02, 1.85185187e-02,
          1.85185187e-02, 0., 1.85185187e-02, 1.85185187e-02, 0.,
          7.40740746e-02, 0., 1.85185187e-02, 0., 1.85185187e-02, 0., 0.,
          0., 0., 0., 1.85185187e-02, 1.85185187e-02, 0., 1.85185187e-02 ]
      - [ 0., 5.55555560e-02, 0., 0., 5.55555560e-02, 0., 0.,
          1.85185187e-02, 1.85185187e-02, 3.70370373e-02, 0.,
          1.85185187e-02, 0., 1.85185187e-02, 1.85185187e-02,
          1.85185187e-02, 0., 0., 0., 1.85185187e-02, 1.85185187e-02,
          5.55555560e-02, 5.55555560e-02, 0., 0., 1.85185187e-02,
          1.85185187e-02, 5.55555560e-02, 5.55555560e-02, 3.70370373e-02,
          0., 0., 0., 0., 1.85185187e-02, 0., 3.70370373e-02, 0.,
          3.70370373e-02, 0., 3.70370373e-02, 1.85185187e-02,
          5.55555560e-02, 0., 0., 0., 3.70370373e-02, 0., 3.70370373e-02,
          0., 3.70370373e-02, 1.85185187e-02, 1.85185187e-02,
          1.85185187e-02, 0., 0., 0., 0., 3.70370373e-02, 0. ]
      - [ 0., 2.04081628e-02, 0., 2.04081628e-02, 0., 6.12244904e-02, 0.,
          4.08163257e-02, 0., 2.04081628e-02, 2.04081628e-02,
          4.08163257e-02, 0., 2.04081628e-02, 2.04081628e-02,
          2.04081628e-02, 2.04081628e-02, 4.08163257e-02, 2.04081628e-02,
          0., 2.04081628e-02, 0., 2.04081628e-02, 0., 2.04081628e-02, 0.,
          4.08163257e-02, 2.04081628e-02, 2.04081628e-02, 8.16326514e-02,
          0., 0., 4.08163257e-02, 2.04081628e-02, 0., 0., 4.08163257e-02,
          0., 0., 0., 4.08163257e-02, 4.08163257e-02, 0., 2.04081628e-02,
          0., 0., 6.12244904e-02, 4.08163257e-02, 0., 0., 0., 0.,
          4.08163257e-02, 0., 4.08163257e-02, 0., 0., 0., 0.,
          2.04081628e-02 ]
      - [ 2.12765951e-02, 2.12765951e-02, 0., 4.25531901e-02, 0.,
          2.12765951e-02, 0., 2.12765951e-02, 2.12765951e-02,
          2.12765951e-02, 0., 0., 2.12765951e-02, 4.25531901e-02, 0.,
          2.12765951e-02, 0., 2.12765951e-02, 4.25531901e-02, 0., 0.,
          4.25531901e-02, 2.12765951e-02, 4.25531901e-02, 2.12765951e-02,
          2.12765951e-02, 2.12765951e-02, 0., 2.12765951e-02, 0.,
          2.12765951e-02, 4.25531901e-02, 0., 0., 2.12765951e-02, 0.,
          1.06382973e-01, 2.12765951e-02, 0., 0., 0., 0., 0.,
          2.12765951e-02, 2.12765951e-02, 0., 0., 0., 2.12765951e-02, 0.,
          2.12765951e-02, 0., 2.12765951e-02, 4.25531901e-02,
          4.25531901e-02, 2.12765951e-02, 0., 0., 0., 6.38297871e-02 ]
      - [ 2.08333340e-02, 0., 6.25000000e-02, 0., 0., 2.08333340e-02, 0.,
          2.08333340e-02, 0., 2.08333340e-02, 2.08333340e-02,
          2.08333340e-02, 0., 6.25000000e-02, 8.33333358e-02,
          2.08333340e-02, 0., 0., 4.16666679e-02, 0., 2.08333340e-02, 0.,
          0., 0., 6.25000000e-02, 0., 2.08333340e-02, 0., 6.25000000e-02,
          2.08333340e-02, 0., 2.08333340e-02, 4.16666679e-02, 0., 0., 0.,
          2.08333340e-02, 0., 0., 0., 0., 8.33333358e-02, 0.,
          4.16666679e-02, 0., 0., 0., 4.16666679e-02, 0., 0.,
          2.08333340e-02, 0., 4.16666679e-02, 0., 0., 0., 4.16666679e-02,
          0., 4.16666679e-02, 2.08333340e-02 ]
      - [ 1.51515156e-02, 1.51515156e-02, 0., 4.54545468e-02,
          3.03030312e-02, 3.03030312e-02, 0., 1.51515156e-02, 0.,
          1.51515156e-02, 1.51515156e-02, 1.51515156e-02, 1.51515156e-02,
          4.54545468e-02, 3.03030312e-02, 0., 1.51515156e-02,
          1.51515156e-02, 1.51515156e-02, 1.51515156e-02, 0.,
          7.57575780e-02, 3.03030312e-02, 1.51515156e-02, 1.51515156e-02,
          1.51515156e-02, 4.54545468e-02, 1.51515156e-02, 4.54545468e-02,
          1.51515156e-02, 0., 1.51515156e-02, 3.03030312e-02, 0., 0., 0.,
          4.54545468e-02, 4.54545468e-02, 0., 1.51515156e-02, 0.,
          3.03030312e-02, 0., 1.51515156e-02, 0., 0., 1.51515156e-02, 0.,
          1.51515156e-02, 0., 3.03030312e-02, 3.03030312e-02,
          3.03030312e-02, 1.51515156e-02, 0., 1.51515156e-02,
          3.03030312e-02, 0., 0., 0. ]
      - [ 2.08333340e-02, 0., 0., 0., 2.08333340e-02, 1.25000000e-01, 0.,
          2.08333340e-02, 6.25000000e-02, 2.08333340e-02, 0., 0., 0., 0.,
          0., 0., 2.08333340e-02, 0., 0., 0., 0., 4.16666679e-02, 0., 0.,
          2.08333340e-02, 0., 6.25000000e-02, 2.08333340e-02,
          4.16666679e-02, 8.33333358e-02, 0., 0., 2.08333340e-02, 0., 0.,
          2.08333340e-02, 2.08333340e-02, 2.08333340e-02, 0., 0., 0.,
          6.25000000e-02, 0., 2.08333340e-02, 0., 0., 2.08333340e-02,
          2.08333340e-02, 0., 0., 2.08333340e-02, 6.25000000e-02,
          6.25000000e-02, 0., 0., 2.08333340e-02, 0., 0., 6.25000000e-02,
          0. ]
      - [ 0., 0., 0., 0., 6.81818202e-02, 2.27272734e-02, 0., 0.,
          2.27272734e-02, 2.27272734e-02, 0., 0., 0., 0., 0.,
          2.27272734e-02, 0., 2.27272734e-02, 1.13636367e-01, 0., 0., 0.,
          6.81818202e-02, 0., 2.27272734e-02, 0., 2.27272734e-02,
          2.27272734e-02, 4.54545468e-02, 2.27272734e-02, 0., 0.,
          4.54545468e-02, 0., 2.27272734e-02, 0., 0., 0., 0.,
          1.59090906e-01, 0., 0., 2.27272734e-02, 6.81818202e-02,
          2.27272734e-02, 0., 0., 0., 0., 4.54545468e-02, 6.81818202e-02,
          0., 4.54545468e-02, 0., 0., 0., 0., 0., 0., 0. ]
      - [ 1.66666675e-02, 1.66666675e-02, 1.66666675e-02, 3.33333351e-02,
          5.00000045e-02, 1.66666675e-02, 1.66666675e-02, 5.00000045e-02,
          1.66666675e-02, 6.66666701e-02, 1.66666675e-02, 1.66666675e-02,
          0., 3.33333351e-02, 1.66666675e-02, 1.66666675e-02,
          3.33333351e-02, 0., 0., 0., 1.66666675e-02, 1.66666675e-02,
          1.66666675e-02, 0., 0., 3.33333351e-02, 1.66666675e-02,
          1.66666675e-02, 1.66666675e-02, 0., 1.66666675e-02, 0.,
          1.66666675e-02, 0., 0., 1.66666675e-02, 0., 1.66666675e-02, 0.,
          0., 3.33333351e-02, 1.66666675e-02, 0., 0., 0., 1.66666675e-02,
          1.66666675e-02, 1.66666675e-02, 0., 0., 3.33333351e-02,
          1.66666675e-02, 5.00000045e-02, 0., 0., 1.66666675e-02,
          1.66666675e-02, 0., 6.66666701e-02, 6.66666701e-02 ]
      - [ 0., 4.34782617e-02, 0., 0., 0., 0., 4.34782617e-02, 0., 0., 0.,
          0., 0., 0., 0., 0., 0., 0., 0., 8.69565234e-02, 0., 0., 0., 0.,
          0., 0., 0., 4.34782617e-02, 0., 1.30434781e-01, 0., 0., 0.,
          8.69565234e-02, 4.34782617e-02, 0., 0., 0., 0., 0.,
          8.69565234e-02, 0., 0., 0., 4.34782617e-02, 0., 0., 0.,
          4.34782617e-02, 0., 0., 0., 0., 4.34782617e-02, 4.34782617e-02,
          8.69565234e-02, 4.34782617e-02, 0., 0., 1.30434781e-01, 0. ]
      - [ 0., 0., 0., 2.04081628e-02, 2.04081628e-02, 4.08163257e-02,
          2.04081628e-02, 0., 2.04081628e-02, 6.12244904e-02, 0.,
          4.08163257e-02, 0., 0., 2.04081628e-02, 2.04081628e-02, 0.,
          2.04081628e-02, 0., 0., 4.08163257e-02, 0., 0., 0., 0., 0.,
          6.12244904e-02, 4.08163257e-02, 2.04081628e-02, 0., 0., 0.,
          4.08163257e-02, 0., 0., 0., 0., 4.08163257e-02, 0.,
          2.04081628e-02, 4.08163257e-02, 6.12244904e-02, 0.,
          2.04081628e-02, 0., 2.04081628e-02, 2.04081628e-02,
          6.12244904e-02, 0., 2.04081628e-02, 4.08163257e-02,
          2.04081628e-02, 4.08163257e-02, 0., 2.04081628e-02, 0., 0., 0.,
          6.12244904e-02, 2.04081628e-02 ]
      - [ 0., 0., 1.35135138e-02, 0., 4.05405425e-02, 1.35135138e-02, 0.,
          1.35135138e-02, 6.75675720e-02, 1.35135138e-02, 0.,
          1.35135138e-02, 0., 2.70270277e-02, 1.35135138e-02, 0.,
          4.05405425e-02, 1.35135138e-02, 0., 1.35135138e-02,
          2.70270277e-02, 1.35135138e-02, 2.70270277e-02, 1.35135138e-02,
          1.35135138e-02, 1.35135138e-02, 1.35135138e-02, 1.35135138e-02,
          2.70270277e-02, 9.45945978e-02, 0., 0., 2.70270277e-02,
          1.35135138e-02, 2.70270277e-02, 0., 4.05405425e-02, 0., 0.,
          1.35135138e-02, 0., 4.05405425e-02, 1.35135138e-02,
          1.35135138e-02, 0., 1.35135138e-02, 6.75675720e-02,
          1.35135138e-02, 1.35135138e-02, 1.35135138e-02, 1.35135138e-02,
          1.35135138e-02, 2.70270277e-02, 0., 0., 2.70270277e-02,
          2.70270277e-02, 0., 1.35135138e-02, 2.70270277e-02 ]
      - [ 1.36986300e-02, 4.10958901e-02, 1.36986300e-02, 2.73972601e-02,
          2.73972601e-02, 0., 1.36986300e-02, 2.73972601e-02,
