%YAML:1.0
---
opencv_ml_svm:
   format: 3
   svmType: C_SVC
   kernel:
      type: RBF
      gamma: 1.
   C: 10.
   term_criteria: { epsilon:1.1920928955078125e-07, iterations:1000 }
   var_count: 30
   class_count: 2
   class_labels: !!opencv-matrix
      rows: 2
      cols: 1
      dt: i
      data: [ -1, 1 ]
   sv_total: 276
   support_vectors:
      - [ 8.93743802e-03, 1.48957297e-02, 1.19165834e-02, 1.39026809e-02,
          1.19165834e-02, 4.17080447e-02, 3.07845082e-02, 7.74577931e-02,
          1.39026809e-02, 2.28401199e-02, 2.18470711e-02, 1.58887785e-02,
          2.97914594e-02, 8.04369375e-02, 5.16385287e-02, 2.97914594e-02,
          4.07149941e-02, 6.15690164e-02, 3.77358496e-02, 1.29096322e-02,
          3.27706039e-02, 7.24925548e-02, 8.93743802e-03, 7.64647499e-02,
          2.78053619e-02, 2.78053619e-02, 3.37636545e-02, 3.27706039e-02,
          4.07149941e-02, 1.58887785e-02 ]
      - [ 1.17117120e-02, 1.62162166e-02, 3.06306314e-02, 9.90991015e-03,
          5.40540554e-03, 3.51351351e-02, 2.25225240e-02, 8.73873904e-02,
          9.90991015e-03, 3.24324332e-02, 1.98198203e-02, 1.80180185e-02,
          2.70270277e-02, 6.66666701e-02, 3.87387387e-02, 2.61261277e-02,
          3.15315314e-02, 5.94594628e-02, 3.87387387e-02, 1.08108111e-02,
          3.69369388e-02, 9.45945978e-02, 1.44144148e-02, 7.92792812e-02,
          3.42342332e-02, 2.52252258e-02, 4.05405425e-02, 2.16216221e-02,
          3.96396406e-02, 1.53153157e-02 ]
      - [ 9.35828872e-03, 1.73796788e-02, 2.54010707e-02, 9.35828872e-03,
          6.68449234e-03, 2.94117648e-02, 2.67379694e-02, 1.00267380e-01,
          1.06951874e-02, 3.60962562e-02, 2.27272734e-02, 2.00534761e-02,
          3.07486635e-02, 7.75401071e-02, 6.68449178e-02, 1.73796788e-02,
          3.34224589e-02, 3.60962562e-02, 3.20855603e-02, 9.35828872e-03,
          3.47593576e-02, 7.21925125e-02, 9.35828872e-03, 8.42246041e-02,
          3.74331549e-02, 3.20855603e-02, 2.94117648e-02, 2.40641721e-02,
          3.87700535e-02, 2.00534761e-02 ]
      - [ 3.68098170e-02, 2.91411038e-02, 1.68711655e-02, 1.38036804e-02,
          1.84049085e-02, 3.22085880e-02, 5.82822077e-02, 7.51533732e-02,
          2.76073609e-02, 3.83435562e-02, 3.83435562e-02, 2.45398767e-02,
          2.45398767e-02, 4.14110422e-02, 9.20245424e-03, 3.83435562e-02,
          7.05521479e-02, 3.52760740e-02, 5.52147217e-02, 1.22699384e-02,
          3.06748450e-02, 3.98772992e-02, 1.22699384e-02, 6.90184012e-02,
          4.60122675e-02, 2.45398767e-02, 1.84049085e-02, 3.06748450e-02,
          6.13496918e-03, 2.60736197e-02 ]
      - [ 3.95894423e-02, 4.54545468e-02, 1.61290318e-02, 1.02639291e-02,
          1.75953079e-02, 2.78592370e-02, 6.01173006e-02, 7.18475059e-02,
          3.66568901e-02, 3.37243415e-02, 5.86510263e-02, 3.51906158e-02,
          8.79765395e-03, 3.51906158e-02, 1.75953079e-02, 3.22580636e-02,
          5.13196476e-02, 3.95894423e-02, 4.69208211e-02, 2.19941344e-02,
          1.61290318e-02, 4.69208211e-02, 5.86510263e-03, 7.47800618e-02,
          3.51906158e-02, 1.31964814e-02, 1.90615840e-02, 3.37243415e-02,
          2.05278583e-02, 2.78592370e-02 ]
      - [ 3.73983718e-02, 3.41463424e-02, 8.13008100e-03, 1.95121951e-02,
          2.43902430e-02, 6.01626001e-02, 6.17886148e-02, 6.17886148e-02,
          2.27642264e-02, 3.08943074e-02, 3.73983718e-02, 2.43902430e-02,
          2.92682927e-02, 3.08943074e-02, 1.46341464e-02, 4.06504050e-02,
          4.22764234e-02, 4.06504050e-02, 5.52845523e-02, 2.11382117e-02,
          3.41463424e-02, 5.04065044e-02, 1.30081298e-02, 6.66666627e-02,
          3.41463424e-02, 1.78861786e-02, 1.78861786e-02, 2.92682927e-02,
          1.46341464e-02, 2.43902430e-02 ]
      - [ 2.09731553e-02, 3.85906026e-02, 2.09731553e-02, 1.84563752e-02,
          3.02013420e-02, 5.15939593e-02, 3.73322144e-02, 5.57885915e-02,
          3.06208059e-02, 6.16610758e-02, 4.06879187e-02, 3.06208059e-02,
          3.52348983e-02, 2.01342292e-02, 2.26510074e-02, 2.85234898e-02,
          2.85234898e-02, 5.53691275e-02, 4.19463105e-02, 3.06208059e-02,
          3.43959741e-02, 3.18791941e-02, 1.84563752e-02, 5.32718115e-02,
          3.27181220e-02, 2.43288595e-02, 1.76174492e-02, 2.93624159e-02,
          1.55201340e-02, 4.19463105e-02 ]
      - [ 3.71223018e-02, 3.91366892e-02, 1.20863300e-02, 1.32374093e-02,
          2.27338113e-02, 5.32374084e-02, 5.66906445e-02, 7.56834522e-02,
          2.38848906e-02, 6.79136664e-02, 3.68345305e-02, 3.28057520e-02,
          2.79136673e-02, 1.69784166e-02, 1.64028760e-02, 2.47482006e-02,
          2.56115086e-02, 5.66906445e-02, 5.64028732e-02, 2.38848906e-02,
          2.73381285e-02, 3.76978405e-02, 1.78417265e-02, 5.43884858e-02,
          2.82014366e-02, 1.43884886e-02, 1.29496399e-02, 2.90647466e-02,
          1.43884886e-02, 4.37410064e-02 ]
      - [ 3.37041877e-02, 4.09031436e-02, 1.57068074e-02, 2.02879589e-02,
          2.12696344e-02, 4.31937166e-02, 5.56282736e-02, 7.39528835e-02,
          2.58507859e-02, 5.30104712e-02, 3.99214663e-02, 3.40314135e-02,
          2.61780098e-02, 2.35602092e-02, 1.70157067e-02, 3.10863871e-02,
          3.10863871e-02, 5.69371730e-02, 4.97382209e-02, 2.45418847e-02,
          2.45418847e-02, 3.40314135e-02, 1.99607331e-02, 6.05366491e-02,
          3.27225141e-02, 1.99607331e-02, 1.07984291e-02, 3.17408368e-02,
          1.27617801e-02, 3.53403129e-02 ]
      - [ 2.51489077e-02, 4.46724035e-02, 1.62144266e-02, 1.72071476e-02,
          2.54798140e-02, 4.56651226e-02, 5.19523472e-02, 6.18795492e-02,
          2.77961604e-02, 5.36068827e-02, 4.13633361e-02, 3.57379206e-02,
          2.61416286e-02, 2.48180013e-02, 1.38980802e-02, 2.31634676e-02,
          2.34943740e-02, 5.59232309e-02, 5.95632009e-02, 2.84579750e-02,
          2.87888814e-02, 3.90469879e-02, 1.72071476e-02, 6.02250174e-02,
          3.24288532e-02, 2.44870950e-02, 9.59629379e-03, 2.77961604e-02,
          1.09199202e-02, 4.73196544e-02 ]
      - [ 2.41220295e-02, 4.71798517e-02, 1.77367870e-02, 2.19936147e-02,
          3.05072740e-02, 4.25682887e-02, 4.57609110e-02, 6.20787516e-02,
          3.58283073e-02, 5.53387739e-02, 3.97304036e-02, 3.51188369e-02,
          3.05072740e-02, 2.66051795e-02, 1.70273148e-02, 2.73146518e-02,
          2.69599166e-02, 4.50514369e-02, 5.92408665e-02, 2.80241221e-02,
          3.22809517e-02, 3.33451591e-02, 1.34799583e-02, 5.32103591e-02,
          3.05072740e-02, 2.30578221e-02, 1.34799583e-02, 2.90883295e-02,
          1.17062796e-02, 4.11493443e-02 ]
      - [ 3.70475911e-02, 4.16072942e-02, 1.45340553e-02, 1.59589630e-02,
          2.10886300e-02, 4.78768870e-02, 6.18409812e-02, 8.15047026e-02,
          3.36278155e-02, 6.15560003e-02, 3.41977775e-02, 3.13479640e-02,
          2.22285558e-02, 1.88087784e-02, 1.22542037e-02, 2.65032779e-02,
          2.73582228e-02, 5.12966663e-02, 5.78512400e-02, 2.67882589e-02,
          2.73582228e-02, 3.56226861e-02, 1.82388145e-02, 6.01310916e-02,
          2.79281847e-02, 1.99487042e-02, 1.19692218e-02, 2.93530915e-02,
          8.83442536e-03, 3.53377014e-02 ]
      - [ 2.37537641e-02, 4.21545655e-02, 1.27132824e-02, 1.80662423e-02,
          2.20809635e-02, 4.98494469e-02, 5.55369705e-02, 8.76547322e-02,
          3.01104058e-02, 5.08531295e-02, 3.64670455e-02, 2.94412859e-02,
          2.64302436e-02, 2.50920039e-02, 1.50552029e-02, 2.24155243e-02,
          2.34192032e-02, 5.38641699e-02, 6.28972873e-02, 3.04449648e-02,
          3.01104058e-02, 3.84744070e-02, 1.07059218e-02, 5.45332879e-02,
          3.24523263e-02, 2.04081628e-02, 1.67280026e-02, 3.24523263e-02,
          8.02944135e-03, 3.78052853e-02 ]
      - [ 4.20454517e-02, 3.74999978e-02, 3.63636352e-02, 1.81818176e-02,
          3.40909064e-02, 3.74999978e-02, 4.99999970e-02, 5.79545423e-02,
          3.29545438e-02, 4.54545431e-02, 2.84090899e-02, 3.97727266e-02,
          2.27272715e-02, 3.18181813e-02, 2.72727273e-02, 2.49999985e-02,
          4.65909094e-02, 4.99999970e-02, 3.18181813e-02, 1.36363637e-02,
          3.74999978e-02, 4.43181805e-02, 9.09090880e-03, 5.34090884e-02,
          3.06818169e-02, 2.04545446e-02, 2.27272715e-02, 2.61363629e-02,
          2.04545446e-02, 2.61363629e-02 ]
      - [ 2.82208584e-02, 4.66257669e-02, 1.47239268e-02, 1.47239268e-02,
          1.22699384e-02, 3.31288353e-02, 6.50306717e-02, 5.76687120e-02,
          3.55828218e-02, 4.53987718e-02, 2.45398767e-02, 2.82208584e-02,
          1.34969326e-02, 3.19018401e-02, 9.81595088e-03, 3.43558267e-02,
          4.29447852e-02, 5.27607352e-02, 4.17177901e-02, 2.33128835e-02,
          3.43558267e-02, 5.27607352e-02, 1.10429451e-02, 7.73006156e-02,
          3.55828218e-02, 1.84049085e-02, 1.47239268e-02, 3.80368084e-02,
          2.45398767e-02, 3.68098170e-02 ]
      - [ 5.25722886e-03, 1.57716852e-02, 3.00413072e-02, 4.43109274e-02,
          8.33646283e-02, 3.83026674e-02, 1.87758170e-02, 1.80247836e-02,
          1.53961694e-02, 3.56740505e-02, 1.80247836e-02, 1.99023653e-02,
          6.98460415e-02, 5.78295141e-02, 1.91513337e-02, 2.10289154e-02,
          1.23920394e-02, 7.20991343e-02, 3.00413072e-02, 1.08899735e-02,
          4.24333476e-02, 6.60908744e-02, 1.87758170e-02, 7.92339444e-02,
          2.14044303e-02, 2.17799470e-02, 3.41719873e-02, 2.51595937e-02,
          2.32820120e-02, 3.15433703e-02 ]
      - [ 6.83630863e-03, 1.02544632e-02, 4.06380557e-02, 4.51955944e-02,
          7.67185763e-02, 3.87390815e-02, 2.31674891e-02, 1.70907713e-02,
          1.48120020e-02, 3.11431829e-02, 1.89897455e-02, 2.43068747e-02,
          6.41853437e-02, 7.44398013e-02, 2.96240039e-02, 2.12685149e-02,
          1.10140527e-02, 7.10216463e-02, 2.24079005e-02, 7.21610337e-03,
          5.24116978e-02, 6.53247237e-02, 1.25332326e-02, 8.16559047e-02,
          1.82301551e-02, 1.21534374e-02, 3.98784652e-02, 1.59513857e-02,
          2.54462603e-02, 2.73452345e-02 ]
      - [ 1.20000001e-02, 2.57142857e-02, 4.57142852e-02, 2.34285705e-02,
          3.25714275e-02, 3.02857142e-02, 3.42857130e-02, 5.54285720e-02,
          1.54285710e-02, 2.51428559e-02, 2.28571426e-02, 1.77142862e-02,
          2.45714281e-02, 6.85714260e-02, 6.28571436e-02, 2.11428571e-02,
          2.05714293e-02, 5.48571423e-02, 3.94285694e-02, 1.25714280e-02,
          2.91428566e-02, 5.99999987e-02, 2.85714287e-02, 9.48571414e-02,
          2.51428559e-02, 1.77142862e-02, 2.34285705e-02, 2.45714281e-02,
          2.45714281e-02, 2.68571433e-02 ]
      - [ 3.51681970e-02, 4.12844047e-02, 7.64526008e-03, 7.64526008e-03,
          2.44648326e-02, 3.66972499e-02, 5.19877709e-02, 5.50458729e-02,
          3.21100913e-02, 3.82263027e-02, 3.82263027e-02, 3.97553518e-02,
          1.22324163e-02, 3.36391442e-02, 7.64526008e-03, 3.21100913e-02,
          4.89296652e-02, 3.36391442e-02, 5.04587181e-02, 3.05810403e-02,
          3.51681970e-02, 4.58715595e-02, 9.17431246e-03, 8.40978622e-02,
          3.66972499e-02, 2.75229365e-02, 1.98776759e-02, 3.36391442e-02,
          2.29357798e-02, 2.75229365e-02 ]
      - [ 2.34003663e-02, 3.18098739e-02, 3.51005495e-02, 2.37659961e-02,
          1.57221220e-02, 2.99817193e-02, 5.48446104e-02, 9.79890376e-02,
          1.46252289e-02, 3.18098739e-02, 5.30164540e-02, 3.94881181e-02,
          1.09689217e-02, 3.94881181e-02, 3.32723968e-02, 3.47349197e-02,
          2.52285190e-02, 2.19378434e-02, 6.21572211e-02, 2.63254121e-02,
          2.19378434e-02, 3.94881181e-02, 1.24314446e-02, 6.43510073e-02,
          3.07129808e-02, 1.71846449e-02, 1.06032910e-02, 3.54661793e-02,
          3.65630724e-02, 2.55941506e-02 ]
      - [ 2.86103543e-02, 3.81471366e-02, 2.04359666e-02, 1.36239780e-02,
          2.45231614e-02, 4.22343314e-02, 5.85831068e-02, 7.49318823e-02,
          3.67847420e-02, 4.76839244e-02, 1.90735683e-02, 2.86103543e-02,
          1.63487736e-02, 4.08719331e-02, 6.81198901e-03, 3.13351490e-02,
          5.44959120e-02, 3.95095348e-02, 4.49591279e-02, 2.45231614e-02,
          3.54223438e-02, 3.67847420e-02, 1.08991824e-02, 8.17438662e-02,
          4.22343314e-02, 2.04359666e-02, 1.36239780e-02, 3.13351490e-02,
          6.81198901e-03, 2.86103543e-02 ]
      - [ 3.99527997e-02, 5.07417433e-02, 1.38233313e-02, 2.54551601e-02,
          2.64666229e-02, 4.77073528e-02, 6.49022311e-02, 7.45111257e-02,
          2.59608906e-02, 5.42818643e-02, 4.45043854e-02, 3.43897529e-02,
          2.61294674e-02, 1.71948764e-02, 7.08024297e-03, 2.52865814e-02,
          2.68037766e-02, 4.23128791e-02, 6.03506416e-02, 3.57383713e-02,
          1.88806485e-02, 2.81523950e-02, 1.34861767e-02, 4.93931249e-02,
          3.13553624e-02, 2.25893464e-02, 6.74308836e-03, 2.81523950e-02,
          1.70262996e-02, 4.06271070e-02 ]
      - [ 2.59740259e-02, 2.92207785e-02, 1.75324678e-02, 2.27272715e-02,
          7.79220741e-03, 3.24675329e-02, 4.61038947e-02, 9.28571448e-02,
          1.75324678e-02, 3.44155841e-02, 4.93506491e-02, 2.66233757e-02,
          7.79220741e-03, 3.50649357e-02, 1.75324678e-02, 3.96103896e-02,
          4.09090891e-02, 3.24675329e-02, 7.01298714e-02, 2.33766232e-02,
          3.24675329e-02, 4.15584408e-02, 1.88311692e-02, 7.59740248e-02,
          3.05194799e-02, 3.50649357e-02, 1.29870130e-02, 3.70129868e-02,
          1.68831162e-02, 2.92207785e-02 ]
      - [ 2.06489675e-02, 3.24483775e-02, 1.32743362e-02, 1.76991150e-02,
          1.32743362e-02, 2.50737462e-02, 4.12979349e-02, 4.57227156e-02,
          2.35988200e-02, 3.53982300e-02, 4.27728593e-02, 3.53982300e-02,
          1.32743362e-02, 4.12979349e-02, 1.76991150e-02, 3.98230106e-02,
          3.53982300e-02, 5.16224205e-02, 4.71976399e-02, 3.53982300e-02,
          3.68731543e-02, 5.75221255e-02, 1.91740412e-02, 8.40707943e-02,
          3.24483775e-02, 2.80235987e-02, 3.98230106e-02, 3.39233056e-02,
          1.47492625e-02, 2.50737462e-02 ]
      - [ 5.54016605e-03, 1.38504151e-02, 1.10803321e-02, 9.69529059e-03,
          5.54016605e-03, 3.04709133e-02, 5.40166199e-02, 9.97229889e-02,
          1.38504151e-02, 2.63157897e-02, 2.21606642e-02, 8.31024908e-03,
          1.52354566e-02, 5.81717417e-02, 3.18559557e-02, 2.21606642e-02,
          4.70914096e-02, 6.64819926e-02, 5.81717417e-02, 5.54016605e-03,
          5.12465350e-02, 4.98614945e-02, 4.15512454e-03, 1.86980605e-01,
          1.52354566e-02, 1.66204982e-02, 1.66204982e-02, 3.18559557e-02,
          1.10803321e-02, 1.10803321e-02 ]
      - [ 2.88065840e-02, 4.38957475e-02, 3.56652960e-02, 2.05761325e-02,
          1.37174213e-02, 4.11522649e-02, 4.93827164e-02, 4.80109751e-02,
          3.15500684e-02, 3.15500684e-02, 3.29218097e-02, 3.42935510e-02,
          1.09739369e-02, 5.34979440e-02, 1.78326480e-02, 2.46913582e-02,
          3.70370373e-02, 2.88065840e-02, 4.25240062e-02, 1.92043893e-02,
          4.93827164e-02, 4.38957475e-02, 9.60219465e-03, 9.19067189e-02,
          3.29218097e-02, 2.33196151e-02, 3.15500684e-02, 2.88065840e-02,
          2.05761325e-02, 2.19478738e-02 ]
      - [ 2.13953499e-02, 2.13953499e-02, 4.65116277e-03, 2.04651169e-02,
          3.72093031e-03, 2.69767456e-02, 6.60465136e-02, 1.01395354e-01,
          1.02325585e-02, 3.90697680e-02, 2.79069766e-02, 1.67441871e-02,
          8.37209355e-03, 5.39534912e-02, 7.44186062e-03, 1.58139542e-02,
          2.13953499e-02, 6.32558167e-02, 7.34883770e-02, 1.48837212e-02,
          5.30232564e-02, 7.25581422e-02, 2.04651169e-02, 1.33953497e-01,
          1.86046511e-02, 1.02325585e-02, 2.41860468e-02, 1.86046511e-02,
          7.44186062e-03, 2.23255828e-02 ]
      - [ 2.88461540e-02, 4.16666679e-02, 1.76282059e-02, 1.28205130e-02,
          1.12179490e-02, 4.16666679e-02, 6.73076957e-02, 3.52564119e-02,
          2.24358980e-02, 4.96794879e-02, 4.80769239e-02, 2.24358980e-02,
          1.12179490e-02, 3.20512839e-02, 1.60256419e-02, 3.84615399e-02,
          4.80769239e-02, 3.68589759e-02, 4.32692319e-02, 2.72435900e-02,
          1.92307699e-02, 6.25000000e-02, 1.92307699e-02, 8.65384638e-02,
          4.64743599e-02, 3.20512839e-02, 1.76282059e-02, 2.40384620e-02,
          1.92307699e-02, 2.08333340e-02 ]
      - [ 1.91986635e-02, 1.83639396e-02, 5.84307173e-03, 1.33555923e-02,
          5.84307173e-03, 2.42070109e-02, 6.01001643e-02, 1.17696159e-01,
          1.33555923e-02, 3.75626050e-02, 2.50417348e-02, 1.66944899e-02,
          5.00834733e-03, 4.75792959e-02, 1.58597659e-02, 1.50250411e-02,
          3.25542577e-02, 5.92654422e-02, 7.92988315e-02, 1.33555923e-02,
          4.75792959e-02, 6.59432337e-02, 1.66944899e-02, 1.48580968e-01,
          2.08681133e-02, 1.00166947e-02, 1.41903171e-02, 2.08681133e-02,
          1.16861435e-02, 1.83639396e-02 ]
      - [ 2.89115645e-02, 3.06122452e-02, 6.80272095e-03, 6.80272095e-03,
          1.02040814e-02, 3.06122452e-02, 5.78231290e-02, 6.80272132e-02,
          2.21088436e-02, 3.74149643e-02, 5.78231290e-02, 2.21088436e-02,
          1.36054419e-02, 4.25170064e-02, 1.02040814e-02, 3.91156450e-02,
          6.12244904e-02, 3.40136066e-02, 4.59183678e-02, 3.57142836e-02,
          3.57142836e-02, 5.10204062e-02, 1.19047612e-02, 7.82312900e-02,
          4.08163257e-02, 1.70068033e-02, 2.04081628e-02, 4.25170064e-02,
          2.38095224e-02, 1.70068033e-02 ]
      - [ 8.53578467e-03, 1.51017727e-02, 6.56598806e-03, 2.56073549e-02,
          1.51017727e-02, 3.21733430e-02, 4.26789224e-02, 6.69730827e-02,
          4.59619192e-03, 3.74261327e-02, 1.70715693e-02, 1.70715693e-02,
          2.49507558e-02, 4.72751148e-02, 1.11621805e-02, 1.24753779e-02,
          2.16677617e-02, 9.65200290e-02, 5.05581088e-02, 7.22258724e-03,
          5.90938963e-02, 9.71766263e-02, 2.49507558e-02, 1.40512154e-01,
          1.57583728e-02, 1.51017727e-02, 4.53053191e-02, 1.70715693e-02,
          7.22258724e-03, 1.70715693e-02 ]
      - [ 1.29870120e-02, 1.29870120e-02, 6.83526974e-03, 2.32399181e-02,
          1.16199590e-02, 3.82775106e-02, 4.03280929e-02, 7.45044425e-02,
          7.51879672e-03, 4.10116166e-02, 2.05058083e-02, 2.05058083e-02,
          2.25563906e-02, 4.85304147e-02, 2.11893357e-02, 1.57211199e-02,
          2.80246064e-02, 7.38209113e-02, 4.71633598e-02, 1.29870120e-02,
          5.46821579e-02, 9.15926173e-02, 1.70881748e-02, 1.32604226e-01,
          1.98222827e-02, 1.29870120e-02, 2.59740241e-02, 2.52904985e-02,
          1.43540669e-02, 2.52904985e-02 ]
      - [ 3.37423310e-02, 2.91411038e-02, 1.68711655e-02, 4.60122712e-03,
          3.06748450e-02, 3.68098170e-02, 5.52147217e-02, 7.36196339e-02,
          4.44785282e-02, 2.91411038e-02, 3.37423310e-02, 2.76073609e-02,
          1.99386496e-02, 2.76073609e-02, 6.13496918e-03, 3.83435562e-02,
          3.83435562e-02, 4.14110422e-02, 4.29447852e-02, 3.06748450e-02,
          4.75460105e-02, 4.75460105e-02, 2.30061337e-02, 6.59509152e-02,
          2.60736197e-02, 3.52760740e-02, 1.99386496e-02, 3.22085880e-02,
          1.07361963e-02, 3.06748450e-02 ]
      - [ 7.78546743e-03, 1.03806229e-02, 7.78546743e-03, 1.90311428e-02,
          6.92041544e-03, 3.11418697e-02, 2.24913508e-02, 6.40138462e-02,
          1.73010379e-02, 3.46020758e-02, 2.68166102e-02, 1.38408309e-02,
          2.24913508e-02, 5.70934266e-02, 2.59515587e-02, 2.68166102e-02,
          3.02768182e-02, 7.26643652e-02, 4.84429076e-02, 1.38408309e-02,
          5.62283769e-02, 9.86159220e-02, 1.64359864e-02, 1.34948105e-01,
          2.07612459e-02, 1.12456754e-02, 3.89273353e-02, 2.42214538e-02,
          1.81660913e-02, 2.07612459e-02 ]
      - [ 1.63636357e-02, 2.72727273e-02, 2.18181815e-02, 4.63636369e-02,
          6.36363635e-03, 2.63636373e-02, 2.90909093e-02, 5.27272746e-02,
          1.27272727e-02, 2.72727273e-02, 5.72727285e-02, 3.18181813e-02,
          1.09090907e-02, 3.18181813e-02, 3.09090912e-02, 5.27272746e-02,
          4.36363630e-02, 2.72727273e-02, 5.90909086e-02, 3.72727290e-02,
          2.27272734e-02, 2.99999993e-02, 7.27272732e-03, 4.27272730e-02,
          5.54545447e-02, 6.72727302e-02, 1.36363637e-02, 5.81818186e-02,
          3.09090912e-02, 2.27272734e-02 ]
      - [ 2.42214520e-02, 2.30680499e-02, 3.57554778e-02, 5.19031137e-02,
          8.07381794e-03, 1.49942320e-02, 2.53748558e-02, 4.03690860e-02,
          2.30680499e-02, 1.49942320e-02, 5.53633198e-02, 2.76816599e-02,
          1.61476359e-02, 4.49826978e-02, 2.42214520e-02, 5.88235259e-02,
          4.38292958e-02, 3.34486738e-02, 5.65167218e-02, 2.42214520e-02,
          3.22952718e-02, 2.76816599e-02, 1.03806220e-02, 4.38292958e-02,
          5.07497117e-02, 7.38177598e-02, 1.26874279e-02, 6.57439455e-02,
          1.84544399e-02, 1.73010379e-02 ]
      - [ 2.43553016e-02, 2.72206310e-02, 2.29226369e-02, 8.59598909e-03,
          2.14899722e-02, 4.15472798e-02, 7.02005774e-02, 5.58739267e-02,
          2.29226369e-02, 2.72206310e-02, 3.29512917e-02, 2.57879663e-02,
          1.28939832e-02, 5.44412620e-02, 1.28939832e-02, 2.14899722e-02,
          4.72779386e-02, 3.58166210e-02, 6.44699186e-02, 1.57593135e-02,
          3.58166210e-02, 5.73065914e-02, 2.00573076e-02, 9.45558771e-02,
          3.29512917e-02, 3.00859604e-02, 2.29226369e-02, 3.15186270e-02,
          1.43266479e-02, 1.43266479e-02 ]
      - [ 1.84842888e-02, 3.78927924e-02, 3.78927924e-02, 5.26802242e-02,
          1.01663591e-02, 1.47874309e-02, 3.51201482e-02, 2.31053606e-02,
          1.84842888e-02, 2.03327183e-02, 4.99075800e-02, 2.03327183e-02,
          9.24214441e-03, 3.78927924e-02, 2.86506470e-02, 4.71349359e-02,
          3.69685777e-02, 4.43622917e-02, 5.08317947e-02, 2.49537900e-02,
          6.00739382e-02, 4.06654365e-02, 9.24214441e-03, 3.88170071e-02,
          5.82255088e-02, 6.74676523e-02, 2.95748618e-02, 3.97412218e-02,
          1.94085035e-02, 1.75600741e-02 ]
      - [ 1.86457317e-02, 2.94406284e-02, 4.51422967e-02, 3.23846899e-02,
          8.83218832e-03, 1.57016683e-02, 2.25711484e-02, 4.12168801e-02,
          2.35525034e-02, 2.15897933e-02, 4.61236499e-02, 2.25711484e-02,
          9.81354248e-03, 3.53287533e-02, 3.53287533e-02, 3.43474001e-02,
          4.02355269e-02, 7.55642802e-02, 5.10304235e-02, 1.76643766e-02,
          4.02355269e-02, 5.88812567e-02, 6.86948001e-03, 5.00490665e-02,
          5.29931299e-02, 5.10304235e-02, 4.71050069e-02, 3.43474001e-02,
          2.25711484e-02, 8.83218832e-03 ]
      - [ 2.30088495e-02, 2.30088495e-02, 3.53982300e-03, 1.23893805e-02,
          2.12389380e-02, 4.24778759e-02, 5.13274334e-02, 5.66371679e-02,
          2.47787610e-02, 3.18584070e-02, 3.71681415e-02, 2.83185840e-02,
          3.00884955e-02, 5.84070794e-02, 1.76991150e-03, 3.00884955e-02,
          5.48672564e-02, 5.13274334e-02, 4.95575219e-02, 1.59292035e-02,
          3.89380530e-02, 6.01769909e-02, 2.12389380e-02, 1.06194690e-01,
          2.12389380e-02, 1.41592920e-02, 3.18584070e-02, 3.18584070e-02,
          1.41592920e-02, 1.23893805e-02 ]
      - [ 2.41820775e-02, 2.70270258e-02, 1.70697011e-02, 8.53485055e-03,
          1.56472251e-02, 5.54765277e-02, 5.26315793e-02, 4.83641550e-02,
          2.13371255e-02, 4.83641550e-02, 3.69843543e-02, 3.41394022e-02,
          3.12944502e-02, 5.26315793e-02, 1.13798007e-02, 3.69843543e-02,
          4.12517786e-02, 3.41394022e-02, 4.97866273e-02, 2.41820775e-02,
          2.27596015e-02, 4.69416790e-02, 2.13371255e-02, 8.53485018e-02,
          3.27169262e-02, 1.56472251e-02, 2.84495018e-02, 2.98719779e-02,
          2.56045517e-02, 1.99146513e-02 ]
      - [ 2.31660232e-02, 3.47490348e-02, 1.93050189e-03, 3.86100379e-03,
          2.70270258e-02, 3.66795361e-02, 5.59845567e-02, 6.17760606e-02,
          3.28185335e-02, 3.28185335e-02, 3.28185335e-02, 3.28185335e-02,
          2.31660232e-02, 4.82625477e-02, 1.93050189e-03, 3.28185335e-02,
          6.75675645e-02, 4.05405387e-02, 5.21235503e-02, 1.93050187e-02,
          2.31660232e-02, 4.44015451e-02, 1.35135129e-02, 1.02316603e-01,
          2.31660232e-02, 3.08880303e-02, 2.50965245e-02, 3.08880303e-02,
          2.12355200e-02, 2.31660232e-02 ]
      - [ 2.63357814e-02, 4.25424166e-02, 9.87591874e-03, 2.35502664e-02,
          3.39326411e-02, 5.49506210e-02, 3.77310738e-02, 4.88731340e-02,
          3.41858715e-02, 6.71055987e-02, 4.60876189e-02, 4.98860478e-02,
          3.26665007e-02, 1.08888326e-02, 2.78551551e-03, 2.70954687e-02,
          1.94986071e-02, 6.43200800e-02, 4.55811620e-02, 2.63357814e-02,
          2.83616111e-02, 4.63408493e-02, 3.44390981e-02, 4.35553305e-02,
          2.86148395e-02, 1.82324648e-02, 1.74727794e-02, 2.53228676e-02,
          3.54520138e-03, 4.98860478e-02 ]
      - [ 4.41546924e-02, 5.70454895e-02, 1.77804125e-03, 1.64468810e-02,
          2.16328353e-02, 4.94888164e-02, 6.07497431e-02, 1.02237374e-01,
          3.43754627e-02, 6.14905916e-02, 4.14876305e-02, 3.33382748e-02,
          2.20773462e-02, 1.06682479e-02, 1.33353099e-03, 2.22255159e-02,
          2.63742786e-02, 5.86753599e-02, 6.20832741e-02, 3.80797163e-02,
          1.94102842e-02, 3.39309536e-02, 1.52615206e-02, 4.26729918e-02,
          2.78559793e-02, 1.76322423e-02, 9.92739666e-03, 2.38553863e-02,
          5.77863399e-03, 3.79315466e-02 ]
      - [ 3.65435854e-02, 5.06280921e-02, 7.23258499e-03, 1.71298068e-02,
          1.94137804e-02, 4.41568345e-02, 6.52835965e-02, 1.14008375e-01,
          2.74076890e-02, 5.25314063e-02, 4.24438529e-02, 3.17853056e-02,
          1.56071568e-02, 2.15074234e-02, 7.99390953e-03, 2.60753706e-02,
          3.52112688e-02, 3.88275608e-02, 6.64255843e-02, 3.31176259e-02,
          2.11267602e-02, 2.45527215e-02, 1.10392086e-02, 5.38637228e-02,
          3.21659707e-02, 2.26494111e-02, 8.75523407e-03, 2.72173584e-02,
          1.12295393e-02, 3.40692811e-02 ]
      - [ 3.94574590e-02, 4.34032045e-02, 1.06041925e-02, 1.67694204e-02,
          9.37114656e-03, 3.94574590e-02, 6.88039437e-02, 1.01356350e-01,
          2.36744769e-02, 4.88286056e-02, 3.94574590e-02, 3.23057957e-02,
          8.87792837e-03, 2.81134397e-02, 1.06041925e-02, 2.09617764e-02,
          2.95930952e-02, 4.21701595e-02, 6.60912469e-02, 3.25524062e-02,
          2.14549936e-02, 4.88286056e-02, 1.65228117e-02, 6.09124526e-02,
          3.05795316e-02, 1.57829840e-02, 1.47965476e-02, 2.63871755e-02,
          1.94821209e-02, 3.27990130e-02 ]
      - [ 1.91082805e-02, 1.65605098e-02, 2.16560513e-02, 8.91719759e-03,
          1.91082805e-02, 2.29299366e-02, 4.84076440e-02, 1.05095543e-01,
          1.08280256e-02, 2.99363062e-02, 2.80254781e-02, 3.12101915e-02,
          7.64331222e-03, 6.75159246e-02, 3.56687903e-02, 2.54777074e-02,
          2.73885354e-02, 6.49681538e-02, 5.66878989e-02, 2.03821659e-02,
          3.24840769e-02, 8.40764344e-02, 2.03821659e-02, 6.30573258e-02,
          1.91082805e-02, 1.46496817e-02, 2.35668793e-02, 2.61146501e-02,
          3.05732489e-02, 1.84713379e-02 ]
      - [ 1.70031879e-02, 2.55047828e-02, 2.70988308e-02, 1.64718386e-02,
          5.31349629e-02, 3.56004238e-02, 3.82571742e-02, 6.64186999e-02,
          1.11583425e-02, 3.87885235e-02, 2.33793836e-02, 3.18809785e-02,
          4.99468632e-02, 4.94155139e-02, 3.50690745e-02, 2.33793836e-02,
          1.32837407e-02, 6.64186999e-02, 4.03825715e-02, 1.32837407e-02,
          3.18809785e-02, 5.10095656e-02, 2.01912858e-02, 7.81083927e-02,
          1.80658866e-02, 1.91285871e-02, 1.91285871e-02, 2.65674815e-02,
          1.85972359e-02, 4.14452702e-02 ]
      - [ 1.17489090e-02, 1.24202752e-02, 3.45753618e-02, 3.12185287e-02,
          9.80194658e-02, 3.12185287e-02, 3.02114803e-02, 2.24907696e-02,
          1.81268882e-02, 4.02819738e-02, 2.45048665e-02, 2.31621340e-02,
          8.86203423e-02, 4.93454188e-02, 2.88687479e-02, 2.41691843e-02,
          1.34273246e-02, 6.78079873e-02, 2.71903314e-02, 1.20845921e-02,
          3.55824083e-02, 4.93454188e-02, 1.84625722e-02, 6.78079873e-02,
          2.18194015e-02, 1.47700571e-02, 2.55119167e-02, 2.58475989e-02,
          1.77912042e-02, 3.35683115e-02 ]
      - [ 1.25786159e-02, 2.83018854e-02, 1.88679248e-02, 1.25786159e-02,
          4.40251566e-02, 5.66037707e-02, 1.88679248e-02, 6.28930777e-02,
          7.23270401e-02, 3.77358496e-02, 3.14465389e-02, 1.25786159e-02,
          4.08805013e-02, 1.57232694e-02, 1.25786159e-02, 2.20125783e-02,
          3.45911942e-02, 2.20125783e-02, 2.51572318e-02, 9.43396240e-03,
          5.97484261e-02, 1.88679248e-02, 1.88679248e-02, 5.34591191e-02,
          6.28930777e-02, 4.71698083e-02, 5.03144637e-02, 5.03144637e-02,
          2.51572318e-02, 2.20125783e-02 ]
      - [ 2.72727273e-02, 4.72727269e-02, 9.09090880e-03, 1.63636357e-02,
          3.63636352e-02, 3.45454551e-02, 5.09090908e-02, 8.54545459e-02,
          2.90909093e-02, 4.72727269e-02, 4.36363630e-02, 2.54545454e-02,
          2.54545454e-02, 3.63636352e-02, 3.63636366e-03, 2.54545454e-02,
          5.99999987e-02, 4.90909107e-02, 4.72727269e-02, 1.99999996e-02,
          3.99999991e-02, 4.72727269e-02, 3.63636366e-03, 6.36363626e-02,
          2.36363634e-02, 1.45454546e-02, 2.18181815e-02, 1.81818176e-02,
          2.54545454e-02, 2.18181815e-02 ]
      - [ 3.13725509e-02, 2.87581701e-02, 1.63398702e-02, 8.49673245e-03,
          7.84313772e-03, 2.22222228e-02, 5.16339876e-02, 2.58169949e-01,
          8.49673245e-03, 3.20261456e-02, 3.46405245e-02, 2.02614386e-02,
          3.92156886e-03, 5.16339876e-02, 1.89542491e-02, 2.09150333e-02,
          1.50326798e-02, 1.17647061e-02, 7.58169964e-02, 1.56862754e-02,
          1.43790850e-02, 2.22222228e-02, 5.55555560e-02, 6.79738596e-02,
          2.15686280e-02, 1.56862754e-02, 4.57516359e-03, 2.15686280e-02,
          2.09150333e-02, 2.15686280e-02 ]
      - [ 1.76125243e-02, 1.95694715e-02, 9.19765159e-02, 3.32681015e-02,
          5.47945201e-02, 1.36986300e-02, 2.73972601e-02, 2.34833658e-02,
          4.10958901e-02, 2.93542072e-02, 3.13111544e-02, 4.30528373e-02,
          6.84931502e-02, 2.15264186e-02, 2.73972601e-02, 2.73972601e-02,
          4.30528373e-02, 2.93542072e-02, 3.52250487e-02, 2.34833658e-02,
          4.50097844e-02, 2.15264186e-02, 9.78473574e-03, 5.28375730e-02,
          4.30528373e-02, 4.10958901e-02, 1.76125243e-02, 3.71819958e-02,
          1.56555772e-02, 1.36986300e-02 ]
      - [ 3.95256933e-03, 2.76679844e-02, 6.32411093e-02, 1.97628476e-02,
          1.58102773e-02, 1.97628476e-02, 3.16205546e-02, 1.97628476e-02,
          3.95256951e-02, 4.34782617e-02, 3.16205546e-02, 1.97628476e-02,
          2.76679844e-02, 3.16205546e-02, 2.76679844e-02, 7.11462498e-02,
          5.53359687e-02, 1.58102773e-02, 1.97628476e-02, 4.34782617e-02,
          1.97628476e-02, 1.58102773e-02, 1.58102773e-02, 1.97628476e-02,
          7.50988200e-02, 9.48616639e-02, 1.97628476e-02, 6.32411093e-02,
          3.16205546e-02, 1.58102773e-02 ]
      - [ 2.27272734e-02, 3.97727266e-02, 4.54545468e-02, 1.70454551e-02,
          3.97727266e-02, 5.68181835e-02, 2.27272734e-02, 2.27272734e-02,
          6.25000000e-02, 5.11363670e-02, 1.70454551e-02, 2.84090918e-02,
          6.81818202e-02, 5.68181835e-03, 5.11363670e-02, 6.25000000e-02,
          4.54545468e-02, 2.84090918e-02, 4.54545468e-02, 2.27272734e-02,
          1.13636367e-02, 2.84090918e-02, 2.27272734e-02, 5.68181835e-03,
          3.40909101e-02, 4.54545468e-02, 0., 5.68181835e-02,
          1.13636367e-02, 2.84090918e-02 ]
      - [ 2.38907840e-02, 3.24232057e-02, 5.11945374e-02, 2.04778146e-02,
          2.21842993e-02, 2.90102381e-02, 4.43685986e-02, 5.80204763e-02,
          2.21842993e-02, 3.07167228e-02, 2.38907840e-02, 2.90102381e-02,
          1.19453920e-02, 4.94880527e-02, 3.58361751e-02, 1.02389073e-02,
          4.26621139e-02, 4.60750833e-02, 4.77815680e-02, 2.38907840e-02,
          4.26621139e-02, 4.43685986e-02, 2.04778146e-02, 1.07508533e-01,
          3.07167228e-02, 8.53242259e-03, 2.55972687e-02, 1.87713299e-02,
          2.21842993e-02, 2.38907840e-02 ]
      - [ 1.70068033e-02, 2.38095224e-02, 9.18367356e-02, 3.40136047e-03,
          3.74149643e-02, 3.40136066e-02, 2.72108838e-02, 3.74149643e-02,
          1.36054419e-02, 2.38095224e-02, 5.44217676e-02, 5.78231290e-02,
          2.72108838e-02, 3.40136047e-03, 1.25850335e-01, 4.08163257e-02,
          4.08163257e-02, 1.70068033e-02, 1.02040814e-02, 3.06122452e-02,
          2.38095224e-02, 1.02040814e-02, 3.40136066e-02, 2.38095224e-02,
          5.78231290e-02, 3.40136066e-02, 1.36054419e-02, 3.40136066e-02,
          3.74149643e-02, 1.36054419e-02 ]
      - [ 1.57024786e-02, 2.80991737e-02, 5.95041327e-02, 1.81818176e-02,
          2.97520664e-02, 2.47933883e-02, 3.30578499e-02, 2.64462810e-02,
          2.72727273e-02, 4.13223132e-02, 3.71900834e-02, 3.80165279e-02,
          2.64462810e-02, 5.53718992e-02, 5.78512400e-02, 3.38842981e-02,
          4.95867766e-02, 3.47107425e-02, 3.71900834e-02, 1.90082639e-02,
          2.47933883e-02, 3.80165279e-02, 1.07438015e-02, 6.77685961e-02,
          3.38842981e-02, 2.64462810e-02, 2.14876030e-02, 3.47107425e-02,
          2.56198347e-02, 2.31404956e-02 ]
      - [ 9.39849671e-03, 1.31578948e-02, 6.39097765e-02, 3.75939859e-03,
          1.50375944e-02, 1.50375944e-02, 1.50375944e-02, 2.44360901e-02,
          2.81954892e-02, 1.50375944e-02, 4.32330854e-02, 3.94736864e-02,
          7.51879718e-03, 3.75939868e-02, 4.69924808e-02, 4.51127812e-02,
          8.64661708e-02, 3.38345878e-02, 5.07518798e-02, 2.25563906e-02,
          5.07518798e-02, 9.39849671e-03, 3.75939859e-03, 5.82706779e-02,
          6.95488751e-02, 6.57894760e-02, 3.75939859e-03, 5.26315793e-02,
          5.63909784e-02, 1.31578948e-02 ]
      - [ 1.91518478e-02, 4.24076617e-02, 3.83036956e-02, 1.36798909e-02,
          3.83036956e-02, 2.73597818e-02, 5.33515736e-02, 4.51436415e-02,
          1.77838579e-02, 2.46238038e-02, 5.60875535e-02, 5.33515736e-02,
          1.77838579e-02, 5.33515736e-02, 4.78796177e-02, 3.14637497e-02,
          4.51436415e-02, 3.14637497e-02, 4.51436415e-02, 1.77838579e-02,
          4.10396717e-02, 2.87277717e-02, 1.23119019e-02, 4.24076617e-02,
          2.32558157e-02, 2.05198359e-02, 1.23119019e-02, 3.14637497e-02,
          3.28317396e-02, 3.55677158e-02 ]
      - [ 1.37457047e-02, 2.74914093e-02, 5.49828187e-02, 1.71821304e-02,
          3.43642617e-03, 3.78006883e-02, 4.12371159e-02, 3.43642607e-02,
          2.74914093e-02, 4.46735397e-02, 4.81099673e-02, 4.12371159e-02,
          3.43642617e-03, 6.52920976e-02, 3.43642607e-02, 3.09278350e-02,
          4.12371159e-02, 4.46735397e-02, 5.49828187e-02, 6.87285233e-03,
          6.87285233e-03, 3.43642607e-02, 1.37457047e-02, 9.96563584e-02,
          3.09278350e-02, 2.40549836e-02, 3.43642617e-03, 5.84192462e-02,
          3.09278350e-02, 2.40549836e-02 ]
      - [ 3.19488794e-02, 2.87539922e-02, 5.91054298e-02, 1.27795525e-02,
          3.03514376e-02, 1.91693287e-02, 4.15335447e-02, 4.95207645e-02,
          1.59744397e-02, 4.79233228e-02, 3.51437703e-02, 3.51437703e-02,
          1.91693287e-02, 3.03514376e-02, 3.99361029e-02, 3.67412120e-02,
          1.91693287e-02, 5.11182100e-02, 4.95207645e-02, 1.43769961e-02,
          3.83386575e-02, 4.79233228e-02, 1.11821089e-02, 4.95207645e-02,
          2.23642178e-02, 2.55591050e-02, 5.75079843e-02, 3.35463248e-02,
          2.23642178e-02, 2.39616614e-02 ]
      - [ 2.68456377e-02, 2.01342292e-02, 4.69798669e-02, 3.02013420e-02,
          3.69127505e-02, 2.34899335e-02, 3.69127505e-02, 2.34899335e-02,
          3.02013420e-02, 2.34899335e-02, 2.34899335e-02, 4.36241627e-02,
          1.67785231e-02, 4.02684584e-02, 2.34899335e-02, 6.71140924e-02,
          5.70469797e-02, 1.00671146e-02, 5.03355712e-02, 2.34899335e-02,
          2.01342292e-02, 4.69798669e-02, 6.71140943e-03, 4.02684584e-02,
          6.37583882e-02, 4.69798669e-02, 2.01342292e-02, 7.04697967e-02,
          6.71140943e-03, 2.34899335e-02 ]
      - [ 1.51260504e-02, 3.02521009e-02, 4.87394966e-02, 3.69747914e-02,
          2.35294122e-02, 3.36134471e-02, 3.69747914e-02, 4.20168079e-02,
          2.01680679e-02, 1.84873957e-02, 3.52941193e-02, 2.35294122e-02,
          1.34453783e-02, 4.36974801e-02, 2.52100844e-02, 2.85714287e-02,
          6.21848740e-02, 4.36974801e-02, 5.54621853e-02, 1.84873957e-02,
          3.36134471e-02, 6.05042018e-02, 1.00840339e-02, 9.91596654e-02,
          2.18487401e-02, 1.51260504e-02, 2.35294122e-02, 2.85714287e-02,
          2.85714287e-02, 2.35294122e-02 ]
      - [ 2.69865077e-02, 3.44827585e-02, 5.69715165e-02, 2.69865077e-02,
          1.94902550e-02, 3.59820090e-02, 4.34782617e-02, 3.29835080e-02,
          2.99850088e-02, 3.14842574e-02, 3.59820090e-02, 3.74812596e-02,
          1.94902550e-02, 4.34782617e-02, 3.44827585e-02, 2.69865077e-02,
          5.09745143e-02, 2.99850088e-02, 4.04797606e-02, 1.79910045e-02,
          3.89805101e-02, 3.29835080e-02, 1.04947528e-02, 9.89505276e-02,
          2.99850088e-02, 1.64917540e-02, 2.84857582e-02, 2.39880066e-02,
          2.99850088e-02, 1.34932538e-02 ]
      - [ 3.01507525e-02, 4.35510874e-02, 4.69011739e-02, 8.37520882e-03,
          4.35510874e-02, 2.68006697e-02, 2.34505869e-02, 4.85762134e-02,
          5.86264655e-02, 3.18257958e-02, 1.84254609e-02, 3.01507525e-02,
          5.36013395e-02, 2.68006697e-02, 4.02010046e-02, 2.17755437e-02,
          5.36013395e-02, 6.19765483e-02, 2.34505869e-02, 1.84254609e-02,
          3.68509218e-02, 2.84757111e-02, 1.50753763e-02, 4.35510874e-02,
          3.01507525e-02, 1.67504176e-02, 2.84757111e-02, 2.68006697e-02,
          3.85259613e-02, 2.51256283e-02 ]
      - [ 2.59319283e-02, 2.75526736e-02, 2.26904377e-02, 1.13452189e-02,
          6.15883283e-02, 2.75526736e-02, 3.07941642e-02, 5.34846038e-02,
          4.53808755e-02, 3.56564000e-02, 2.43111830e-02, 3.07941642e-02,
          5.51053472e-02, 4.70016189e-02, 8.10372736e-03, 1.62074547e-02,
          4.70016189e-02, 7.13128000e-02, 3.56564000e-02, 1.29659642e-02,
          3.88978943e-02, 3.56564000e-02, 1.13452189e-02, 8.10372755e-02,
          4.37601283e-02, 1.94489472e-02, 2.75526736e-02, 1.45867094e-02,
          2.43111830e-02, 1.29659642e-02 ]
      - [ 2.63157897e-02, 7.89473765e-03, 5.52631617e-02, 1.31578948e-02,
          3.15789506e-02, 1.31578948e-02, 5.78947403e-02, 2.89473701e-02,
          1.31578948e-02, 2.36842111e-02, 4.73684222e-02, 3.94736864e-02,
          1.84210539e-02, 6.57894760e-02, 6.05263188e-02, 2.63157897e-02,
          5.00000007e-02, 1.57894753e-02, 5.78947403e-02, 1.84210539e-02,
          1.31578948e-02, 3.42105292e-02, 1.57894753e-02, 6.05263188e-02,
          5.26315793e-02, 2.36842111e-02, 7.89473765e-03, 4.73684222e-02,
          4.73684222e-02, 2.63157897e-02 ]
      - [ 5.30503970e-03, 2.12201588e-02, 3.44827585e-02, 1.32625997e-02,
          2.12201588e-02, 2.12201588e-02, 4.50928360e-02, 3.71352769e-02,
          2.12201588e-02, 1.85676385e-02, 3.97877991e-02, 3.44827585e-02,
          2.38726791e-02, 8.22281167e-02, 8.22281167e-02, 4.24403176e-02,
          4.24403176e-02, 3.18302363e-02, 3.97877991e-02, 3.44827585e-02,
          2.65251994e-02, 2.38726791e-02, 1.85676385e-02, 6.63129985e-02,
          3.44827585e-02, 3.44827585e-02, 7.95755908e-03, 3.44827585e-02,
          3.71352769e-02, 2.38726791e-02 ]
      - [ 2.54237279e-02, 2.54237279e-02, 6.21468946e-02, 1.97740123e-02,
          3.10734473e-02, 1.41242938e-02, 4.23728824e-02, 7.62711838e-02,
          5.08474559e-02, 2.25988701e-02, 3.67231630e-02, 1.12994350e-02,
          2.54237279e-02, 1.69491526e-02, 7.06214681e-02, 1.69491526e-02,
          4.80225980e-02, 1.97740123e-02, 3.38983051e-02, 1.12994350e-02,
          5.64971752e-02, 3.38983051e-02, 1.69491526e-02, 3.95480245e-02,
          5.93220331e-02, 3.67231630e-02, 2.54237279e-02, 1.41242938e-02,
          3.67231630e-02, 1.97740123e-02 ]
      - [ 1.94319878e-02, 3.43796723e-02, 5.08221239e-02, 4.48430479e-02,
          3.73692065e-02, 2.39162929e-02, 4.48430479e-02, 6.57698065e-02,
          3.43796723e-02, 1.79372206e-02, 3.58744413e-02, 2.98953652e-02,
          2.09267568e-02, 2.39162929e-02, 2.69058291e-02, 1.79372206e-02,
          5.08221239e-02, 2.98953652e-02, 5.53064272e-02, 2.24215239e-02,
          4.48430479e-02, 2.69058291e-02, 2.98953662e-03, 7.02541098e-02,
          4.18535136e-02, 2.24215239e-02, 2.39162929e-02, 3.13901342e-02,
          2.98953652e-02, 1.79372206e-02 ]
      - [ 2.34009363e-02, 2.34009363e-02, 4.36817482e-02, 2.34009363e-02,
          1.24804992e-02, 4.52418104e-02, 4.05616239e-02, 6.55226186e-02,
          2.18408741e-02, 3.58814336e-02, 3.74414995e-02, 2.80811228e-02,
          2.65210606e-02, 4.21216860e-02, 3.90015617e-02, 1.56006236e-02,
          4.36817482e-02, 2.49609984e-02, 4.05616239e-02, 2.49609984e-02,
          3.27613093e-02, 2.65210606e-02, 1.56006236e-02, 1.04524180e-01,
          4.52418104e-02, 3.43213715e-02, 2.49609984e-02, 1.87207498e-02,
          1.71606857e-02, 2.18408741e-02 ]
      - [ 1.87793430e-02, 1.87793430e-02, 4.69483584e-02, 1.40845068e-02,
          4.69483575e-03, 1.40845068e-02, 6.10328652e-02, 3.28638516e-02,
          1.40845068e-02, 4.69483575e-03, 5.16431928e-02, 2.81690136e-02,
          0., 2.01877937e-01, 7.51173720e-02, 2.81690136e-02,
          5.16431928e-02, 4.69483575e-03, 2.34741792e-02, 1.40845068e-02,
          1.40845068e-02, 3.28638516e-02, 4.69483575e-03, 7.98122063e-02,
          3.28638516e-02, 3.28638516e-02, 1.40845068e-02, 4.69483584e-02,
          2.34741792e-02, 9.38967150e-03 ]
      - [ 7.54716992e-03, 2.26415098e-02, 1.92452833e-01, 2.26415098e-02,
          5.28301895e-02, 8.30188692e-02, 1.50943398e-02, 1.50943398e-02,
          2.64150947e-02, 4.90566045e-02, 1.88679248e-02, 3.01886797e-02,
          4.52830195e-02, 1.13207549e-02, 7.16981143e-02, 2.26415098e-02,
          7.54716992e-03, 7.54716992e-03, 1.50943398e-02, 3.77358496e-03,
          2.64150947e-02, 3.77358496e-03, 2.26415098e-02, 4.90566045e-02,
          3.77358496e-02, 3.77358496e-02, 1.13207549e-02, 3.39622647e-02,
          1.50943398e-02, 4.15094346e-02 ]
      - [ 2.29729731e-02, 2.56756768e-02, 6.21621646e-02, 3.24324332e-02,
          2.29729731e-02, 3.10810823e-02, 3.51351351e-02, 5.54054081e-02,
          2.02702712e-02, 3.10810823e-02, 2.83783786e-02, 2.70270277e-02,
          1.35135138e-02, 4.32432443e-02, 2.83783786e-02, 2.43243240e-02,
          4.59459461e-02, 3.24324332e-02, 5.00000007e-02, 1.35135138e-02,
          3.51351351e-02, 3.37837860e-02, 9.45946015e-03, 1.02702707e-01,
          4.18918915e-02, 2.43243240e-02, 2.83783786e-02, 2.43243240e-02,
          2.43243240e-02, 2.97297314e-02 ]
      - [ 2.74914093e-02, 3.43642607e-02, 1.71821304e-02, 2.92096231e-02,
          4.46735397e-02, 3.60824764e-02, 4.29553278e-02, 4.29553278e-02,
          6.35738820e-02, 3.43642607e-02, 3.95189002e-02, 2.57731955e-02,
          4.63917516e-02, 2.57731955e-02, 1.20274918e-02, 2.23367698e-02,
          3.78006883e-02, 4.81099673e-02, 2.57731955e-02, 1.89003441e-02,
          4.46735397e-02, 4.29553278e-02, 1.03092790e-02, 6.35738820e-02,
          3.09278350e-02, 2.74914093e-02, 2.40549836e-02, 3.26460488e-02,
          2.23367698e-02, 2.57731955e-02 ]
      - [ 1.93423610e-02, 2.12765969e-02, 5.41586094e-02, 4.44874279e-02,
          4.25531939e-02, 2.51450688e-02, 2.12765969e-02, 6.38297871e-02,
          5.60928434e-02, 2.12765969e-02, 3.67504843e-02, 1.93423610e-02,
          2.70793047e-02, 1.74081251e-02, 2.90135406e-02, 2.51450688e-02,
          2.70793047e-02, 4.06189561e-02, 3.67504843e-02, 1.35396523e-02,
          6.57640249e-02, 3.48162502e-02, 1.35396523e-02, 5.22243716e-02,
          4.06189561e-02, 3.67504843e-02, 4.25531939e-02, 1.54738883e-02,
          3.67504843e-02, 1.93423610e-02 ]
      - [ 1.51324086e-02, 2.26986129e-02, 3.15258503e-02, 4.16141227e-02,
          2.52206810e-02, 3.15258503e-02, 3.53089534e-02, 3.78310233e-02,
          1.89155117e-02, 2.90037841e-02, 3.65699865e-02, 2.26986129e-02,
          1.63934417e-02, 5.04413620e-02, 2.14375779e-02, 2.77427491e-02,
          4.53972258e-02, 5.92686012e-02, 5.92686012e-02, 1.13493064e-02,
          4.16141227e-02, 6.17906675e-02, 8.82723834e-03, 9.33165178e-02,
          2.90037841e-02, 2.90037841e-02, 2.39596479e-02, 3.27868834e-02,
          2.01765448e-02, 2.01765448e-02 ]
      - [ 2.07039341e-02, 1.65631473e-02, 7.86749497e-02, 3.72670814e-02,
          3.10559012e-02, 2.48447210e-02, 3.31262946e-02, 4.55486551e-02,
          2.48447210e-02, 2.89855078e-02, 3.72670814e-02, 1.44927539e-02,
          1.86335407e-02, 1.86335407e-02, 6.21118024e-02, 2.89855078e-02,
          3.93374749e-02, 2.89855078e-02, 4.55486551e-02, 1.86335407e-02,
          4.55486551e-02, 3.31262946e-02, 4.14078683e-03, 4.96894419e-02,
          5.38302287e-02, 3.31262946e-02, 3.51966880e-02, 4.34782617e-02,
          3.10559012e-02, 1.65631473e-02 ]
      - [ 3.26340348e-02, 2.33100243e-02, 2.33100243e-02, 1.39860138e-02,
          5.12820520e-02, 3.26340348e-02, 3.03030312e-02, 8.39160830e-02,
          6.75990656e-02, 2.09790207e-02, 2.09790207e-02, 1.86480191e-02,
          3.49650346e-02, 2.79720277e-02, 2.33100243e-02, 3.03030312e-02,
          6.99300691e-02, 2.79720277e-02, 3.96270417e-02, 6.99300691e-03,
          5.12820520e-02, 3.49650346e-02, 1.16550121e-02, 4.42890450e-02,
          4.19580415e-02, 1.63170174e-02, 3.49650346e-02, 1.86480191e-02,
          4.19580415e-02, 2.33100243e-02 ]
      - [ 3.32541578e-02, 1.42517816e-02, 8.31353962e-02, 1.66270789e-02,
          4.75059412e-02, 3.32541578e-02, 2.37529706e-02, 5.93824238e-02,
          4.51306440e-02, 2.13776734e-02, 2.61282679e-02, 1.42517816e-02,
          4.03800495e-02, 1.90023761e-02, 4.98812385e-02, 3.80047522e-02,
          3.80047522e-02, 2.85035633e-02, 1.90023761e-02, 9.50118806e-03,
          5.70071265e-02, 2.61282679e-02, 3.56294550e-02, 3.56294550e-02,
          4.98812385e-02, 3.32541578e-02, 2.37529706e-02, 1.90023761e-02,
          3.08788605e-02, 2.85035633e-02 ]
      - [ 2.40963846e-02, 2.14190092e-02, 8.16599727e-02, 1.87416337e-02,
          4.55153957e-02, 1.60642564e-02, 2.67737620e-02, 1.87416337e-02,
          2.27576979e-02, 2.14190092e-02, 3.48058902e-02, 3.61445770e-02,
          2.14190092e-02, 5.08701466e-02, 6.82730898e-02, 3.74832675e-02,
          6.02409616e-02, 3.34672034e-02, 3.34672034e-02, 1.33868810e-02,
          4.55153957e-02, 2.67737620e-02, 4.01606411e-03, 5.62248975e-02,
          3.74832675e-02, 4.14993316e-02, 2.00803205e-02, 4.14993316e-02,
          1.87416337e-02, 2.14190092e-02 ]
      - [ 1.29032265e-02, 2.79569905e-02, 4.73118275e-02, 2.79569905e-02,
          3.44086029e-02, 2.15053763e-02, 3.87096778e-02, 6.23655915e-02,
          3.87096778e-02, 2.36559138e-02, 3.65591422e-02, 2.79569905e-02,
          1.72043014e-02, 1.93548389e-02, 3.22580636e-02, 1.93548389e-02,
          5.59139811e-02, 3.87096778e-02, 3.87096778e-02, 1.50537640e-02,
          4.73118275e-02, 4.94623668e-02, 1.07526882e-02, 7.74193555e-02,
          4.51612920e-02, 3.01075280e-02, 2.79569905e-02, 3.01075280e-02,
          3.22580636e-02, 1.29032265e-02 ]
      - [ 3.03605311e-02, 3.41555960e-02, 8.34914595e-02, 1.51802655e-02,
          2.65654642e-02, 1.51802655e-02, 3.41555960e-02, 2.08728649e-02,
          3.79506648e-02, 3.03605311e-02, 3.79506648e-02, 4.36432622e-02,
          1.89753319e-03, 2.84629986e-02, 4.55407947e-02, 4.93358634e-02,
          8.53889957e-02, 3.41555960e-02, 4.36432622e-02, 2.08728649e-02,
          3.22580636e-02, 9.48766619e-03, 0., 1.70777980e-02,
          6.26185983e-02, 5.50284609e-02, 9.48766619e-03, 6.26185983e-02,
          1.32827321e-02, 1.89753324e-02 ]
      - [ 2.01511327e-02, 3.52644809e-02, 3.02267000e-02, 3.27455923e-02,
          5.54156154e-02, 2.51889154e-02, 2.26700250e-02, 4.53400500e-02,
          4.78589386e-02, 2.77078077e-02, 4.28211577e-02, 2.26700250e-02,
          3.52644809e-02, 1.51133500e-02, 1.76322404e-02, 2.51889154e-02,
          4.78589386e-02, 6.29722923e-02, 2.51889154e-02, 1.00755664e-02,
          6.04534000e-02, 1.51133500e-02, 2.77078077e-02, 4.53400500e-02,
          4.28211577e-02, 2.77078077e-02, 4.28211577e-02, 1.76322404e-02,
          5.79345077e-02, 1.51133500e-02 ]
      - [ 2.89608166e-02, 3.57751250e-02, 1.36286197e-02, 1.02214646e-02,
          3.06643937e-02, 3.40715498e-02, 5.96252121e-02, 5.28108999e-02,
          3.06643937e-02, 3.91822830e-02, 3.40715498e-02, 3.23679708e-02,
          3.23679708e-02, 2.72572394e-02, 1.53321968e-02, 3.40715498e-02,
          5.96252121e-02, 4.08858582e-02, 5.11073247e-02, 2.21465062e-02,
          4.25894372e-02, 2.72572394e-02, 1.70357747e-03, 7.32538328e-02,
          3.91822830e-02, 1.02214646e-02, 3.06643937e-02, 2.04429291e-02,
          3.57751250e-02, 3.40715498e-02 ]
      - [ 3.38983051e-02, 2.44821087e-02, 2.63653472e-02, 1.88323911e-02,
          5.27306944e-02, 3.57815437e-02, 2.82485876e-02, 4.33145016e-02,
          5.08474559e-02, 5.08474559e-02, 2.44821087e-02, 1.69491526e-02,
          3.95480208e-02, 2.82485876e-02, 3.95480208e-02, 1.88323911e-02,
          5.27306944e-02, 4.33145016e-02, 3.01318262e-02, 9.41619556e-03,
          6.02636524e-02, 3.95480208e-02, 1.31826736e-02, 6.21468909e-02,
          3.38983051e-02, 2.07156297e-02, 4.14312594e-02, 1.88323911e-02,
          2.44821087e-02, 1.69491526e-02 ]
      - [ 1.19047621e-02, 1.19047621e-02, 5.95238097e-02, 0.,
          1.78571437e-02, 3.57142873e-02, 5.35714291e-02, 5.95238097e-02,
          3.57142873e-02, 1.78571437e-02, 3.57142873e-02, 3.57142873e-02,
          1.78571437e-02, 5.95238106e-03, 2.38095243e-02, 5.35714291e-02,
          1.07142858e-01, 3.57142873e-02, 2.97619049e-02, 1.78571437e-02,
          1.78571437e-02, 1.19047621e-02, 1.78571437e-02, 2.38095243e-02,
          1.07142858e-01, 7.14285746e-02, 5.95238106e-03, 7.14285746e-02,
          5.95238106e-03, 0. ]
      - [ 1.06382975e-02, 4.25531901e-02, 4.01891246e-02, 1.53664304e-02,
          9.10165459e-02, 3.07328608e-02, 3.90070938e-02, 6.85579181e-02,
          1.89125296e-02, 2.83687934e-02, 4.25531901e-02, 4.49172594e-02,
          4.84633557e-02, 3.19148935e-02, 5.91016561e-03, 3.07328608e-02,
          1.77304968e-02, 3.19148935e-02, 3.30969281e-02, 2.60047279e-02,
          3.42789590e-02, 2.00945623e-02, 2.71867607e-02, 4.01891246e-02,
          3.54609936e-02, 3.42789590e-02, 2.60047279e-02, 3.54609936e-02,
          1.89125296e-02, 2.95508280e-02 ]
      - [ 2.17028372e-02, 3.67278792e-02, 1.50250411e-02, 1.33555923e-02,
          5.34223691e-02, 2.50417348e-02, 3.17195319e-02, 5.00834696e-02,
          4.84140217e-02, 3.83973271e-02, 3.17195319e-02, 4.17362265e-02,
          3.00500821e-02, 2.83806343e-02, 2.50417348e-02, 2.83806343e-02,
          4.84140217e-02, 6.34390637e-02, 2.00333893e-02, 1.33555923e-02,
          4.50751223e-02, 3.67278792e-02, 2.00333893e-02, 5.50918169e-02,
          4.67445739e-02, 2.00333893e-02, 3.17195319e-02, 2.83806343e-02,
          1.33555923e-02, 3.83973271e-02 ]
      - [ 2.23214291e-02, 2.67857164e-02, 6.25000000e-02, 2.23214291e-02,
          0., 1.78571437e-02, 7.14285746e-02, 4.46428582e-02,
          2.67857164e-02, 4.01785746e-02, 8.48214328e-02, 3.12500000e-02,
          1.78571437e-02, 4.46428582e-02, 8.92857183e-03, 4.91071455e-02,
          5.80357164e-02, 2.23214291e-02, 7.58928582e-02, 1.78571437e-02,
          8.92857183e-03, 8.92857183e-03, 4.46428591e-03, 5.80357164e-02,
          2.67857164e-02, 2.67857164e-02, 8.92857183e-03, 6.69642910e-02,
          1.33928582e-02, 3.12500000e-02 ]
      - [ 2.88135596e-02, 4.06779647e-02, 3.72881368e-02, 1.01694912e-02,
          8.47457629e-03, 6.27118647e-02, 3.55932191e-02, 6.27118647e-02,
          1.18644070e-02, 6.10169470e-02, 1.35593219e-02, 2.54237279e-02,
          2.03389823e-02, 1.86440684e-02, 3.05084735e-02, 2.20338982e-02,
          5.42372875e-02, 4.57627103e-02, 4.40677963e-02, 3.72881368e-02,
          2.71186437e-02, 4.06779647e-02, 6.44067824e-02, 7.28813559e-02,
          2.20338982e-02, 2.03389823e-02, 1.18644070e-02, 2.37288140e-02,
          2.37288140e-02, 2.20338982e-02 ]
      - [ 1.34600159e-02, 2.29612030e-02, 5.46318293e-02, 2.13776715e-02,
          1.66270778e-01, 1.42517816e-02, 3.40459235e-02, 2.37529688e-02,
          1.58353131e-02, 1.74188446e-02, 2.37529688e-02, 2.45447345e-02,
          1.31433100e-01, 3.80047485e-02, 3.16706263e-02, 2.45447345e-02,
          4.27553430e-02, 3.32541578e-02, 1.90023743e-02, 9.50118713e-03,
          2.92953290e-02, 2.21694373e-02, 1.10847186e-02, 3.72129865e-02,
          3.32541578e-02, 2.53365003e-02, 1.74188446e-02, 2.53365003e-02,
          1.66270789e-02, 1.97941400e-02 ]
      - [ 2.77777780e-02, 3.39506194e-02, 8.95061716e-02, 4.01234552e-02,
          6.17283955e-03, 3.08641978e-02, 2.46913582e-02, 3.08641978e-02,
          1.54320989e-02, 2.46913582e-02, 2.46913582e-02, 1.54320989e-02,
          1.54320989e-02, 2.77777780e-02, 9.56790149e-02, 4.62962985e-02,
          4.62962985e-02, 1.54320989e-02, 4.93827164e-02, 3.70370373e-02,
          1.23456791e-02, 3.70370373e-02, 0., 3.39506194e-02,
          6.17283955e-02, 4.93827164e-02, 1.85185187e-02, 5.55555560e-02,
          1.85185187e-02, 1.54320989e-02 ]
      - [ 2.33463030e-02, 3.89105058e-03, 1.40077814e-01, 1.16731515e-02,
          1.94552522e-02, 4.66926061e-02, 7.78210117e-03, 1.16731515e-02,
          2.72373538e-02, 4.66926061e-02, 3.89105044e-02, 1.94552522e-02,
          7.78210117e-03, 3.50194536e-02, 9.72762629e-02, 4.28015552e-02,
          3.11284047e-02, 2.33463030e-02, 4.28015552e-02, 1.55642023e-02,
          1.94552522e-02, 1.55642023e-02, 3.89105058e-03, 3.50194536e-02,
          5.05836569e-02, 7.78210089e-02, 3.89105058e-03, 3.11284047e-02,
          5.05836569e-02, 1.94552522e-02 ]
      - [ 9.59232636e-03, 1.43884895e-02, 5.27577959e-02, 1.67865716e-02,
          2.63788980e-02, 3.59712243e-02, 1.43884895e-02, 9.59232636e-03,
          1.67865716e-02, 4.55635488e-02, 1.19904075e-02, 1.43884895e-02,
          3.11750602e-02, 9.11270976e-02, 1.27098322e-01, 2.39808150e-02,
          1.91846527e-02, 5.75539581e-02, 2.15827338e-02, 9.59232636e-03,
          7.67386109e-02, 2.15827338e-02, 7.19424477e-03, 7.43405297e-02,
          4.55635488e-02, 2.63788980e-02, 1.67865716e-02, 2.15827338e-02,
          3.83693054e-02, 2.15827338e-02 ]
      - [ 0., 1.25523005e-02, 1.67364012e-02, 8.36820062e-03,
          3.34728025e-02, 1.67364012e-02, 8.78661051e-02, 4.18410040e-02,
          3.76569033e-02, 1.67364012e-02, 2.09205020e-02, 2.92887017e-02,
          8.36820062e-03, 9.62343067e-02, 2.92887017e-02, 7.53138065e-02,
          2.51046009e-02, 8.36820062e-03, 5.43933026e-02, 2.92887017e-02,
          4.18410031e-03, 8.36820062e-03, 8.36820062e-03, 1.25523016e-01,
          4.60251048e-02, 4.18410040e-02, 4.18410031e-03, 6.69456050e-02,
          2.92887017e-02, 1.67364012e-02 ]
      - [ 1.35135138e-02, 3.00300308e-02, 3.30330357e-02, 2.62762774e-02,
          3.45345363e-02, 5.48048057e-02, 1.87687688e-02, 2.70270277e-02,
          3.45345363e-02, 5.78078106e-02, 3.45345363e-02, 3.82882878e-02,
          4.50450480e-02, 1.50150154e-02, 1.65165178e-02, 3.00300308e-02,
          2.92792805e-02, 6.68168217e-02, 3.60360369e-02, 2.02702712e-02,
          3.00300308e-02, 3.60360369e-02, 1.87687688e-02, 5.33033051e-02,
          4.57957983e-02, 3.30330357e-02, 1.80180185e-02, 3.90390381e-02,
          1.72672682e-02, 4.65465486e-02 ]
      - [ 2.66666673e-02, 2.40000002e-02, 2.79999990e-02, 1.99999996e-02,
          2.26666667e-02, 3.46666649e-02, 4.66666669e-02, 3.99999991e-02,
          2.53333338e-02, 6.53333291e-02, 1.20000001e-02, 1.33333337e-02,
          2.79999990e-02, 3.06666661e-02, 3.33333313e-02, 2.93333326e-02,
          4.39999998e-02, 5.86666651e-02, 5.06666675e-02, 1.99999996e-02,
          1.86666660e-02, 3.73333320e-02, 5.33333328e-03, 9.33333337e-02,
          4.53333333e-02, 3.06666661e-02, 1.73333324e-02, 4.93333340e-02,
          2.79999990e-02, 2.13333331e-02 ]
      - [ 0., 1.09289614e-02, 1.53005466e-01, 0., 1.63934417e-02,
          5.46448072e-03, 1.09289614e-02, 4.91803251e-02, 2.18579229e-02,
          1.63934417e-02, 4.91803251e-02, 2.18579229e-02, 0.,
          1.09289614e-02, 6.55737668e-02, 4.91803251e-02, 6.55737668e-02,
          1.63934417e-02, 2.73224041e-02, 1.09289614e-02, 1.09289614e-02,
          0., 5.46448072e-03, 5.46448072e-03, 1.42076492e-01,
          1.31147534e-01, 5.46448072e-03, 8.19672123e-02, 0.,
          1.63934417e-02 ]
      - [ 1.61197465e-02, 1.95739791e-02, 1.78468637e-02, 2.18767989e-02,
          3.62694301e-02, 3.45423147e-02, 4.31778952e-02, 2.41796207e-02,
          1.66954529e-02, 5.29648848e-02, 3.10880840e-02, 3.05123795e-02,
          1.72711574e-02, 8.86586085e-02, 6.90846331e-03, 1.66954529e-02,
          1.95739791e-02, 7.36902729e-02, 4.43293042e-02, 1.38169266e-02,
          4.20264825e-02, 6.85089231e-02, 9.21128411e-03, 1.01899832e-01,
          2.76338533e-02, 1.66954529e-02, 3.10880840e-02, 2.30282098e-02,
          1.72711574e-02, 3.68451364e-02 ]
      - [ 3.59848514e-02, 5.11363670e-02, 4.54545468e-02, 1.89393945e-02,
          4.35606092e-02, 2.84090918e-02, 3.59848514e-02, 4.73484844e-02,
          2.65151523e-02, 3.21969688e-02, 3.78787890e-02, 4.35606092e-02,
          7.57575780e-03, 3.40909101e-02, 1.70454551e-02, 3.40909101e-02,
          3.03030312e-02, 2.84090918e-02, 4.92424257e-02, 2.46212129e-02,
          1.89393945e-02, 2.65151523e-02, 1.51515156e-02, 4.73484844e-02,
          6.43939376e-02, 3.03030312e-02, 5.68181835e-03, 5.68181835e-02,
          2.27272734e-02, 3.97727266e-02 ]
      - [ 2.40384620e-02, 3.12500000e-02, 1.44230779e-02, 1.44230779e-02,
          1.44230779e-02, 5.04807718e-02, 5.28846160e-02, 6.49038479e-02,
          1.20192310e-02, 7.69230798e-02, 1.44230779e-02, 1.20192310e-02,
          4.80769249e-03, 2.16346160e-02, 3.12500000e-02, 3.36538479e-02,
          4.32692319e-02, 6.00961559e-02, 4.32692319e-02, 4.56730798e-02,
          1.92307699e-02, 5.28846160e-02, 3.36538479e-02, 6.73076957e-02,
          4.08653878e-02, 2.88461559e-02, 1.68269239e-02, 3.36538479e-02,
          1.44230779e-02, 2.64423080e-02 ]
      - [ 1.73697267e-02, 1.24069480e-02, 5.21091819e-02, 9.92555823e-03,
          5.21091819e-02, 3.47394533e-02, 2.48138960e-02, 1.73697267e-02,
          4.21836227e-02, 3.72208431e-02, 5.45905717e-02, 3.22580636e-02,
          1.98511165e-02, 2.23325063e-02, 5.45905717e-02, 5.45905717e-02,
          3.72208431e-02, 2.23325063e-02, 2.72952858e-02, 9.92555823e-03,
          3.47394533e-02, 9.92555823e-03, 1.98511165e-02, 4.21836227e-02,
          3.97022329e-02, 4.46650125e-02, 1.98511165e-02, 5.70719615e-02,
          5.70719615e-02, 3.97022329e-02 ]
      - [ 2.55474448e-02, 2.67639905e-02, 5.59610687e-02, 1.21654496e-02,
          1.20437957e-01, 1.94647200e-02, 1.70316305e-02, 1.45985400e-02,
          4.25790735e-02, 3.40632610e-02, 2.18978096e-02, 3.16301696e-02,
          5.10948896e-02, 2.18978096e-02, 3.04136258e-02, 2.67639905e-02,
          3.89294401e-02, 5.10948896e-02, 2.91970801e-02, 2.18978096e-02,
          4.37956192e-02, 4.50121649e-02, 1.58150848e-02, 4.37956192e-02,
          4.50121649e-02, 3.28467153e-02, 2.31143553e-02, 2.31143553e-02,
          1.94647200e-02, 1.45985400e-02 ]
      - [ 2.71739140e-02, 4.34782617e-02, 2.17391308e-02, 1.63043477e-02,
          5.43478271e-03, 6.34057969e-02, 4.71014492e-02, 4.89130430e-02,
          1.44927539e-02, 6.34057969e-02, 3.07971016e-02, 2.17391308e-02,
          2.53623202e-02, 1.44927539e-02, 1.99275371e-02, 3.44202891e-02,
          4.34782617e-02, 4.34782617e-02, 4.89130430e-02, 2.35507246e-02,
          2.35507246e-02, 4.52898555e-02, 6.88405782e-02, 4.89130430e-02,
          3.62318829e-02, 2.53623202e-02, 1.08695654e-02, 4.16666679e-02,
          2.35507246e-02, 1.81159414e-02 ]
      - [ 1.05633801e-02, 7.04225339e-03, 1.19718306e-01, 3.16901393e-02,
          1.76056325e-02, 4.22535203e-02, 2.11267602e-02, 1.76056325e-02,
          2.11267602e-02, 3.87323946e-02, 4.57746461e-02, 2.46478878e-02,
          1.05633801e-02, 3.87323946e-02, 1.54929578e-01, 3.16901393e-02,
          1.76056325e-02, 2.81690136e-02, 2.11267602e-02, 1.76056325e-02,
          3.16901393e-02, 1.40845068e-02, 7.04225339e-03, 5.28169014e-02,
          3.52112651e-02, 3.16901393e-02, 7.04225339e-03, 2.46478878e-02,
          3.87323946e-02, 3.87323946e-02 ]
      - [ 1.80412363e-02, 5.15463902e-03, 9.02061835e-02, 4.12371121e-02,
          7.47422650e-02, 1.54639166e-02, 2.06185561e-02, 1.54639166e-02,
          0., 2.06185561e-02, 1.80412363e-02, 1.28865978e-02,
          6.70103058e-02, 7.98969045e-02, 1.00515462e-01, 1.80412363e-02,
          5.15463902e-03, 4.12371121e-02, 1.80412363e-02, 7.73195829e-03,
          4.63917516e-02, 3.86597924e-02, 5.15463902e-03, 4.12371121e-02,
          1.80412363e-02, 2.31958758e-02, 6.18556663e-02, 1.80412363e-02,
          6.70103058e-02, 1.03092780e-02 ]
      - [ 4.00000028e-02, 1.60000008e-02, 1.60000008e-02, 2.00000014e-02,
          2.00000014e-02, 3.20000015e-02, 8.00000057e-02, 4.00000028e-02,
          2.80000009e-02, 3.20000015e-02, 5.60000017e-02, 8.00000038e-03,
          4.00000019e-03, 6.40000030e-02, 1.20000001e-02, 1.60000008e-02,
          5.20000011e-02, 2.00000014e-02, 8.40000063e-02, 2.00000014e-02,
          4.00000028e-02, 4.00000028e-02, 1.60000008e-02, 7.20000044e-02,
          3.20000015e-02, 3.60000022e-02, 1.20000001e-02, 3.20000015e-02,
          2.40000002e-02, 3.60000022e-02 ]
      - [ 0., 1.63043477e-02, 8.69565234e-02, 2.17391308e-02, 0.,
          1.08695654e-02, 1.63043477e-02, 3.26086953e-02, 6.52173907e-02,
          1.63043477e-02, 1.63043477e-02, 3.26086953e-02, 0.,
          1.63043477e-02, 5.97826093e-02, 4.89130430e-02, 1.08695654e-02,
          2.71739140e-02, 8.15217420e-02, 5.43478271e-03, 1.08695654e-02,
          0., 2.71739140e-02, 4.89130430e-02, 1.35869563e-01,
          9.78260860e-02, 5.43478271e-03, 1.03260875e-01, 0.,
          5.43478271e-03 ]
      - [ 9.77995154e-03, 1.46699268e-02, 3.42298299e-02, 3.42298299e-02,
          1.63814187e-01, 1.71149150e-02, 2.44498788e-03, 1.71149150e-02,
          4.88997577e-03, 2.68948674e-02, 2.44498793e-02, 2.20048912e-02,
          1.27139375e-01, 1.22249397e-02, 5.86797073e-02, 9.77995154e-03,
          2.44498788e-03, 4.40097824e-02, 1.71149150e-02, 9.77995154e-03,
          3.91198061e-02, 2.20048912e-02, 2.93398537e-02, 1.22249397e-02,
          2.44498793e-02, 2.93398537e-02, 1.22249395e-01, 1.95599031e-02,
          3.42298299e-02, 1.46699268e-02 ]
      - [ 2.67175566e-02, 2.29007639e-02, 4.58015278e-02, 1.14503819e-02,
          1.90839693e-02, 3.81679386e-02, 2.29007639e-02, 1.14503819e-02,
          3.81679386e-02, 3.43511440e-02, 4.96183224e-02, 4.19847332e-02,
          2.67175566e-02, 2.29007639e-02, 4.96183224e-02, 8.39694664e-02,
          1.90839693e-02, 1.14503819e-02, 2.67175566e-02, 1.90839693e-02,
          2.29007639e-02, 1.52671756e-02, 2.29007639e-02, 2.29007639e-02,
          6.48854971e-02, 6.10687025e-02, 1.14503819e-02, 7.63358772e-02,
          5.34351133e-02, 2.67175566e-02 ]
      - [ 4.13625315e-02, 4.37956192e-02, 8.51581525e-03, 1.94647200e-02,
          9.73236002e-03, 4.74452563e-02, 5.83941601e-02, 7.66423345e-02,
          1.58150848e-02, 7.66423345e-02, 2.79805344e-02, 2.06812657e-02,
          8.51581525e-03, 2.18978096e-02, 1.58150848e-02, 3.04136258e-02,
          4.86617982e-02, 2.91970801e-02, 5.83941601e-02, 3.40632610e-02,
          1.70316305e-02, 3.16301696e-02, 3.28467153e-02, 4.62287106e-02,
          3.77128944e-02, 2.43308991e-02, 1.45985400e-02, 4.37956192e-02,
          2.31143553e-02, 3.52798067e-02 ]
      - [ 2.06185579e-02, 1.89003441e-02, 8.76288638e-02, 1.03092790e-02,
          4.46735397e-02, 3.78006883e-02, 4.29553278e-02, 3.95189002e-02,
          3.78006883e-02, 2.74914093e-02, 2.57731955e-02, 3.26460488e-02,
          1.03092790e-02, 4.63917516e-02, 6.52920976e-02, 3.95189002e-02,
          6.35738820e-02, 3.60824764e-02, 2.57731955e-02, 1.20274918e-02,
          2.74914093e-02, 1.71821304e-02, 5.15463948e-03, 4.63917516e-02,
          3.78006883e-02, 3.43642607e-02, 1.03092790e-02, 6.35738820e-02,
          1.89003441e-02, 1.37457047e-02 ]
      - [ 1.62381586e-02, 1.08254394e-02, 8.79566967e-02, 4.87144776e-02,
          1.61028415e-01, 3.92422192e-02, 1.21786194e-02, 2.70635989e-02,
          9.47225932e-03, 2.84167789e-02, 1.08254394e-02, 2.43572388e-02,
          6.49526343e-02, 1.21786194e-02, 4.33017574e-02, 1.35317994e-02,
          2.70635984e-03, 5.54803759e-02, 1.75913386e-02, 1.48849795e-02,
          3.92422192e-02, 3.78890373e-02, 3.38294990e-02, 2.84167789e-02,
          1.08254394e-02, 1.48849795e-02, 5.81867360e-02, 1.48849795e-02,
          3.38294990e-02, 2.70635989e-02 ]
      - [ 1.08932462e-02, 4.35729837e-03, 9.80392098e-02, 4.57516313e-02,
          1.35076255e-01, 3.92156839e-02, 2.17864919e-03, 6.53594732e-03,
          1.74291935e-02, 2.39651408e-02, 6.53594732e-03, 1.52505441e-02,
          9.15032625e-02, 1.30718946e-02, 8.93246159e-02, 3.26797366e-02,
          2.17864919e-03, 3.05010881e-02, 1.08932462e-02, 1.08932462e-02,
          6.75381273e-02, 2.39651408e-02, 1.74291935e-02, 2.61437893e-02,
          2.83224396e-02, 3.05010881e-02, 4.35729846e-02, 2.17864923e-02,
          3.70370373e-02, 1.74291935e-02 ]
      - [ 2.08044387e-02, 4.71567288e-02, 8.32177512e-03, 2.77392529e-02,
          5.54785039e-03, 4.71567288e-02, 4.99306545e-02, 4.57697660e-02,
          2.91262139e-02, 3.88349518e-02, 6.10263534e-02, 5.13176173e-02,
          2.77392520e-03, 3.32871005e-02, 2.77392520e-03, 2.63522901e-02,
          2.21914016e-02, 3.19001414e-02, 9.01525691e-02, 4.16088775e-02,
          2.91262139e-02, 3.74479890e-02, 2.35783644e-02, 6.38002828e-02,
          2.91262139e-02, 2.21914016e-02, 1.10957008e-02, 4.29958403e-02,
          2.08044387e-02, 3.60610262e-02 ]
      - [ 3.59712243e-02, 3.23741026e-02, 2.33812947e-02, 1.43884895e-02,
          5.39568346e-03, 5.93525209e-02, 5.03597148e-02, 7.37410113e-02,
          1.79856122e-02, 1.00719430e-01, 3.23741026e-02, 3.05755399e-02,
          2.33812947e-02, 1.07913669e-02, 5.39568346e-03, 4.49640304e-02,
          3.95683460e-02, 3.59712243e-02, 3.41726616e-02, 2.51798574e-02,
          1.25899287e-02, 5.75539581e-02, 3.77697833e-02, 5.93525209e-02,
          2.87769791e-02, 1.97841730e-02, 7.19424477e-03, 4.49640304e-02,
          1.61870513e-02, 1.97841730e-02 ]
      - [ 3.17831263e-02, 3.80930118e-02, 8.64688028e-03, 2.26688478e-02,
          3.29516232e-02, 4.65061925e-02, 7.22131357e-02, 5.53867742e-02,
          1.51904654e-02, 5.84248677e-02, 4.34680991e-02, 3.66908163e-02,
          1.44893667e-02, 3.22505273e-02, 3.97289079e-03, 2.54732426e-02,
          7.94578157e-03, 4.95442860e-02, 6.66043460e-02, 2.22014487e-02,
          2.10329518e-02, 7.38490298e-02, 3.29516232e-02, 8.78710002e-02,
          1.37882689e-02, 8.41318071e-03, 1.28534706e-02, 2.00981535e-02,
          1.02827763e-02, 3.43538225e-02 ]
      - [ 3.50877196e-02, 5.45808971e-02, 2.53411308e-02, 2.14424953e-02,
          9.74658877e-03, 4.87329438e-02, 4.67836261e-02, 5.84795326e-02,
          1.16959065e-02, 6.23781681e-02, 1.94931775e-02, 2.14424953e-02,
          1.55945420e-02, 1.16959065e-02, 3.31384018e-02, 5.26315793e-02,
          3.89863551e-02, 3.11890841e-02, 5.84795326e-02, 3.11890841e-02,
          2.33918130e-02, 3.11890841e-02, 5.26315793e-02, 4.28849906e-02,
          4.48343083e-02, 2.72904485e-02, 9.74658877e-03, 4.09356728e-02,
          2.72904485e-02, 1.16959065e-02 ]
      - [ 1.66112948e-02, 6.31229207e-02, 4.98338863e-02, 1.66112948e-02,
          3.32225906e-03, 2.32558139e-02, 3.98671106e-02, 7.30896965e-02,
          2.65780725e-02, 6.97674379e-02, 2.65780725e-02, 2.32558139e-02,
          1.32890362e-02, 6.64451811e-03, 6.64451793e-02, 5.31561449e-02,
          5.98006621e-02, 2.32558139e-02, 4.98338863e-02, 3.32225896e-02,
          6.64451811e-03, 2.65780725e-02, 3.32225906e-03, 3.32225896e-02,
          5.98006621e-02, 3.65448482e-02, 3.32225906e-03, 7.30896965e-02,
          1.32890362e-02, 6.64451811e-03 ]
      - [ 3.44827585e-02, 1.14942528e-02, 1.14942528e-02, 0.,
          6.89655170e-02, 3.44827585e-02, 5.74712642e-02, 5.74712642e-02,
          0., 2.29885057e-02, 2.29885057e-02, 0., 2.29885057e-02,
          1.72413796e-01, 0., 4.59770113e-02, 2.29885057e-02, 0.,
          1.03448272e-01, 2.29885057e-02, 2.29885057e-02, 3.44827585e-02,
          2.29885057e-02, 9.19540226e-02, 2.29885057e-02, 1.14942528e-02,
          0., 3.44827585e-02, 2.29885057e-02, 2.29885057e-02 ]
      - [ 2.38907840e-02, 2.73037534e-02, 6.48464113e-02, 1.70648452e-02,
          6.82593836e-03, 1.70648452e-02, 4.43685986e-02, 1.70648452e-02,
          2.38907840e-02, 1.36518767e-02, 4.77815680e-02, 3.75426598e-02,
          0., 1.05802044e-01, 8.87371972e-02, 4.09556292e-02,
          4.77815680e-02, 3.41296918e-03, 3.75426598e-02, 2.04778146e-02,
          1.70648452e-02, 1.70648452e-02, 2.04778146e-02, 5.11945374e-02,
          3.75426598e-02, 5.80204763e-02, 3.41296918e-03, 6.48464113e-02,
          2.73037534e-02, 1.70648452e-02 ]
      - [ 6.77966094e-03, 1.35593219e-02, 8.47457647e-02, 6.77966094e-03,
          3.72881368e-02, 1.69491526e-02, 2.71186437e-02, 2.37288140e-02,
          4.06779647e-02, 1.69491526e-02, 2.37288140e-02, 2.71186437e-02,
          3.38983047e-03, 0., 3.72881368e-02, 4.06779647e-02,
          7.79661015e-02, 9.15254205e-02, 5.08474559e-02, 1.01694912e-02,
          5.08474559e-02, 1.01694912e-02, 3.38983047e-03, 4.40677963e-02,
          8.13559294e-02, 5.08474559e-02, 1.35593219e-02, 7.11864382e-02,
          6.77966094e-03, 3.05084735e-02 ]
      - [ 3.45489420e-02, 4.03071009e-02, 7.67754298e-03, 2.68714000e-02,
          0., 5.95009588e-02, 7.48560429e-02, 7.48560429e-02,
          7.67754298e-03, 7.67754316e-02, 3.45489420e-02, 3.07101719e-02,
          7.67754298e-03, 1.15163140e-02, 1.34357000e-02, 4.60652560e-02,
          2.49520149e-02, 2.87907869e-02, 6.33397326e-02, 3.07101719e-02,
          9.59692895e-03, 3.64683308e-02, 3.83877158e-02, 5.56621850e-02,
          3.64683308e-02, 2.68714000e-02, 1.15163140e-02, 4.41458710e-02,
          1.34357000e-02, 3.26295570e-02 ]
      - [ 4.16666679e-02, 2.65151523e-02, 1.89393945e-02, 4.16666679e-02,
          2.65151523e-02, 2.65151523e-02, 4.92424257e-02, 2.65151523e-02,
          2.27272734e-02, 2.65151523e-02, 4.92424257e-02, 5.68181835e-02,
          1.51515156e-02, 8.71212184e-02, 3.03030312e-02, 4.16666679e-02,
          5.30303046e-02, 2.27272734e-02, 3.03030312e-02, 3.78787890e-03,
          3.40909101e-02, 4.16666679e-02, 0., 4.54545468e-02,
          4.54545468e-02, 3.40909101e-02, 2.65151523e-02, 3.78787890e-02,
          1.51515156e-02, 2.27272734e-02 ]
      - [ 2.34741792e-02, 3.99061032e-02, 4.69483584e-02, 1.87793430e-02,
          4.69483584e-02, 1.87793430e-02, 3.05164326e-02, 4.92957756e-02,
          6.33802861e-02, 3.05164326e-02, 3.05164326e-02, 1.87793430e-02,
          1.17370896e-02, 1.87793430e-02, 1.87793430e-02, 3.99061032e-02,
          8.45070407e-02, 4.92957756e-02, 3.75586860e-02, 1.40845068e-02,
          4.22535203e-02, 1.87793430e-02, 0., 3.28638516e-02,
          8.21596235e-02, 4.69483584e-02, 1.17370896e-02, 3.52112688e-02,
          1.87793430e-02, 1.87793430e-02 ]
      - [ 1.19047631e-02, 1.98412705e-02, 7.14285746e-02, 1.98412705e-02,
          2.38095261e-02, 3.96825420e-03, 3.17460336e-02, 1.58730168e-02,
          3.57142873e-02, 1.98412705e-02, 5.55555597e-02, 7.93650839e-03,
          2.77777798e-02, 1.07142866e-01, 5.95238134e-02, 4.76190522e-02,
          1.19047631e-02, 2.38095261e-02, 4.76190522e-02, 1.58730168e-02,
          3.17460336e-02, 1.58730168e-02, 0., 6.34920672e-02,
          5.95238134e-02, 3.57142873e-02, 3.17460336e-02, 5.15873060e-02,
          2.38095261e-02, 2.77777798e-02 ]
      - [ 9.82800964e-03, 3.68550345e-02, 8.59950855e-02, 2.94840299e-02,
          3.93120386e-02, 3.43980342e-02, 3.19410302e-02, 2.21130215e-02,
          3.68550345e-02, 3.43980342e-02, 6.87960684e-02, 2.94840299e-02,
          7.37100746e-03, 2.70270258e-02, 3.19410302e-02, 4.17690426e-02,
          3.68550345e-02, 4.91400482e-03, 4.66830470e-02, 1.47420149e-02,
          1.47420149e-02, 2.21130215e-02, 3.93120386e-02, 5.65110557e-02,
          6.14250600e-02, 5.40540516e-02, 2.45700241e-03, 4.42260429e-02,
          1.71990171e-02, 1.71990171e-02 ]
      - [ 1.65837482e-02, 1.82421226e-02, 8.12603682e-02, 2.98507456e-02,
          5.97014911e-02, 3.81426215e-02, 2.65339967e-02, 4.97512445e-02,
          4.31177430e-02, 2.32172478e-02, 5.47263697e-02, 4.64344956e-02,
          4.14593704e-02, 2.81923711e-02, 4.47761193e-02, 4.64344956e-02,
          1.65837482e-02, 2.15588715e-02, 2.98507456e-02, 1.99004970e-02,
          3.15091200e-02, 8.29187408e-03, 6.63349917e-03, 3.81426215e-02,
          3.15091200e-02, 3.31674963e-02, 4.97512426e-03, 4.80928682e-02,
          3.15091200e-02, 2.98507456e-02 ]
      - [ 6.00000005e-03, 2.20000017e-02, 7.00000003e-02, 8.00000038e-03,
          6.80000037e-02, 1.20000001e-02, 3.00000012e-02, 5.20000011e-02,
          3.60000022e-02, 8.00000038e-03, 4.40000035e-02, 3.60000022e-02,
          1.00000007e-02, 2.60000005e-02, 4.60000038e-02, 4.60000038e-02,
          7.60000050e-02, 1.80000011e-02, 4.60000038e-02, 1.40000004e-02,
          3.20000015e-02, 6.00000005e-03, 0., 3.80000025e-02,
          6.20000027e-02, 6.00000024e-02, 1.00000007e-02, 5.00000007e-02,
          4.40000035e-02, 2.40000002e-02 ]
      - [ 3.24022323e-02, 4.02234644e-02, 3.79888266e-02, 5.58659201e-03,
          2.23463681e-02, 4.13407795e-02, 6.14525117e-02, 4.24580984e-02,
          2.23463681e-02, 4.58100550e-02, 3.79888266e-02, 2.68156417e-02,
          2.45810039e-02, 2.23463681e-02, 2.34636869e-02, 4.35754173e-02,
          3.57541889e-02, 3.91061455e-02, 3.91061455e-02, 1.78770944e-02,
          3.35195512e-02, 5.47486022e-02, 8.93854722e-03, 4.91620079e-02,
          3.57541889e-02, 2.12290492e-02, 2.45810039e-02, 5.36312833e-02,
          3.68715078e-02, 1.89944133e-02 ]
      - [ 1.68918923e-03, 2.19594594e-02, 6.41891882e-02, 2.02702712e-02,
          3.37837860e-02, 3.04054059e-02, 3.37837860e-02, 3.54729742e-02,
          3.88513505e-02, 2.19594594e-02, 3.20945941e-02, 3.71621624e-02,
          1.85810812e-02, 3.54729742e-02, 2.53378376e-02, 2.36486495e-02,
          6.08108118e-02, 3.71621624e-02, 4.89864871e-02, 1.35135138e-02,
          5.06756753e-02, 1.68918930e-02, 1.52027030e-02, 6.92567602e-02,
          8.95270258e-02, 5.57432435e-02, 1.18243247e-02, 3.04054059e-02,
          5.06756781e-03, 2.02702712e-02 ]
      - [ 2.23214291e-02, 1.78571437e-02, 6.69642910e-02, 5.35714328e-02,
          1.78571437e-02, 1.78571437e-02, 8.92857183e-03, 8.92857183e-03,
          1.33928582e-02, 1.78571437e-02, 6.25000000e-02, 2.23214291e-02,
          1.33928582e-02, 6.69642910e-02, 2.67857164e-02, 2.67857164e-02,
          4.01785746e-02, 1.33928582e-02, 8.03571492e-02, 2.67857164e-02,
          3.12500000e-02, 2.23214291e-02, 1.33928582e-02, 8.92857164e-02,
          8.48214328e-02, 5.80357164e-02, 1.33928582e-02, 2.67857164e-02,
          3.12500000e-02, 4.46428591e-03 ]
      - [ 1.31147541e-02, 1.31147541e-02, 1.70491800e-01, 2.29508206e-02,
          1.96721312e-02, 1.63934417e-02, 2.62295082e-02, 4.26229499e-02,
          2.62295082e-02, 1.96721312e-02, 3.27868834e-02, 9.83606558e-03,
          9.83606558e-03, 5.57377040e-02, 1.27868846e-01, 2.95081958e-02,
          2.29508206e-02, 6.55737706e-03, 4.91803288e-02, 3.27868853e-03,
          2.95081958e-02, 1.31147541e-02, 3.27868853e-03, 4.59016412e-02,
          1.96721312e-02, 3.27868834e-02, 2.95081958e-02, 3.27868834e-02,
          5.90163916e-02, 1.63934417e-02 ]
      - [ 6.49350649e-03, 2.59740259e-02, 5.84415570e-02, 1.62337665e-02,
          5.51948063e-02, 1.94805190e-02, 5.19480519e-02, 3.57142873e-02,
          2.92207785e-02, 2.92207785e-02, 2.27272734e-02, 2.92207785e-02,
          2.92207785e-02, 1.62337665e-02, 7.46753216e-02, 3.24675329e-02,
          7.46753216e-02, 1.94805190e-02, 3.24675329e-02, 1.29870130e-02,
          2.59740259e-02, 3.24675324e-03, 2.59740259e-02, 4.22077924e-02,
          7.14285746e-02, 6.81818202e-02, 3.24675324e-03, 3.89610380e-02,
          2.27272734e-02, 2.59740259e-02 ]
      - [ 3.67231630e-02, 1.12994350e-02, 2.82485876e-02, 1.41242938e-02,
          3.10734473e-02, 5.08474559e-02, 3.38983051e-02, 5.64971752e-02,
          2.82485876e-02, 5.93220331e-02, 3.67231630e-02, 3.95480245e-02,
          1.12994350e-02, 4.80225980e-02, 2.54237279e-02, 6.77966103e-02,
          5.36723174e-02, 1.69491526e-02, 5.08474559e-02, 8.47457629e-03,
          8.47457629e-03, 2.54237279e-02, 6.21468946e-02, 4.80225980e-02,
          2.25988701e-02, 2.25988701e-02, 1.12994350e-02, 2.54237279e-02,
          1.69491526e-02, 4.80225980e-02 ]
      - [ 2.98245624e-02, 1.22807017e-02, 5.78947365e-02, 3.50877200e-03,
          3.68421078e-02, 3.50877196e-02, 2.45614033e-02, 1.75438598e-02,
          4.73684222e-02, 2.80701760e-02, 2.80701760e-02, 3.15789469e-02,
          1.92982461e-02, 2.80701760e-02, 4.73684222e-02, 6.66666701e-02,
          4.56140377e-02, 4.38596494e-02, 3.15789469e-02, 1.40350880e-02,
          5.61403520e-02, 2.28070188e-02, 3.50877200e-03, 2.10526325e-02,
          5.96491247e-02, 4.91228066e-02, 2.10526325e-02, 7.01754391e-02,
          3.15789469e-02, 1.57894734e-02 ]
      - [ 2.28310488e-02, 0., 2.00913236e-01, 4.56620986e-03,
          9.13241971e-03, 1.36986300e-02, 0., 4.56620986e-03,
          4.56620986e-03, 9.13241971e-03, 2.28310488e-02, 1.36986300e-02,
          0., 1.00456618e-01, 3.01369846e-01, 4.56620976e-02, 0.,
          4.56620986e-03, 1.36986300e-02, 4.56620986e-03, 1.82648394e-02,
          4.56620986e-03, 0., 3.19634676e-02, 1.82648394e-02,
          4.10958901e-02, 1.36986300e-02, 5.02283089e-02, 4.10958901e-02,
          4.56620986e-03 ]
      - [ 2.36220472e-02, 0., 0., 3.14960629e-02, 0., 1.57480314e-02,
          7.87401572e-02, 7.87401572e-02, 7.87401572e-03, 2.36220472e-02,
          5.51181100e-02, 1.57480314e-02, 7.87401572e-03, 1.57480314e-01,
          6.29921257e-02, 2.36220472e-02, 7.87401572e-03, 1.57480314e-02,
          8.66141766e-02, 1.57480314e-02, 1.57480314e-02, 2.36220472e-02,
          3.14960629e-02, 4.72440943e-02, 3.14960629e-02, 4.72440943e-02,
          1.57480314e-02, 5.51181100e-02, 0., 2.36220472e-02 ]
      - [ 1.40845068e-02, 4.69483575e-03, 1.12676054e-01, 4.69483575e-03,
          1.40845068e-02, 3.75586860e-02, 9.38967150e-03, 1.40845068e-02,
          4.69483575e-03, 2.34741792e-02, 3.75586860e-02, 1.87793430e-02,
          3.75586860e-02, 6.57277033e-02, 1.31455407e-01, 3.28638516e-02,
          9.38967150e-03, 4.69483575e-03, 3.75586860e-02, 1.40845068e-02,
          2.81690136e-02, 9.38967150e-03, 9.38967150e-03, 3.28638516e-02,
          3.28638516e-02, 2.81690136e-02, 8.45070407e-02, 5.16431928e-02,
          7.04225376e-02, 2.34741792e-02 ]
      - [ 0., 3.37837860e-02, 1.35135138e-02, 2.70270277e-02,
          1.35135138e-02, 1.35135138e-02, 8.78378376e-02, 4.05405425e-02,
          6.75675692e-03, 2.02702712e-02, 4.05405425e-02, 2.02702712e-02,
          4.72972989e-02, 1.21621624e-01, 3.37837860e-02, 6.08108118e-02,
          6.75675692e-03, 7.43243247e-02, 3.37837860e-02, 0.,
          3.37837860e-02, 7.43243247e-02, 2.70270277e-02, 9.45945978e-02,
          2.70270277e-02, 6.75675692e-03, 6.75675692e-03, 3.37837860e-02,
          0., 0. ]
      - [ 1.12994350e-02, 1.69491526e-02, 1.29943505e-01, 1.12994350e-02,
          5.64971752e-03, 1.69491526e-02, 0., 1.69491526e-02, 0.,
          1.12994350e-02, 3.95480245e-02, 1.12994350e-02, 5.64971752e-03,
          1.01694912e-01, 1.52542368e-01, 3.95480245e-02, 5.64971752e-03,
          0., 2.82485876e-02, 1.12994350e-02, 3.38983051e-02,
          5.64971752e-03, 5.64971752e-03, 1.69491526e-02, 5.64971752e-02,
          6.77966103e-02, 8.47457647e-02, 5.08474559e-02, 5.64971752e-02,
          5.64971752e-03 ]
      - [ 4.63499408e-03, 8.11123941e-03, 1.37891069e-01, 2.08574738e-02,
          5.44611812e-02, 3.12862098e-02, 1.96987242e-02, 1.62224788e-02,
          1.39049822e-02, 3.24449576e-02, 3.24449576e-02, 3.47624570e-02,
          3.24449576e-02, 5.44611812e-02, 8.34298953e-02, 3.36037055e-02,
          2.89687123e-02, 2.20162217e-02, 2.78099645e-02, 1.04287369e-02,
          2.89687123e-02, 3.82387005e-02, 2.08574738e-02, 8.45886394e-02,
          1.50637310e-02, 1.50637310e-02, 1.85399763e-02, 2.54924670e-02,
          2.89687123e-02, 2.43337192e-02 ]
      - [ 1.25195617e-02, 1.09546166e-02, 1.01721436e-01, 2.97339596e-02,
          1.01721436e-01, 4.06885743e-02, 2.34741773e-02, 4.06885743e-02,
          1.40845068e-02, 3.59937400e-02, 2.81690136e-02, 3.44287939e-02,
          3.12989056e-02, 2.81690136e-02, 5.63380271e-02, 1.72143970e-02,
          2.66040694e-02, 4.22535203e-02, 1.40845068e-02, 7.82472640e-03,
          3.44287939e-02, 3.12989056e-02, 1.09546166e-02, 5.47730811e-02,
          1.72143970e-02, 1.87793430e-02, 4.06885743e-02, 2.03442872e-02,
          3.75586860e-02, 3.59937400e-02 ]
      - [ 8.70511401e-03, 1.52339498e-02, 1.37105539e-01, 3.48204561e-02,
          4.02611531e-02, 3.48204561e-02, 3.15560400e-02, 2.50272024e-02,
          1.63220894e-02, 2.72034816e-02, 3.59085947e-02, 3.91730145e-02,
          1.41458102e-02, 5.00544049e-02, 8.16104412e-02, 2.50272024e-02,
          1.95865072e-02, 1.95865072e-02, 2.93797590e-02, 1.84983667e-02,
          1.63220894e-02, 2.39390638e-02, 1.63220894e-02, 6.42002150e-02,
          3.15560400e-02, 2.39390638e-02, 8.70511401e-03, 3.04678995e-02,
          4.02611531e-02, 4.02611531e-02 ]
      - [ 4.34782589e-03, 1.73913036e-02, 1.82608694e-01, 2.17391290e-02,
          8.69565178e-03, 4.34782580e-02, 8.69565178e-03, 2.17391290e-02,
          1.30434781e-02, 4.34782580e-02, 6.52173907e-02, 3.04347817e-02,
          1.30434781e-02, 1.30434781e-02, 6.95652142e-02, 3.47826071e-02,
          0., 4.78260852e-02, 4.34782580e-02, 1.73913036e-02,
          8.69565178e-03, 1.30434781e-02, 2.60869563e-02, 8.26086923e-02,
          4.34782580e-02, 4.34782580e-02, 8.69565178e-03, 3.47826071e-02,
          1.73913036e-02, 2.17391290e-02 ]
      - [ 0., 1.57068074e-02, 1.04712039e-01, 2.09424086e-02,
          2.61780098e-02, 4.71204184e-02, 2.35602092e-02, 3.66492160e-02,
          1.04712043e-02, 3.40314135e-02, 7.85340294e-02, 4.45026197e-02,
          2.61780098e-02, 3.92670147e-02, 5.49738221e-02, 3.92670147e-02,
          1.57068074e-02, 2.61780098e-02, 6.02094233e-02, 1.30890049e-02,
          7.85340369e-03, 2.35602092e-02, 5.23560196e-02, 8.63874331e-02,
          1.83246080e-02, 1.83246080e-02, 1.83246080e-02, 2.87958123e-02,
          1.04712043e-02, 1.83246080e-02 ]
      - [ 1.20845921e-02, 2.11480372e-02, 4.22960743e-02, 1.81268882e-02,
          2.11480372e-02, 4.53172214e-02, 2.41691843e-02, 2.11480372e-02,
          1.51057402e-02, 2.71903314e-02, 7.55287036e-02, 4.53172214e-02,
          4.83383685e-02, 2.71903314e-02, 5.43806627e-02, 3.32326293e-02,
          1.20845921e-02, 3.02114803e-02, 5.43806627e-02, 2.41691843e-02,
          2.11480372e-02, 3.32326293e-02, 7.85498470e-02, 5.74018136e-02,
          9.06344410e-03, 1.51057402e-02, 3.32326293e-02, 4.53172214e-02,
          1.81268882e-02, 3.62537764e-02 ]
      - [ 1.25000002e-02, 1.87500007e-02, 5.93749993e-02, 5.62500022e-02,
          3.75000015e-02, 2.50000004e-02, 1.56250000e-02, 1.87500007e-02,
          1.87500007e-02, 4.06250022e-02, 7.18749985e-02, 5.93749993e-02,
          1.56250000e-02, 3.43750007e-02, 3.75000015e-02, 5.93749993e-02,
          0., 3.12500000e-02, 2.81250011e-02, 6.25000009e-03,
          3.12500000e-02, 5.00000007e-02, 4.68750000e-02, 4.68750000e-02,
          2.81250011e-02, 1.25000002e-02, 5.00000007e-02, 4.06250022e-02,
          3.75000015e-02, 9.37500037e-03 ]
      - [ 6.87285233e-03, 2.06185579e-02, 9.27835032e-02, 1.71821304e-02,
          2.74914093e-02, 2.06185579e-02, 2.40549836e-02, 2.06185579e-02,
          6.87285233e-03, 2.40549836e-02, 4.46735397e-02, 2.06185579e-02,
          1.03092790e-02, 5.49828187e-02, 6.18556701e-02, 3.78006883e-02,
          3.43642607e-02, 2.40549836e-02, 4.12371159e-02, 2.06185579e-02,
          4.12371159e-02, 5.15463911e-02, 3.43642607e-02, 5.84192462e-02,
          5.49828187e-02, 2.74914093e-02, 3.43642607e-02, 5.84192462e-02,
          1.03092790e-02, 1.71821304e-02 ]
      - [ 8.67052004e-03, 2.02312134e-02, 5.49132936e-02, 2.60115601e-02,
          6.06936403e-02, 3.75722535e-02, 3.17919068e-02, 8.67052004e-03,
          1.44508667e-02, 3.17919068e-02, 6.93641603e-02, 3.75722535e-02,
          1.73410401e-02, 3.17919068e-02, 3.75722535e-02, 6.35838136e-02,
          0., 4.91329469e-02, 4.04624268e-02, 2.02312134e-02,
          3.46820801e-02, 4.04624268e-02, 4.62427735e-02, 2.60115601e-02,
          1.44508667e-02, 2.31213868e-02, 5.20231202e-02, 5.20231202e-02,
          1.73410401e-02, 3.17919068e-02 ]
      - [ 1.74757279e-02, 2.33009718e-02, 8.93203914e-02, 1.16504859e-02,
          4.07766998e-02, 3.68932039e-02, 2.33009718e-02, 1.35922330e-02,
          2.13592239e-02, 2.71844659e-02, 5.63106798e-02, 3.68932039e-02,
          3.10679618e-02, 4.46601957e-02, 8.54368955e-02, 4.66019437e-02,
          3.68932039e-02, 9.70873795e-03, 4.27184477e-02, 1.94174759e-02,
          1.35922330e-02, 1.35922330e-02, 9.70873795e-03, 5.82524277e-02,
          4.46601957e-02, 4.27184477e-02, 1.35922330e-02, 4.46601957e-02,
          2.91262139e-02, 1.55339809e-02 ]
      - [ 1.40845068e-02, 0., 2.30046958e-01, 4.69483575e-03,
          1.40845068e-02, 1.87793430e-02, 0., 0., 0., 4.69483575e-03,
          1.87793430e-02, 1.40845068e-02, 4.69483575e-03, 7.04225376e-02,
          2.67605633e-01, 3.75586860e-02, 4.69483575e-03, 0.,
          4.69483575e-03, 4.69483575e-03, 2.34741792e-02, 1.40845068e-02,
          1.40845068e-02, 1.40845068e-02, 2.81690136e-02, 5.63380271e-02,
          3.75586860e-02, 5.16431928e-02, 3.75586860e-02, 9.38967150e-03 ]
      - [ 0., 0., 1.33333340e-01, 1.66666675e-02, 0., 2.50000022e-02, 0.,
          6.66666701e-02, 8.33333377e-03, 8.33333377e-03, 4.16666679e-02,
          3.33333351e-02, 0., 0., 1.41666681e-01, 8.33333358e-02,
          2.50000022e-02, 0., 5.00000045e-02, 8.33333377e-03,
          2.50000022e-02, 8.33333377e-03, 8.33333377e-03, 3.33333351e-02,
          8.33333358e-02, 1.16666675e-01, 0., 8.33333358e-02, 0., 0. ]
      - [ 2.59740255e-03, 2.07792204e-02, 1.14285715e-01, 1.55844148e-02,
          1.55844148e-02, 2.07792204e-02, 3.89610380e-02, 2.07792204e-02,
          2.33766232e-02, 2.85714287e-02, 4.93506491e-02, 3.63636352e-02,
          7.79220741e-03, 4.67532463e-02, 8.57142806e-02, 2.33766232e-02,
          2.07792204e-02, 1.55844148e-02, 4.67532463e-02, 1.55844148e-02,
          2.59740259e-02, 3.89610380e-02, 3.63636352e-02, 5.19480519e-02,
          2.59740259e-02, 1.03896102e-02, 2.07792204e-02, 5.19480519e-02,
          5.19480519e-02, 3.63636352e-02 ]
      - [ 5.24934381e-03, 2.62467191e-02, 1.10236220e-01, 3.41207348e-02,
          1.57480314e-02, 1.57480314e-02, 4.19947505e-02, 2.09973752e-02,
          1.57480314e-02, 3.14960629e-02, 4.72440943e-02, 5.77427819e-02,
          1.04986876e-02, 4.72440943e-02, 1.10236220e-01, 2.88713910e-02,
          2.62467191e-02, 1.83727033e-02, 3.93700786e-02, 2.09973752e-02,
          1.57480314e-02, 2.36220472e-02, 2.09973752e-02, 6.56168014e-02,
          3.41207348e-02, 2.62467191e-02, 1.04986876e-02, 5.24934381e-02,
          7.87401572e-03, 1.83727033e-02 ]
      - [ 1.84049085e-02, 0., 1.41104296e-01, 6.13496918e-03,
          2.45398767e-02, 1.84049085e-02, 6.13496918e-03, 1.84049085e-02,
          6.13496918e-03, 6.13496918e-03, 3.68098170e-02, 1.84049085e-02,
          6.13496900e-02, 9.20245349e-02, 2.02453986e-01, 9.20245349e-02,
          0., 0., 1.22699384e-02, 6.13496918e-03, 6.13496918e-03,
          1.22699384e-02, 0., 1.84049085e-02, 3.06748450e-02,
          4.29447852e-02, 1.84049085e-02, 5.52147217e-02, 4.90797535e-02,
          0. ]
      - [ 2.03045681e-02, 0., 1.26903549e-01, 0., 5.07614203e-03,
          2.53807101e-02, 5.07614203e-03, 1.01522841e-02, 1.01522841e-02,
          1.52284261e-02, 4.56852764e-02, 5.07614203e-03, 3.04568522e-02,
          9.64467004e-02, 1.97969541e-01, 4.56852764e-02, 0.,
          5.07614203e-03, 1.01522841e-02, 5.07614203e-03, 1.52284261e-02,
          1.52284261e-02, 1.01522841e-02, 2.53807101e-02, 3.04568522e-02,
          6.09137043e-02, 3.55329961e-02, 4.56852764e-02, 1.01522841e-01,
          0. ]
      - [ 4.90196096e-03, 1.47058833e-02, 1.27450988e-01, 2.69607846e-02,
          2.94117667e-02, 3.92156877e-02, 3.67647074e-02, 7.35294167e-03,
          9.80392192e-03, 3.67647074e-02, 5.63725494e-02, 3.18627469e-02,
          1.71568636e-02, 3.18627469e-02, 7.35294148e-02, 5.63725494e-02,
          2.45098043e-02, 2.20588241e-02, 1.96078438e-02, 1.71568636e-02,
          2.94117667e-02, 1.96078438e-02, 1.96078438e-02, 3.43137272e-02,
          4.65686284e-02, 4.16666679e-02, 2.45098043e-02, 4.41176482e-02,
          3.18627469e-02, 2.45098043e-02 ]
      - [ 0., 7.14285718e-03, 1.32142857e-01, 3.21428590e-02,
          2.14285720e-02, 1.78571437e-02, 1.42857144e-02, 2.14285720e-02,
          2.14285720e-02, 3.92857157e-02, 3.21428590e-02, 3.92857157e-02,
          1.42857144e-02, 4.64285724e-02, 9.28571448e-02, 5.35714291e-02,
          1.42857144e-02, 2.14285720e-02, 5.35714291e-02, 7.14285718e-03,
          2.14285720e-02, 3.21428590e-02, 2.50000004e-02, 7.50000030e-02,
          3.57142873e-02, 1.07142860e-02, 1.07142860e-02, 5.35714291e-02,
          2.14285720e-02, 3.21428590e-02 ]
      - [ 3.17460322e-03, 1.26984129e-02, 1.11111112e-01, 9.52380989e-03,
          2.22222228e-02, 5.39682545e-02, 2.53968257e-02, 1.26984129e-02,
          2.22222228e-02, 2.53968257e-02, 5.07936515e-02, 2.85714287e-02,
          2.22222228e-02, 5.39682545e-02, 7.93650821e-02, 5.39682545e-02,
          9.52380989e-03, 9.52380989e-03, 2.53968257e-02, 6.34920644e-03,
          1.58730168e-02, 3.49206366e-02, 2.22222228e-02, 1.20634921e-01,
          1.90476198e-02, 1.90476198e-02, 2.22222228e-02, 5.71428575e-02,
          2.53968257e-02, 2.53968257e-02 ]
      - [ 7.29927002e-03, 0., 1.53284669e-01, 7.29927002e-03,
          7.29927002e-03, 1.45985400e-02, 2.91970801e-02, 7.29926974e-02,
          2.18978096e-02, 1.45985400e-02, 2.91970801e-02, 0., 0.,
          3.64963487e-02, 1.60583943e-01, 3.64963487e-02, 3.64963487e-02,
          0., 3.64963487e-02, 7.29927002e-03, 2.18978096e-02, 0., 0.,
          5.83941601e-02, 1.02189779e-01, 8.75912383e-02, 0.,
          5.83941601e-02, 0., 0. ]
      - [ 1.28755365e-02, 1.71673819e-02, 1.33047208e-01, 4.29184549e-03,
          1.71673819e-02, 1.28755365e-02, 4.29184549e-03, 1.71673819e-02,
          2.14592274e-02, 4.29184549e-03, 2.57510729e-02, 2.57510729e-02,
          1.71673819e-02, 8.15450624e-02, 1.88841194e-01, 6.43776804e-02,
          0., 1.28755365e-02, 8.58369097e-03, 0., 3.43347639e-02,
          4.29184549e-03, 0., 3.86266112e-02, 2.57510729e-02,
          6.43776804e-02, 2.14592274e-02, 5.57939932e-02, 8.58369097e-02,
          0. ]
      - [ 9.70873795e-03, 0., 1.06796116e-01, 9.70873795e-03,
          1.94174759e-02, 4.85436898e-03, 2.42718458e-02, 3.39805819e-02,
          4.85436898e-03, 0., 2.91262139e-02, 4.85436898e-03,
          2.42718458e-02, 8.25242698e-02, 2.18446597e-01, 5.33980578e-02,
          0., 1.45631069e-02, 4.85436898e-03, 4.85436898e-03,
          6.79611638e-02, 4.85436898e-03, 0., 3.39805819e-02,
          2.91262139e-02, 5.33980578e-02, 4.85436898e-03, 5.82524277e-02,
          9.22330096e-02, 4.85436898e-03 ]
      - [ 1.52671756e-02, 3.05343512e-02, 5.34351133e-02, 1.52671756e-02,
          7.63358781e-03, 2.29007639e-02, 4.58015278e-02, 3.81679386e-02,
          1.52671756e-02, 2.29007639e-02, 6.10687025e-02, 6.87022880e-02,
          1.52671756e-02, 1.52671756e-02, 2.29007639e-02, 8.39694664e-02,
          5.34351133e-02, 7.63358781e-03, 6.10687025e-02, 3.05343512e-02,
          2.29007639e-02, 1.52671756e-02, 2.29007639e-02, 4.58015278e-02,
          5.34351133e-02, 3.05343512e-02, 1.52671756e-02, 7.63358772e-02,
          1.52671756e-02, 1.52671756e-02 ]
      - [ 3.37837846e-03, 1.35135138e-02, 6.41891882e-02, 1.68918930e-02,
          1.68918930e-02, 2.02702712e-02, 2.02702712e-02, 4.05405425e-02,
          2.36486495e-02, 4.05405425e-02, 4.39189188e-02, 1.35135138e-02,
          1.01351356e-02, 6.08108118e-02, 7.77027011e-02, 7.09459484e-02,
          3.71621624e-02, 1.01351356e-02, 4.72972989e-02, 6.75675692e-03,
          2.02702712e-02, 1.35135138e-02, 2.02702712e-02, 8.78378376e-02,
          3.71621624e-02, 3.71621624e-02, 2.36486495e-02, 8.10810849e-02,
          2.02702712e-02, 2.02702712e-02 ]
      - [ 9.85221658e-03, 9.85221658e-03, 5.91133013e-02, 1.47783253e-02,
          2.95566507e-02, 1.47783253e-02, 3.44827585e-02, 2.95566507e-02,
          1.97044332e-02, 3.94088663e-02, 6.40394092e-02, 7.38916248e-02,
          9.85221658e-03, 1.47783253e-02, 3.94088663e-02, 7.38916248e-02,
          1.47783253e-02, 1.47783253e-02, 3.94088663e-02, 9.85221658e-03,
          9.85221658e-03, 2.95566507e-02, 2.95566507e-02, 6.89655170e-02,
          3.94088663e-02, 3.94088663e-02, 2.46305410e-02, 7.88177326e-02,
          4.43349741e-02, 1.97044332e-02 ]
      - [ 0., 4.65116277e-03, 1.53488368e-01, 1.39534883e-02,
          4.65116277e-03, 4.18604650e-02, 4.18604650e-02, 9.76744145e-02,
          2.32558139e-02, 4.65116277e-02, 2.79069766e-02, 9.30232555e-03,
          0., 9.30232555e-03, 8.37209299e-02, 6.04651161e-02,
          2.32558139e-02, 1.39534883e-02, 3.72093022e-02, 1.86046511e-02,
          2.32558139e-02, 1.86046511e-02, 2.32558139e-02, 4.18604650e-02,
          4.65116277e-02, 4.65116277e-02, 4.65116277e-03, 6.51162788e-02,
          1.39534883e-02, 4.65116277e-03 ]
      - [ 1.36986300e-02, 4.56620986e-03, 1.09589040e-01, 4.56620986e-03,
          3.65296789e-02, 1.36986300e-02, 6.84931502e-02, 8.67579877e-02,
          0., 2.28310488e-02, 4.10958901e-02, 9.13241971e-03,
          1.36986300e-02, 5.02283089e-02, 5.93607277e-02, 4.56620976e-02,
          5.93607277e-02, 9.13241971e-03, 5.47945201e-02, 1.36986300e-02,
          0., 1.36986300e-02, 9.13241971e-03, 7.76255652e-02,
          5.02283089e-02, 4.56620976e-02, 0., 5.47945201e-02,
          9.13241971e-03, 2.28310488e-02 ]
      - [ 5.02512557e-03, 2.01005023e-02, 1.00502511e-02, 2.01005023e-02,
          2.01005023e-02, 4.52261306e-02, 5.02512567e-02, 1.10552765e-01,
          5.02512557e-03, 3.01507525e-02, 7.03517571e-02, 2.01005023e-02,
          1.50753763e-02, 4.02010046e-02, 1.00502511e-02, 6.03015050e-02,
          0., 1.50753763e-02, 9.04522613e-02, 1.00502511e-02,
          1.50753763e-02, 0., 6.03015050e-02, 1.70854270e-01,
          2.01005023e-02, 2.51256283e-02, 5.02512557e-03, 4.02010046e-02,
          0., 1.50753763e-02 ]
      - [ 5.15463902e-03, 1.03092780e-02, 8.76288638e-02, 3.09278332e-02,
          1.54639166e-02, 3.09278332e-02, 1.54639166e-02, 2.06185561e-02,
          3.60824727e-02, 3.09278332e-02, 2.57731955e-02, 2.06185561e-02,
          2.57731955e-02, 2.06185561e-02, 4.63917516e-02, 7.73195848e-02,
          7.21649453e-02, 4.12371121e-02, 3.60824727e-02, 1.03092780e-02,
          1.03092780e-02, 1.03092780e-02, 1.03092780e-02, 3.60824727e-02,
          7.21649453e-02, 5.67010306e-02, 1.54639166e-02, 9.79381427e-02,
          1.54639166e-02, 1.54639166e-02 ]
      - [ 0., 2.16216221e-02, 9.72972959e-02, 4.32432443e-02,
          1.62162166e-02, 2.16216221e-02, 1.08108111e-02, 1.62162166e-02,
          1.08108111e-02, 3.78378406e-02, 2.70270277e-02, 1.08108111e-02,
          5.40540554e-03, 5.40540554e-03, 6.48648664e-02, 8.64864886e-02,
          4.32432443e-02, 4.32432443e-02, 3.78378406e-02, 5.40540554e-03,
          1.62162166e-02, 1.08108111e-02, 5.40540554e-03, 2.16216221e-02,
          1.40540540e-01, 5.94594628e-02, 0., 9.18918923e-02,
          3.24324332e-02, 1.62162166e-02 ]
      - [ 6.09756075e-03, 2.43902430e-02, 1.03658535e-01, 2.43902430e-02,
          2.43902430e-02, 1.21951215e-02, 6.09756075e-03, 6.09756075e-03,
          4.26829234e-02, 6.09756075e-03, 4.87804860e-02, 1.82926822e-02,
          1.21951215e-02, 3.04878037e-02, 1.82926822e-02, 6.09756075e-02,
          2.43902430e-02, 1.82926822e-02, 2.43902430e-02, 2.43902430e-02,
          6.09756075e-03, 6.09756075e-03, 6.09756075e-03, 4.26829234e-02,
          1.21951215e-01, 8.53658468e-02, 1.82926822e-02, 1.15853652e-01,
          3.65853645e-02, 2.43902430e-02 ]
      - [ 5.31914877e-03, 1.06382975e-02, 1.38297871e-01, 2.12765951e-02,
          5.31914877e-03, 2.65957434e-02, 1.06382975e-02, 2.65957434e-02,
          5.85106350e-02, 5.85106350e-02, 3.72340418e-02, 1.06382975e-02,
          5.31914877e-03, 2.12765951e-02, 6.38297871e-02, 6.91489354e-02,
          4.25531901e-02, 3.19148935e-02, 3.19148935e-02, 1.59574468e-02,
          1.06382975e-02, 5.31914877e-03, 1.06382975e-02, 3.19148935e-02,
          6.91489354e-02, 7.97872320e-02, 0., 7.97872320e-02, 0.,
          2.12765951e-02 ]
      - [ 0., 1.55440411e-02, 1.24352328e-01, 2.59067342e-02,
          1.55440411e-02, 5.18134702e-03, 3.10880821e-02, 5.18134702e-03,
          1.55440411e-02, 2.59067342e-02, 5.69948182e-02, 2.59067342e-02,
          1.03626940e-02, 1.03626940e-02, 7.25388601e-02, 5.69948182e-02,
          4.66321222e-02, 3.10880821e-02, 2.59067342e-02, 1.55440411e-02,
          2.07253881e-02, 5.18134702e-03, 2.07253881e-02, 3.62694301e-02,
          7.25388601e-02, 8.29015523e-02, 1.03626940e-02, 1.08808286e-01,
          1.03626940e-02, 1.55440411e-02 ]
      - [ 1.40845068e-02, 9.38967150e-03, 9.85915512e-02, 1.87793430e-02,
          1.40845068e-02, 4.69483575e-03, 2.81690136e-02, 7.04225376e-02,
          1.87793430e-02, 4.69483575e-03, 4.69483584e-02, 4.69483575e-03,
          0., 8.45070407e-02, 7.04225376e-02, 5.16431928e-02,
          3.75586860e-02, 1.40845068e-02, 3.75586860e-02, 9.38967150e-03,
          3.28638516e-02, 2.81690136e-02, 3.28638516e-02, 5.16431928e-02,
          6.57277033e-02, 5.63380271e-02, 1.40845068e-02, 5.16431928e-02,
          4.69483575e-03, 2.34741792e-02 ]
      - [ 9.70873795e-03, 1.45631069e-02, 1.01941749e-01, 1.94174759e-02,
          1.94174759e-02, 1.94174759e-02, 1.45631069e-02, 1.45631069e-02,
          1.94174759e-02, 2.42718458e-02, 5.82524277e-02, 2.42718458e-02,
          9.70873795e-03, 2.42718458e-02, 5.82524277e-02, 6.31067976e-02,
          4.85436916e-02, 1.45631069e-02, 2.91262139e-02, 1.45631069e-02,
          9.70873795e-03, 4.85436898e-03, 3.88349518e-02, 3.88349518e-02,
          9.22330096e-02, 1.21359222e-01, 0., 7.76699036e-02,
          4.85436898e-03, 9.70873795e-03 ]
      - [ 5.78034669e-03, 0., 8.09248537e-02, 2.89017335e-02,
          1.73410401e-02, 2.31213868e-02, 1.73410401e-02, 1.15606934e-02,
          4.04624268e-02, 1.73410401e-02, 5.20231202e-02, 1.15606934e-02,
          1.15606934e-02, 3.46820801e-02, 7.51445070e-02, 9.82658938e-02,
          4.62427735e-02, 5.78034669e-02, 2.31213868e-02, 1.15606934e-02,
          1.15606934e-02, 2.31213868e-02, 5.78034669e-03, 2.89017335e-02,
          8.09248537e-02, 6.93641603e-02, 1.15606934e-02, 9.24855471e-02,
          5.78034669e-03, 5.78034669e-03 ]
      - [ 5.74712642e-03, 0., 2.12643683e-01, 1.14942528e-02, 0., 0., 0.,
          0., 0., 0., 1.72413792e-02, 0., 5.74712642e-03, 1.49425283e-01,
          2.29885057e-01, 6.32183924e-02, 0., 5.74712642e-03,
          3.44827585e-02, 0., 1.14942528e-02, 1.14942528e-02, 0.,
          5.17241359e-02, 2.29885057e-02, 5.74712642e-02, 1.72413792e-02,
          5.17241359e-02, 4.02298868e-02, 0. ]
      - [ 1.42857144e-02, 2.14285720e-02, 1.28571436e-01, 1.42857144e-02,
          0., 2.85714287e-02, 3.57142873e-02, 7.14285718e-03,
          3.57142873e-02, 5.00000007e-02, 6.42857179e-02, 7.14285718e-03,
